{"learner":{"attributes":{},"feature_names":[],"feature_types":[],"gradient_booster":{"model":{"gbtree_model_param":{"num_parallel_tree":"1","num_trees":"3549"},"iteration_indptr":[0,1,2,3,4,5,6,7,8,9,10,11,12,13,14,15,16,17,18,19,20,21,22,23,24,25,26,27,28,29,30,31,32,33,34,35,36,37,38,39,40,41,42,43,44,45,46,47,48,49,50,51,52,53,54,55,56,57,58,59,60,61,62,63,64,65,66,67,68,69,70,71,72,73,74,75,76,77,78,79,80,81,82,83,84,85,86,87,88,89,90,91,92,93,94,95,96,97,98,99,100,101,102,103,104,105,106,107,108,109,110,111,112,113,114,115,116,117,118,119,120,121,122,123,124,125,126,127,128,129,130,131,132,133,134,135,136,137,138,139,140,141,142,143,144,145,146,147,148,149,150,151,152,153,154,155,156,157,158,159,160,161,162,163,164,165,166,167,168,169,170,171,172,173,174,175,176,177,178,179,180,181,182,183,184,185,186,187,188,189,190,191,192,193,194,195,196,197,198,199,200,201,202,203,204,205,206,207,208,209,210,211,212,213,214,215,216,217,218,219,220,221,222,223,224,225,226,227,228,229,230,231,232,233,234,235,236,237,238,239,240,241,242,243,244,245,246,247,248,249,250,251,252,253,254,255,256,257,258,259,260,261,262,263,264,265,266,267,268,269,270,271,272,273,274,275,276,277,278,279,280,281,282,283,284,285,286,287,288,289,290,291,292,293,294,295,296,297,298,299,300,301,302,303,304,305,306,307,308,309,310,311,312,313,314,315,316,317,318,319,320,321,322,323,324,325,326,327,328,329,330,331,332,333,334,335,336,337,338,339,340,341,342,343,344,345,346,347,348,349,350,351,352,353,354,355,356,357,358,359,360,361,362,363,364,365,366,367,368,369,370,371,372,373,374,375,376,377,378,379,380,381,382,383,384,385,386,387,388,389,390,391,392,393,394,395,396,397,398,399,400,401,402,403,404,405,406,407,408,409,410,411,412,413,414,415,416,417,418,419,420,421,422,423,424,425,426,427,428,429,430,431,432,433,434,435,436,437,438,439,440,441,442,443,444,445,446,447,448,449,450,451,452,453,454,455,456,457,458,459,460,461,462,463,464,465,466,467,468,469,470,471,472,473,474,475,476,477,478,479,480,481,482,483,484,485,486,487,488,489,490,491,492,493,494,495,496,497,498,499,500,501,502,503,504,505,506,507,508,509,510,511,512,513,514,515,516,517,518,519,520,521,522,523,524,525,526,527,528,529,530,531,532,533,534,535,536,537,538,539,540,541,542,543,544,545,546,547,548,549,550,551,552,553,554,555,556,557,558,559,560,561,562,563,564,565,566,567,568,569,570,571,572,573,574,575,576,577,578,579,580,581,582,583,584,585,586,587,588,589,590,591,592,593,594,595,596,597,598,599,600,601,602,603,604,605,606,607,608,609,610,611,612,613,614,615,616,617,618,619,620,621,622,623,624,625,626,627,628,629,630,631,632,633,634,635,636,637,638,639,640,641,642,643,644,645,646,647,648,649,650,651,652,653,654,655,656,657,658,659,660,661,662,663,664,665,666,667,668,669,670,671,672,673,674,675,676,677,678,679,680,681,682,683,684,685,686,687,688,689,690,691,692,693,694,695,696,697,698,699,700,701,702,703,704,705,706,707,708,709,710,711,712,713,714,715,716,717,718,719,720,721,722,723,724,725,726,727,728,729,730,731,732,733,734,735,736,737,738,739,740,741,742,743,744,745,746,747,748,749,750,751,752,753,754,755,756,757,758,759,760,761,762,763,764,765,766,767,768,769,770,771,772,773,774,775,776,777,778,779,780,781,782,783,784,785,786,787,788,789,790,791,792,793,794,795,796,797,798,799,800,801,802,803,804,805,806,807,808,809,810,811,812,813,814,815,816,817,818,819,820,821,822,823,824,825,826,827,828,829,830,831,832,833,834,835,836,837,838,839,840,841,842,843,844,845,846,847,848,849,850,851,852,853,854,855,856,857,858,859,860,861,862,863,864,865,866,867,868,869,870,871,872,873,874,875,876,877,878,879,880,881,882,883,884,885,886,887,888,889,890,891,892,893,894,895,896,897,898,899,900,901,902,903,904,905,906,907,908,909,910,911,912,913,914,915,916,917,918,919,920,921,922,923,924,925,926,927,928,929,930,931,932,933,934,935,936,937,938,939,940,941,942,943,944,945,946,947,948,949,950,951,952,953,954,955,956,957,958,959,960,961,962,963,964,965,966,967,968,969,970,971,972,973,974,975,976,977,978,979,980,981,982,983,984,985,986,987,988,989,990,991,992,993,994,995,996,997,998,999,1000,1001,1002,1003,1004,1005,1006,1007,1008,1009,1010,1011,1012,1013,1014,1015,1016,1017,1018,1019,1020,1021,1022,1023,1024,1025,1026,1027,1028,1029,1030,1031,1032,1033,1034,1035,1036,1037,1038,1039,1040,1041,1042,1043,1044,1045,1046,1047,1048,1049,1050,1051,1052,1053,1054,1055,1056,1057,1058,1059,1060,1061,1062,1063,1064,1065,1066,1067,1068,1069,1070,1071,1072,1073,1074,1075,1076,1077,1078,1079,1080,1081,1082,1083,1084,1085,1086,1087,1088,1089,1090,1091,1092,1093,1094,1095,1096,1097,1098,1099,1100,1101,1102,1103,1104,1105,1106,1107,1108,1109,1110,1111,1112,1113,1114,1115,1116,1117,1118,1119,1120,1121,1122,1123,1124,1125,1126,1127,1128,1129,1130,1131,1132,1133,1134,1135,1136,1137,1138,1139,1140,1141,1142,1143,1144,1145,1146,1147,1148,1149,1150,1151,1152,1153,1154,1155,1156,1157,1158,1159,1160,1161,1162,1163,1164,1165,1166,1167,1168,1169,1170,1171,1172,1173,1174,1175,1176,1177,1178,1179,1180,1181,1182,1183,1184,1185,1186,1187,1188,1189,1190,1191,1192,1193,1194,1195,1196,1197,1198,1199,1200,1201,1202,1203,1204,1205,1206,1207,1208,1209,1210,1211,1212,1213,1214,1215,1216,1217,1218,1219,1220,1221,1222,1223,1224,1225,1226,1227,1228,1229,1230,1231,1232,1233,1234,1235,1236,1237,1238,1239,1240,1241,1242,1243,1244,1245,1246,1247,1248,1249,1250,1251,1252,1253,1254,1255,1256,1257,1258,1259,1260,1261,1262,1263,1264,1265,1266,1267,1268,1269,1270,1271,1272,1273,1274,1275,1276,1277,1278,1279,1280,1281,1282,1283,1284,1285,1286,1287,1288,1289,1290,1291,1292,1293,1294,1295,1296,1297,1298,1299,1300,1301,1302,1303,1304,1305,1306,1307,1308,1309,1310,1311,1312,1313,1314,1315,1316,1317,1318,1319,1320,1321,1322,1323,1324,1325,1326,1327,1328,1329,1330,1331,1332,1333,1334,1335,1336,1337,1338,1339,1340,1341,1342,1343,1344,1345,1346,1347,1348,1349,1350,1351,1352,1353,1354,1355,1356,1357,1358,1359,1360,1361,1362,1363,1364,1365,1366,1367,1368,1369,1370,1371,1372,1373,1374,1375,1376,1377,1378,1379,1380,1381,1382,1383,1384,1385,1386,1387,1388,1389,1390,1391,1392,1393,1394,1395,1396,1397,1398,1399,1400,1401,1402,1403,1404,1405,1406,1407,1408,1409,1410,1411,1412,1413,1414,1415,1416,1417,1418,1419,1420,1421,1422,1423,1424,1425,1426,1427,1428,1429,1430,1431,1432,1433,1434,1435,1436,1437,1438,1439,1440,1441,1442,1443,1444,1445,1446,1447,1448,1449,1450,1451,1452,1453,1454,1455,1456,1457,1458,1459,1460,1461,1462,1463,1464,1465,1466,1467,1468,1469,1470,1471,1472,1473,1474,1475,1476,1477,1478,1479,1480,1481,1482,1483,1484,1485,1486,1487,1488,1489,1490,1491,1492,1493,1494,1495,1496,1497,1498,1499,1500,1501,1502,1503,1504,1505,1506,1507,1508,1509,1510,1511,1512,1513,1514,1515,1516,1517,1518,1519,1520,1521,1522,1523,1524,1525,1526,1527,1528,1529,1530,1531,1532,1533,1534,1535,1536,1537,1538,1539,1540,1541,1542,1543,1544,1545,1546,1547,1548,1549,1550,1551,1552,1553,1554,1555,1556,1557,1558,1559,1560,1561,1562,1563,1564,1565,1566,1567,1568,1569,1570,1571,1572,1573,1574,1575,1576,1577,1578,1579,1580,1581,1582,1583,1584,1585,1586,1587,1588,1589,1590,1591,1592,1593,1594,1595,1596,1597,1598,1599,1600,1601,1602,1603,1604,1605,1606,1607,1608,1609,1610,1611,1612,1613,1614,1615,1616,1617,1618,1619,1620,1621,1622,1623,1624,1625,1626,1627,1628,1629,1630,1631,1632,1633,1634,1635,1636,1637,1638,1639,1640,1641,1642,1643,1644,1645,1646,1647,1648,1649,1650,1651,1652,1653,1654,1655,1656,1657,1658,1659,1660,1661,1662,1663,1664,1665,1666,1667,1668,1669,1670,1671,1672,1673,1674,1675,1676,1677,1678,1679,1680,1681,1682,1683,1684,1685,1686,1687,1688,1689,1690,1691,1692,1693,1694,1695,1696,1697,1698,1699,1700,1701,1702,1703,1704,1705,1706,1707,1708,1709,1710,1711,1712,1713,1714,1715,1716,1717,1718,1719,1720,1721,1722,1723,1724,1725,1726,1727,1728,1729,1730,1731,1732,1733,1734,1735,1736,1737,1738,1739,1740,1741,1742,1743,1744,1745,1746,1747,1748,1749,1750,1751,1752,1753,1754,1755,1756,1757,1758,1759,1760,1761,1762,1763,1764,1765,1766,1767,1768,1769,1770,1771,1772,1773,1774,1775,1776,1777,1778,1779,1780,1781,1782,1783,1784,1785,1786,1787,1788,1789,1790,1791,1792,1793,1794,1795,1796,1797,1798,1799,1800,1801,1802,1803,1804,1805,1806,1807,1808,1809,1810,1811,1812,1813,1814,1815,1816,1817,1818,1819,1820,1821,1822,1823,1824,1825,1826,1827,1828,1829,1830,1831,1832,1833,1834,1835,1836,1837,1838,1839,1840,1841,1842,1843,1844,1845,1846,1847,1848,1849,1850,1851,1852,1853,1854,1855,1856,1857,1858,1859,1860,1861,1862,1863,1864,1865,1866,1867,1868,1869,1870,1871,1872,1873,1874,1875,1876,1877,1878,1879,1880,1881,1882,1883,1884,1885,1886,1887,1888,1889,1890,1891,1892,1893,1894,1895,1896,1897,1898,1899,1900,1901,1902,1903,1904,1905,1906,1907,1908,1909,1910,1911,1912,1913,1914,1915,1916,1917,1918,1919,1920,1921,1922,1923,1924,1925,1926,1927,1928,1929,1930,1931,1932,1933,1934,1935,1936,1937,1938,1939,1940,1941,1942,1943,1944,1945,1946,1947,1948,1949,1950,1951,1952,1953,1954,1955,1956,1957,1958,1959,1960,1961,1962,1963,1964,1965,1966,1967,1968,1969,1970,1971,1972,1973,1974,1975,1976,1977,1978,1979,1980,1981,1982,1983,1984,1985,1986,1987,1988,1989,1990,1991,1992,1993,1994,1995,1996,1997,1998,1999,2000,2001,2002,2003,2004,2005,2006,2007,2008,2009,2010,2011,2012,2013,2014,2015,2016,2017,2018,2019,2020,2021,2022,2023,2024,2025,2026,2027,2028,2029,2030,2031,2032,2033,2034,2035,2036,2037,2038,2039,2040,2041,2042,2043,2044,2045,2046,2047,2048,2049,2050,2051,2052,2053,2054,2055,2056,2057,2058,2059,2060,2061,2062,2063,2064,2065,2066,2067,2068,2069,2070,2071,2072,2073,2074,2075,2076,2077,2078,2079,2080,2081,2082,2083,2084,2085,2086,2087,2088,2089,2090,2091,2092,2093,2094,2095,2096,2097,2098,2099,2100,2101,2102,2103,2104,2105,2106,2107,2108,2109,2110,2111,2112,2113,2114,2115,2116,2117,2118,2119,2120,2121,2122,2123,2124,2125,2126,2127,2128,2129,2130,2131,2132,2133,2134,2135,2136,2137,2138,2139,2140,2141,2142,2143,2144,2145,2146,2147,2148,2149,2150,2151,2152,2153,2154,2155,2156,2157,2158,2159,2160,2161,2162,2163,2164,2165,2166,2167,2168,2169,2170,2171,2172,2173,2174,2175,2176,2177,2178,2179,2180,2181,2182,2183,2184,2185,2186,2187,2188,2189,2190,2191,2192,2193,2194,2195,2196,2197,2198,2199,2200,2201,2202,2203,2204,2205,2206,2207,2208,2209,2210,2211,2212,2213,2214,2215,2216,2217,2218,2219,2220,2221,2222,2223,2224,2225,2226,2227,2228,2229,2230,2231,2232,2233,2234,2235,2236,2237,2238,2239,2240,2241,2242,2243,2244,2245,2246,2247,2248,2249,2250,2251,2252,2253,2254,2255,2256,2257,2258,2259,2260,2261,2262,2263,2264,2265,2266,2267,2268,2269,2270,2271,2272,2273,2274,2275,2276,2277,2278,2279,2280,2281,2282,2283,2284,2285,2286,2287,2288,2289,2290,2291,2292,2293,2294,2295,2296,2297,2298,2299,2300,2301,2302,2303,2304,2305,2306,2307,2308,2309,2310,2311,2312,2313,2314,2315,2316,2317,2318,2319,2320,2321,2322,2323,2324,2325,2326,2327,2328,2329,2330,2331,2332,2333,2334,2335,2336,2337,2338,2339,2340,2341,2342,2343,2344,2345,2346,2347,2348,2349,2350,2351,2352,2353,2354,2355,2356,2357,2358,2359,2360,2361,2362,2363,2364,2365,2366,2367,2368,2369,2370,2371,2372,2373,2374,2375,2376,2377,2378,2379,2380,2381,2382,2383,2384,2385,2386,2387,2388,2389,2390,2391,2392,2393,2394,2395,2396,2397,2398,2399,2400,2401,2402,2403,2404,2405,2406,2407,2408,2409,2410,2411,2412,2413,2414,2415,2416,2417,2418,2419,2420,2421,2422,2423,2424,2425,2426,2427,2428,2429,2430,2431,2432,2433,2434,2435,2436,2437,2438,2439,2440,2441,2442,2443,2444,2445,2446,2447,2448,2449,2450,2451,2452,2453,2454,2455,2456,2457,2458,2459,2460,2461,2462,2463,2464,2465,2466,2467,2468,2469,2470,2471,2472,2473,2474,2475,2476,2477,2478,2479,2480,2481,2482,2483,2484,2485,2486,2487,2488,2489,2490,2491,2492,2493,2494,2495,2496,2497,2498,2499,2500,2501,2502,2503,2504,2505,2506,2507,2508,2509,2510,2511,2512,2513,2514,2515,2516,2517,2518,2519,2520,2521,2522,2523,2524,2525,2526,2527,2528,2529,2530,2531,2532,2533,2534,2535,2536,2537,2538,2539,2540,2541,2542,2543,2544,2545,2546,2547,2548,2549,2550,2551,2552,2553,2554,2555,2556,2557,2558,2559,2560,2561,2562,2563,2564,2565,2566,2567,2568,2569,2570,2571,2572,2573,2574,2575,2576,2577,2578,2579,2580,2581,2582,2583,2584,2585,2586,2587,2588,2589,2590,2591,2592,2593,2594,2595,2596,2597,2598,2599,2600,2601,2602,2603,2604,2605,2606,2607,2608,2609,2610,2611,2612,2613,2614,2615,2616,2617,2618,2619,2620,2621,2622,2623,2624,2625,2626,2627,2628,2629,2630,2631,2632,2633,2634,2635,2636,2637,2638,2639,2640,2641,2642,2643,2644,2645,2646,2647,2648,2649,2650,2651,2652,2653,2654,2655,2656,2657,2658,2659,2660,2661,2662,2663,2664,2665,2666,2667,2668,2669,2670,2671,2672,2673,2674,2675,2676,2677,2678,2679,2680,2681,2682,2683,2684,2685,2686,2687,2688,2689,2690,2691,2692,2693,2694,2695,2696,2697,2698,2699,2700,2701,2702,2703,2704,2705,2706,2707,2708,2709,2710,2711,2712,2713,2714,2715,2716,2717,2718,2719,2720,2721,2722,2723,2724,2725,2726,2727,2728,2729,2730,2731,2732,2733,2734,2735,2736,2737,2738,2739,2740,2741,2742,2743,2744,2745,2746,2747,2748,2749,2750,2751,2752,2753,2754,2755,2756,2757,2758,2759,2760,2761,2762,2763,2764,2765,2766,2767,2768,2769,2770,2771,2772,2773,2774,2775,2776,2777,2778,2779,2780,2781,2782,2783,2784,2785,2786,2787,2788,2789,2790,2791,2792,2793,2794,2795,2796,2797,2798,2799,2800,2801,2802,2803,2804,2805,2806,2807,2808,2809,2810,2811,2812,2813,2814,2815,2816,2817,2818,2819,2820,2821,2822,2823,2824,2825,2826,2827,2828,2829,2830,2831,2832,2833,2834,2835,2836,2837,2838,2839,2840,2841,2842,2843,2844,2845,2846,2847,2848,2849,2850,2851,2852,2853,2854,2855,2856,2857,2858,2859,2860,2861,2862,2863,2864,2865,2866,2867,2868,2869,2870,2871,2872,2873,2874,2875,2876,2877,2878,2879,2880,2881,2882,2883,2884,2885,2886,2887,2888,2889,2890,2891,2892,2893,2894,2895,2896,2897,2898,2899,2900,2901,2902,2903,2904,2905,2906,2907,2908,2909,2910,2911,2912,2913,2914,2915,2916,2917,2918,2919,2920,2921,2922,2923,2924,2925,2926,2927,2928,2929,2930,2931,2932,2933,2934,2935,2936,2937,2938,2939,2940,2941,2942,2943,2944,2945,2946,2947,2948,2949,2950,2951,2952,2953,2954,2955,2956,2957,2958,2959,2960,2961,2962,2963,2964,2965,2966,2967,2968,2969,2970,2971,2972,2973,2974,2975,2976,2977,2978,2979,2980,2981,2982,2983,2984,2985,2986,2987,2988,2989,2990,2991,2992,2993,2994,2995,2996,2997,2998,2999,3000,3001,3002,3003,3004,3005,3006,3007,3008,3009,3010,3011,3012,3013,3014,3015,3016,3017,3018,3019,3020,3021,3022,3023,3024,3025,3026,3027,3028,3029,3030,3031,3032,3033,3034,3035,3036,3037,3038,3039,3040,3041,3042,3043,3044,3045,3046,3047,3048,3049,3050,3051,3052,3053,3054,3055,3056,3057,3058,3059,3060,3061,3062,3063,3064,3065,3066,3067,3068,3069,3070,3071,3072,3073,3074,3075,3076,3077,3078,3079,3080,3081,3082,3083,3084,3085,3086,3087,3088,3089,3090,3091,3092,3093,3094,3095,3096,3097,3098,3099,3100,3101,3102,3103,3104,3105,3106,3107,3108,3109,3110,3111,3112,3113,3114,3115,3116,3117,3118,3119,3120,3121,3122,3123,3124,3125,3126,3127,3128,3129,3130,3131,3132,3133,3134,3135,3136,3137,3138,3139,3140,3141,3142,3143,3144,3145,3146,3147,3148,3149,3150,3151,3152,3153,3154,3155,3156,3157,3158,3159,3160,3161,3162,3163,3164,3165,3166,3167,3168,3169,3170,3171,3172,3173,3174,3175,3176,3177,3178,3179,3180,3181,3182,3183,3184,3185,3186,3187,3188,3189,3190,3191,3192,3193,3194,3195,3196,3197,3198,3199,3200,3201,3202,3203,3204,3205,3206,3207,3208,3209,3210,3211,3212,3213,3214,3215,3216,3217,3218,3219,3220,3221,3222,3223,3224,3225,3226,3227,3228,3229,3230,3231,3232,3233,3234,3235,3236,3237,3238,3239,3240,3241,3242,3243,3244,3245,3246,3247,3248,3249,3250,3251,3252,3253,3254,3255,3256,3257,3258,3259,3260,3261,3262,3263,3264,3265,3266,3267,3268,3269,3270,3271,3272,3273,3274,3275,3276,3277,3278,3279,3280,3281,3282,3283,3284,3285,3286,3287,3288,3289,3290,3291,3292,3293,3294,3295,3296,3297,3298,3299,3300,3301,3302,3303,3304,3305,3306,3307,3308,3309,3310,3311,3312,3313,3314,3315,3316,3317,3318,3319,3320,3321,3322,3323,3324,3325,3326,3327,3328,3329,3330,3331,3332,3333,3334,3335,3336,3337,3338,3339,3340,3341,3342,3343,3344,3345,3346,3347,3348,3349,3350,3351,3352,3353,3354,3355,3356,3357,3358,3359,3360,3361,3362,3363,3364,3365,3366,3367,3368,3369,3370,3371,3372,3373,3374,3375,3376,3377,3378,3379,3380,3381,3382,3383,3384,3385,3386,3387,3388,3389,3390,3391,3392,3393,3394,3395,3396,3397,3398,3399,3400,3401,3402,3403,3404,3405,3406,3407,3408,3409,3410,3411,3412,3413,3414,3415,3416,3417,3418,3419,3420,3421,3422,3423,3424,3425,3426,3427,3428,3429,3430,3431,3432,3433,3434,3435,3436,3437,3438,3439,3440,3441,3442,3443,3444,3445,3446,3447,3448,3449,3450,3451,3452,3453,3454,3455,3456,3457,3458,3459,3460,3461,3462,3463,3464,3465,3466,3467,3468,3469,3470,3471,3472,3473,3474,3475,3476,3477,3478,3479,3480,3481,3482,3483,3484,3485,3486,3487,3488,3489,3490,3491,3492,3493,3494,3495,3496,3497,3498,3499,3500,3501,3502,3503,3504,3505,3506,3507,3508,3509,3510,3511,3512,3513,3514,3515,3516,3517,3518,3519,3520,3521,3522,3523,3524,3525,3526,3527,3528,3529,3530,3531,3532,3533,3534,3535,3536,3537,3538,3539,3540,3541,3542,3543,3544,3545,3546,3547,3548,3549],"tree_info":[0,0,0,0,0,0,0,0,0,0,0,0,0,0,0,0,0,0,0,0,0,0,0,0,0,0,0,0,0,0,0,0,0,0,0,0,0,0,0,0,0,0,0,0,0,0,0,0,0,0,0,0,0,0,0,0,0,0,0,0,0,0,0,0,0,0,0,0,0,0,0,0,0,0,0,0,0,0,0,0,0,0,0,0,0,0,0,0,0,0,0,0,0,0,0,0,0,0,0,0,0,0,0,0,0,0,0,0,0,0,0,0,0,0,0,0,0,0,0,0,0,0,0,0,0,0,0,0,0,0,0,0,0,0,0,0,0,0,0,0,0,0,0,0,0,0,0,0,0,0,0,0,0,0,0,0,0,0,0,0,0,0,0,0,0,0,0,0,0,0,0,0,0,0,0,0,0,0,0,0,0,0,0,0,0,0,0,0,0,0,0,0,0,0,0,0,0,0,0,0,0,0,0,0,0,0,0,0,0,0,0,0,0,0,0,0,0,0,0,0,0,0,0,0,0,0,0,0,0,0,0,0,0,0,0,0,0,0,0,0,0,0,0,0,0,0,0,0,0,0,0,0,0,0,0,0,0,0,0,0,0,0,0,0,0,0,0,0,0,0,0,0,0,0,0,0,0,0,0,0,0,0,0,0,0,0,0,0,0,0,0,0,0,0,0,0,0,0,0,0,0,0,0,0,0,0,0,0,0,0,0,0,0,0,0,0,0,0,0,0,0,0,0,0,0,0,0,0,0,0,0,0,0,0,0,0,0,0,0,0,0,0,0,0,0,0,0,0,0,0,0,0,0,0,0,0,0,0,0,0,0,0,0,0,0,0,0,0,0,0,0,0,0,0,0,0,0,0,0,0,0,0,0,0,0,0,0,0,0,0,0,0,0,0,0,0,0,0,0,0,0,0,0,0,0,0,0,0,0,0,0,0,0,0,0,0,0,0,0,0,0,0,0,0,0,0,0,0,0,0,0,0,0,0,0,0,0,0,0,0,0,0,0,0,0,0,0,0,0,0,0,0,0,0,0,0,0,0,0,0,0,0,0,0,0,0,0,0,0,0,0,0,0,0,0,0,0,0,0,0,0,0,0,0,0,0,0,0,0,0,0,0,0,0,0,0,0,0,0,0,0,0,0,0,0,0,0,0,0,0,0,0,0,0,0,0,0,0,0,0,0,0,0,0,0,0,0,0,0,0,0,0,0,0,0,0,0,0,0,0,0,0,0,0,0,0,0,0,0,0,0,0,0,0,0,0,0,0,0,0,0,0,0,0,0,0,0,0,0,0,0,0,0,0,0,0,0,0,0,0,0,0,0,0,0,0,0,0,0,0,0,0,0,0,0,0,0,0,0,0,0,0,0,0,0,0,0,0,0,0,0,0,0,0,0,0,0,0,0,0,0,0,0,0,0,0,0,0,0,0,0,0,0,0,0,0,0,0,0,0,0,0,0,0,0,0,0,0,0,0,0,0,0,0,0,0,0,0,0,0,0,0,0,0,0,0,0,0,0,0,0,0,0,0,0,0,0,0,0,0,0,0,0,0,0,0,0,0,0,0,0,0,0,0,0,0,0,0,0,0,0,0,0,0,0,0,0,0,0,0,0,0,0,0,0,0,0,0,0,0,0,0,0,0,0,0,0,0,0,0,0,0,0,0,0,0,0,0,0,0,0,0,0,0,0,0,0,0,0,0,0,0,0,0,0,0,0,0,0,0,0,0,0,0,0,0,0,0,0,0,0,0,0,0,0,0,0,0,0,0,0,0,0,0,0,0,0,0,0,0,0,0,0,0,0,0,0,0,0,0,0,0,0,0,0,0,0,0,0,0,0,0,0,0,0,0,0,0,0,0,0,0,0,0,0,0,0,0,0,0,0,0,0,0,0,0,0,0,0,0,0,0,0,0,0,0,0,0,0,0,0,0,0,0,0,0,0,0,0,0,0,0,0,0,0,0,0,0,0,0,0,0,0,0,0,0,0,0,0,0,0,0,0,0,0,0,0,0,0,0,0,0,0,0,0,0,0,0,0,0,0,0,0,0,0,0,0,0,0,0,0,0,0,0,0,0,0,0,0,0,0,0,0,0,0,0,0,0,0,0,0,0,0,0,0,0,0,0,0,0,0,0,0,0,0,0,0,0,0,0,0,0,0,0,0,0,0,0,0,0,0,0,0,0,0,0,0,0,0,0,0,0,0,0,0,0,0,0,0,0,0,0,0,0,0,0,0,0,0,0,0,0,0,0,0,0,0,0,0,0,0,0,0,0,0,0,0,0,0,0,0,0,0,0,0,0,0,0,0,0,0,0,0,0,0,0,0,0,0,0,0,0,0,0,0,0,0,0,0,0,0,0,0,0,0,0,0,0,0,0,0,0,0,0,0,0,0,0,0,0,0,0,0,0,0,0,0,0,0,0,0,0,0,0,0,0,0,0,0,0,0,0,0,0,0,0,0,0,0,0,0,0,0,0,0,0,0,0,0,0,0,0,0,0,0,0,0,0,0,0,0,0,0,0,0,0,0,0,0,0,0,0,0,0,0,0,0,0,0,0,0,0,0,0,0,0,0,0,0,0,0,0,0,0,0,0,0,0,0,0,0,0,0,0,0,0,0,0,0,0,0,0,0,0,0,0,0,0,0,0,0,0,0,0,0,0,0,0,0,0,0,0,0,0,0,0,0,0,0,0,0,0,0,0,0,0,0,0,0,0,0,0,0,0,0,0,0,0,0,0,0,0,0,0,0,0,0,0,0,0,0,0,0,0,0,0,0,0,0,0,0,0,0,0,0,0,0,0,0,0,0,0,0,0,0,0,0,0,0,0,0,0,0,0,0,0,0,0,0,0,0,0,0,0,0,0,0,0,0,0,0,0,0,0,0,0,0,0,0,0,0,0,0,0,0,0,0,0,0,0,0,0,0,0,0,0,0,0,0,0,0,0,0,0,0,0,0,0,0,0,0,0,0,0,0,0,0,0,0,0,0,0,0,0,0,0,0,0,0,0,0,0,0,0,0,0,0,0,0,0,0,0,0,0,0,0,0,0,0,0,0,0,0,0,0,0,0,0,0,0,0,0,0,0,0,0,0,0,0,0,0,0,0,0,0,0,0,0,0,0,0,0,0,0,0,0,0,0,0,0,0,0,0,0,0,0,0,0,0,0,0,0,0,0,0,0,0,0,0,0,0,0,0,0,0,0,0,0,0,0,0,0,0,0,0,0,0,0,0,0,0,0,0,0,0,0,0,0,0,0,0,0,0,0,0,0,0,0,0,0,0,0,0,0,0,0,0,0,0,0,0,0,0,0,0,0,0,0,0,0,0,0,0,0,0,0,0,0,0,0,0,0,0,0,0,0,0,0,0,0,0,0,0,0,0,0,0,0,0,0,0,0,0,0,0,0,0,0,0,0,0,0,0,0,0,0,0,0,0,0,0,0,0,0,0,0,0,0,0,0,0,0,0,0,0,0,0,0,0,0,0,0,0,0,0,0,0,0,0,0,0,0,0,0,0,0,0,0,0,0,0,0,0,0,0,0,0,0,0,0,0,0,0,0,0,0,0,0,0,0,0,0,0,0,0,0,0,0,0,0,0,0,0,0,0,0,0,0,0,0,0,0,0,0,0,0,0,0,0,0,0,0,0,0,0,0,0,0,0,0,0,0,0,0,0,0,0,0,0,0,0,0,0,0,0,0,0,0,0,0,0,0,0,0,0,0,0,0,0,0,0,0,0,0,0,0,0,0,0,0,0,0,0,0,0,0,0,0,0,0,0,0,0,0,0,0,0,0,0,0,0,0,0,0,0,0,0,0,0,0,0,0,0,0,0,0,0,0,0,0,0,0,0,0,0,0,0,0,0,0,0,0,0,0,0,0,0,0,0,0,0,0,0,0,0,0,0,0,0,0,0,0,0,0,0,0,0,0,0,0,0,0,0,0,0,0,0,0,0,0,0,0,0,0,0,0,0,0,0,0,0,0,0,0,0,0,0,0,0,0,0,0,0,0,0,0,0,0,0,0,0,0,0,0,0,0,0,0,0,0,0,0,0,0,0,0,0,0,0,0,0,0,0,0,0,0,0,0,0,0,0,0,0,0,0,0,0,0,0,0,0,0,0,0,0,0,0,0,0,0,0,0,0,0,0,0,0,0,0,0,0,0,0,0,0,0,0,0,0,0,0,0,0,0,0,0,0,0,0,0,0,0,0,0,0,0,0,0,0,0,0,0,0,0,0,0,0,0,0,0,0,0,0,0,0,0,0,0,0,0,0,0,0,0,0,0,0,0,0,0,0,0,0,0,0,0,0,0,0,0,0,0,0,0,0,0,0,0,0,0,0,0,0,0,0,0,0,0,0,0,0,0,0,0,0,0,0,0,0,0,0,0,0,0,0,0,0,0,0,0,0,0,0,0,0,0,0,0,0,0,0,0,0,0,0,0,0,0,0,0,0,0,0,0,0,0,0,0,0,0,0,0,0,0,0,0,0,0,0,0,0,0,0,0,0,0,0,0,0,0,0,0,0,0,0,0,0,0,0,0,0,0,0,0,0,0,0,0,0,0,0,0,0,0,0,0,0,0,0,0,0,0,0,0,0,0,0,0,0,0,0,0,0,0,0,0,0,0,0,0,0,0,0,0,0,0,0,0,0,0,0,0,0,0,0,0,0,0,0,0,0,0,0,0,0,0,0,0,0,0,0,0,0,0,0,0,0,0,0,0,0,0,0,0,0,0,0,0,0,0,0,0,0,0,0,0,0,0,0,0,0,0,0,0,0,0,0,0,0,0,0,0,0,0,0,0,0,0,0,0,0,0,0,0,0,0,0,0,0,0,0,0,0,0,0,0,0,0,0,0,0,0,0,0,0,0,0,0,0,0,0,0,0,0,0,0,0,0,0,0,0,0,0,0,0,0,0,0,0,0,0,0,0,0,0,0,0,0,0,0,0,0,0,0,0,0,0,0,0,0,0,0,0,0,0,0,0,0,0,0,0,0,0,0,0,0,0,0,0,0,0,0,0,0,0,0,0,0,0,0,0,0,0,0,0,0,0,0,0,0,0,0,0,0,0,0,0,0,0,0,0,0,0,0,0,0,0,0,0,0,0,0,0,0,0,0,0,0,0,0,0,0,0,0,0,0,0,0,0,0,0,0,0,0,0,0,0,0,0,0,0,0,0,0,0,0,0,0,0,0,0,0,0,0,0,0,0,0,0,0,0,0,0,0,0,0,0,0,0,0,0,0,0,0,0,0,0,0,0,0,0,0,0,0,0,0,0,0,0,0,0,0,0,0,0,0,0,0,0,0,0,0,0,0,0,0,0,0,0,0,0,0,0,0,0,0,0,0,0,0,0,0,0,0,0,0,0,0,0,0,0,0,0,0,0,0,0,0,0,0,0,0,0,0,0,0,0,0,0,0,0,0,0,0,0,0,0,0,0,0,0,0,0,0,0,0,0,0,0,0,0,0,0,0,0,0,0,0,0,0,0,0,0,0,0,0,0,0,0,0,0,0,0,0,0,0,0,0,0,0,0,0,0,0,0,0,0,0,0,0,0,0,0,0,0,0,0,0,0,0,0,0,0,0,0,0,0,0,0,0,0,0,0,0,0,0,0,0,0,0,0,0,0,0,0,0,0,0,0,0,0,0,0,0,0,0,0,0,0,0,0,0,0,0,0,0,0,0,0,0,0,0,0,0,0,0,0,0,0,0,0,0,0,0,0,0,0,0,0,0,0,0,0,0,0,0,0,0,0,0,0,0,0,0,0,0,0,0,0,0,0,0,0,0,0,0,0,0,0,0,0,0,0,0,0,0,0,0,0,0,0,0,0,0,0,0,0,0,0,0,0,0,0,0,0,0,0,0,0,0,0,0,0,0,0,0,0,0,0,0,0,0,0,0,0,0,0,0,0,0,0,0,0,0,0,0,0,0,0,0,0,0,0,0,0,0,0,0,0,0,0,0,0,0,0,0,0,0,0,0,0,0,0,0,0,0,0,0,0,0,0,0,0,0,0,0,0,0,0,0,0,0,0,0,0,0,0,0,0,0,0,0,0,0,0,0,0,0,0,0,0,0,0,0,0,0,0,0,0,0,0,0,0,0,0,0,0,0,0,0,0,0,0,0,0,0,0,0,0,0,0,0,0,0,0,0,0,0,0,0,0,0,0,0,0,0,0,0,0,0,0,0,0,0,0,0,0,0,0,0,0,0,0,0,0,0,0,0,0,0,0,0,0,0,0,0,0,0,0,0,0,0,0,0,0,0,0,0,0,0,0,0,0,0,0,0,0,0,0,0,0,0,0,0,0,0,0,0,0,0,0,0,0,0,0,0,0,0,0,0,0,0,0,0,0,0,0,0,0,0,0,0,0,0,0,0,0,0,0,0,0,0,0,0,0,0,0,0,0,0,0,0,0,0,0,0,0,0,0,0,0,0,0,0,0,0,0,0,0,0,0,0,0,0,0,0,0,0,0,0,0,0,0,0,0,0,0,0,0,0,0,0,0,0,0,0,0,0,0,0,0,0,0,0,0,0,0,0,0,0,0,0,0,0,0,0,0,0,0,0,0,0,0,0,0,0,0,0,0,0,0,0,0,0,0,0,0,0,0,0,0,0,0,0,0,0,0,0,0,0,0,0,0,0,0,0,0,0,0,0,0,0,0,0,0,0,0,0,0,0,0,0,0,0,0,0,0,0,0,0,0,0,0,0,0,0,0,0,0,0,0,0,0,0,0,0,0,0,0,0,0,0,0,0,0,0,0,0,0,0,0,0,0,0,0,0,0,0,0,0,0,0,0,0,0,0,0,0,0,0,0,0,0,0,0,0,0,0,0,0,0,0,0,0,0,0,0,0,0,0,0,0,0,0,0,0,0,0,0,0,0,0,0,0,0,0,0,0,0,0,0,0,0,0,0,0,0,0,0,0,0,0,0,0,0,0,0,0,0,0,0,0,0,0,0,0,0,0,0,0,0,0,0,0,0,0,0,0,0,0,0,0,0,0,0,0,0,0,0,0,0,0,0,0,0,0,0,0,0,0,0,0,0,0,0,0,0,0,0,0,0,0,0,0,0,0,0,0,0,0,0,0,0,0,0,0,0,0,0,0,0,0,0,0,0,0,0,0,0,0,0,0,0,0,0,0,0,0,0,0,0,0,0,0,0,0,0,0,0,0,0,0,0,0,0,0,0,0,0,0,0,0,0,0,0,0,0,0,0,0,0,0,0,0,0,0,0,0,0,0,0,0,0,0,0,0,0,0,0,0,0,0,0,0,0,0,0,0,0,0,0,0,0,0,0,0,0,0,0,0,0,0,0,0,0,0,0,0,0,0,0,0,0,0,0,0,0,0,0,0,0,0,0,0,0,0,0,0,0,0,0,0,0,0,0,0,0,0,0,0,0,0,0,0,0,0,0,0,0,0,0,0,0,0,0,0,0,0,0,0,0,0,0,0,0,0,0,0,0,0,0,0,0,0,0,0,0,0,0,0,0,0,0,0,0,0,0,0,0,0,0,0,0,0,0,0,0,0,0,0,0,0,0,0,0,0,0,0,0,0,0,0,0,0,0,0,0,0,0,0,0,0,0,0,0,0,0,0,0,0,0,0,0,0,0,0,0,0,0,0,0,0,0,0,0,0,0,0,0,0,0,0,0,0,0,0,0,0,0,0,0,0,0,0,0,0,0,0,0,0,0,0,0,0,0,0,0,0,0,0,0,0,0,0,0,0,0,0,0,0,0,0,0,0,0,0,0,0,0,0,0,0,0,0,0,0,0,0,0,0,0,0,0,0,0,0,0,0,0,0,0,0,0,0,0,0,0,0,0,0,0,0,0,0,0,0,0,0,0,0,0,0,0,0,0,0,0,0,0,0,0,0,0,0,0,0,0,0,0,0,0,0,0,0,0,0,0,0,0,0,0,0,0,0,0,0,0,0,0,0,0,0,0,0,0,0,0,0,0,0,0,0,0,0,0,0,0,0,0,0,0,0,0,0,0,0,0,0,0],"trees":[{"base_weights":[-1.8402404E-3,-2.0318997E-1,3.1721896E-1,-3.3674863E-1,-1.577942E-2,1.9642098E-1,6.1254233E-1,-4.3893095E-2,-2.988317E-1,-1.0858228E-1,2.4901183E-1,6.458208E-2,2.9335165E-1,3.3185533E-1,6.8002725E-1,-2.4964333E-2,-1.4485638E-2,-1.2703413E-2,-1.4281704E-3,8.513544E-3,2.2084527E-2,-3.1916571E-3,9.9595385E-3,8.801375E-3,2.3317624E-2,3.9867363E-3,2.1430159E-2,2.1637095E-2,4.2033933E-2],"categories":[],"categories_nodes":[],"categories_segments":[],"categories_sizes":[],"default_left":[0,0,0,0,0,0,0,0,0,0,0,0,0,0,0,0,0,0,0,0,0,0,0,0,0,0,0,0,0],"id":0,"left_children":[1,3,5,7,9,11,13,-1,15,17,19,21,23,25,27,-1,-1,-1,-1,-1,-1,-1,-1,-1,-1,-1,-1,-1,-1],"loss_changes":[1.0836219E2,2.5833157E1,2.2761993E1,8.48317E0,1.0754282E1,5.878443E0,2.6452637E0,0E0,3.2380333E0,2.8951647E0,1.2469921E0,2.5831661E0,3.715046E0,2.3907423E-1,5.7379913E-1,0E0,0E0,0E0,0E0,0E0,0E0,0E0,0E0,0E0,0E0,0E0,0E0,0E0,0E0],"parents":[2147483647,0,0,1,1,2,2,3,3,4,4,5,5,6,6,8,8,9,9,10,10,11,11,12,12,13,13,14,14],"right_children":[2,4,6,8,10,12,14,-1,16,18,20,22,24,26,28,-1,-1,-1,-1,-1,-1,-1,-1,-1,-1,-1,-1,-1,-1],"split_conditions":[1.985E3,1E0,6.62E2,8.1E2,1.779E3,1.494E3,1.657E3,-4.3893095E-2,1.957E3,4E2,1.498E3,1.2E3,9.8E2,1.35E3,1.114E3,-2.4964333E-2,-1.4485638E-2,-1.2703413E-2,-1.4281704E-3,8.513544E-3,2.2084527E-2,-3.1916571E-3,9.9595385E-3,8.801375E-3,2.3317624E-2,3.9867363E-3,2.1430159E-2,2.1637095E-2,4.2033933E-2],"split_indices":[5,29,33,20,20,20,20,0,6,33,17,17,17,20,17,0,0,0,0,0,0,0,0,0,0,0,0,0,0],"split_type":[0,0,0,0,0,0,0,0,0,0,0,0,0,0,0,0,0,0,0,0,0,0,0,0,0,0,0,0,0],"sum_hessian":[1.68E3,1.031E3,6.49E2,6E2,4.31E2,4.65E2,1.84E2,4.5E1,5.55E2,3.21E2,1.1E2,2E2,2.65E2,4E1,1.44E2,1.55E2,4E2,1.38E2,1.83E2,6.5E1,4.5E1,9.4E1,1.06E2,1.15E2,1.5E2,6E0,3.4E1,1.9E1,1.25E2],"tree_param":{"num_deleted":"0","num_feature":"299","num_nodes":"29","size_leaf_vector":"1"}},{"base_weights":[-1.1062248E-3,-1.9210237E-1,3.3212686E-1,-5.2336234E-1,-1.2977579E-1,1.7549658E-1,5.271771E-1,-4.7332678E-2,-4.231381E-1,-2.2068565E-1,1.2954889E-3,3.4989372E-2,2.340924E-1,3.8653165E-1,6.828648E-1,-2.8527532E-2,-1.5689336E-2,-1.702914E-2,-6.630836E-3,2.2377984E-3,-1.039053E-2,-4.628056E-3,5.281314E-3,5.6461417E-3,1.7133761E-2,1.2907963E-2,2.7719136E-2,2.9185185E-2,4.488384E-2],"categories":[],"categories_nodes":[],"categories_segments":[],"categories_sizes":[],"default_left":[0,0,0,0,0,0,0,0,0,0,0,0,0,0,0,0,0,0,0,0,0,0,0,0,0,0,0,0,0],"id":1,"left_children":[1,3,5,7,9,11,13,-1,15,17,19,21,23,25,27,-1,-1,-1,-1,-1,-1,-1,-1,-1,-1,-1,-1,-1,-1],"loss_changes":[1.06143776E2,2.1581059E1,1.8153519E1,3.3732224E0,1.0721117E1,2.7592916E0,4.832695E0,0E0,7.2851944E-1,3.7907887E0,2.4340034E0,6.843548E-1,1.763381E0,1.6810036E0,3.7425613E-1,0E0,0E0,0E0,0E0,0E0,0E0,0E0,0E0,0E0,0E0,0E0,0E0,0E0,0E0],"parents":[2147483647,0,0,1,1,2,2,3,3,4,4,5,5,6,6,8,8,9,9,10,10,11,11,12,12,13,13,14,14],"right_children":[2,4,6,8,10,12,14,-1,16,18,20,22,24,26,28,-1,-1,-1,-1,-1,-1,-1,-1,-1,-1,-1,-1,-1,-1],"split_conditions":[7E0,5E0,8E0,8.64E2,1.388E3,8.39E2,1.922E3,-4.7332678E-2,9.1E2,1.05E3,1E0,7.44E3,1.478E3,1.419E3,1.361E3,-2.8527532E-2,-1.5689336E-2,-1.702914E-2,-6.630836E-3,2.2377984E-3,-1.039053E-2,-4.628056E-3,5.281314E-3,5.6461417E-3,1.7133761E-2,1.2907963E-2,2.7719136E-2,2.9185185E-2,4.488384E-2],"split_indices":[3,3,3,20,20,15,20,0,15,17,67,1,20,15,17,0,0,0,0,0,0,0,0,0,0,0,0,0,0],"split_type":[0,0,0,0,0,0,0,0,0,0,0,0,0,0,0,0,0,0,0,0,0,0,0,0,0,0,0,0,0],"sum_hessian":[1.661E3,1.057E3,6.04E2,1.63E2,8.94E2,3.39E2,2.65E2,3.6E1,1.27E2,5.27E2,3.67E2,1.02E2,2.37E2,1.46E2,1.19E2,8.5E1,4.2E1,3.17E2,2.1E2,3.07E2,6E1,3.2E1,7E1,7.3E1,1.64E2,5.4E1,9.2E1,4.4E1,7.5E1],"tree_param":{"num_deleted":"0","num_feature":"299","num_nodes":"29","size_leaf_vector":"1"}},{"base_weights":[-4.6196966E-3,-1.8237656E-1,3.0203256E-1,-3.1351772E-1,-3.8410697E-2,1.1516317E-1,4.5008913E-1,-2.5048903E-1,-6.837568E-1,-1.508843E-1,3.3981137E-2,-1.669046E-2,2.3485357E-1,3.6132133E-1,4.0195543E-2,-2.0197181E-2,-9.068732E-3,-4.4303216E-2,-1.853052E-2,-1.0714729E-2,6.035062E-3,-1.3176756E-3,1.0256739E-2,-1.1155796E-2,1.953744E-3,1.426657E-2,1.3136483E-3,1.1597637E-2,2.5105357E-2],"categories":[],"categories_nodes":[],"categories_segments":[],"categories_sizes":[],"default_left":[0,0,0,0,0,0,0,0,0,0,0,0,0,0,0,0,0,0,0,0,0,0,0,0,0,0,0,0,0],"id":2,"left_children":[1,3,5,7,9,11,13,15,17,19,21,23,25,27,-1,-1,-1,-1,-1,-1,-1,-1,-1,-1,-1,-1,-1,-1,-1],"loss_changes":[8.9218155E1,1.9484997E1,1.6366169E1,1.1928524E1,4.090454E0,4.308177E0,5.938347E0,3.954771E0,1.0205612E0,1.6408558E0,2.4532502E0,1.1772717E0,1.8896484E-1,2.3268623E0,0E0,0E0,0E0,0E0,0E0,0E0,0E0,0E0,0E0,0E0,0E0,0E0,0E0,0E0,0E0],"parents":[2147483647,0,0,1,1,2,2,3,3,4,4,5,5,6,6,7,7,8,8,9,9,10,10,11,11,12,12,13,13],"right_children":[2,4,6,8,10,12,14,16,18,20,22,24,26,28,-1,-1,-1,-1,-1,-1,-1,-1,-1,-1,-1,-1,-1,-1,-1],"split_conditions":[3E0,1.32E3,1.627E3,1E0,1E0,1.269E3,4E0,9.8E2,3E0,1.987E3,1.789E3,3E0,1E0,1.034E3,4.0195543E-2,-2.0197181E-2,-9.068732E-3,-4.4303216E-2,-1.853052E-2,-1.0714729E-2,6.035062E-3,-1.3176756E-3,1.0256739E-2,-1.1155796E-2,1.953744E-3,1.426657E-2,1.3136483E-3,1.1597637E-2,2.5105357E-2],"split_indices":[8,20,20,231,30,17,27,17,25,5,20,10,106,17,0,0,0,0,0,0,0,0,0,0,0,0,0,0,0],"split_type":[0,0,0,0,0,0,0,0,0,0,0,0,0,0,0,0,0,0,0,0,0,0,0,0,0,0,0,0,0],"sum_hessian":[1.63E3,1.033E3,5.97E2,5.38E2,4.95E2,2.67E2,3.3E2,4.65E2,7.3E1,1.93E2,3.02E2,1.28E2,1.39E2,2.46E2,8.4E1,2.31E2,2.34E2,5.8E1,1.5E1,1.73E2,2E1,2.17E2,8.5E1,2.7E1,1.01E2,1.33E2,6E0,7.5E1,1.71E2],"tree_param":{"num_deleted":"0","num_feature":"299","num_nodes":"29","size_leaf_vector":"1"}},{"base_weights":[2.3831872E-3,-1.8283239E-1,3.1000626E-1,-4.756749E-1,-1.2641397E-1,1.6882485E-1,4.811868E-1,-5.740019E-1,-2.885244E-1,-2.1403937E-1,-2.85578E-2,9.866449E-2,2.7617124E-1,3.574735E-1,6.19477E-1,-3.7399776E-2,-2.093064E-2,-1.8079337E-2,-1.0336044E-3,-2.1864828E-2,-9.947901E-3,-6.1201286E-3,2.6774544E-3,1.4517608E-3,1.24182105E-2,1.0919228E-2,2.107943E-2,1.5365978E-2,2.8765675E-2,2.8820267E-2,4.329642E-2],"categories":[],"categories_nodes":[],"categories_segments":[],"categories_sizes":[],"default_left":[0,0,0,0,0,0,0,0,0,0,0,0,0,0,0,0,0,0,0,0,0,0,0,0,0,0,0,0,0,0,0],"id":3,"left_children":[1,3,5,7,9,11,13,15,17,19,21,23,25,27,29,-1,-1,-1,-1,-1,-1,-1,-1,-1,-1,-1,-1,-1,-1,-1,-1],"loss_changes":[9.784097E1,1.742191E1,1.52396965E1,2.4764824E0,7.6970453E0,2.5680914E0,4.0653687E0,5.6715393E-1,2.8682137E-1,3.079897E0,2.4405565E0,1.8157117E0,7.4340916E-1,1.5116501E0,5.858307E-1,0E0,0E0,0E0,0E0,0E0,0E0,0E0,0E0,0E0,0E0,0E0,0E0,0E0,0E0,0E0,0E0],"parents":[2147483647,0,0,1,1,2,2,3,3,4,4,5,5,6,6,7,7,8,8,9,9,10,10,11,11,12,12,13,13,14,14],"right_children":[2,4,6,8,10,12,14,16,18,20,22,24,26,28,30,-1,-1,-1,-1,-1,-1,-1,-1,-1,-1,-1,-1,-1,-1,-1,-1],"split_conditions":[7E0,5E0,8E0,8E2,1.324E3,1.726E3,1.955E3,1.164E3,3E0,1.6E1,2.92E2,1.313E3,1.024E3,9.29E2,1.57E3,-3.7399776E-2,-2.093064E-2,-1.8079337E-2,-1.0336044E-3,-2.1864828E-2,-9.947901E-3,-6.1201286E-3,2.6774544E-3,1.4517608E-3,1.24182105E-2,1.0919228E-2,2.107943E-2,1.5365978E-2,2.8765675E-2,2.8820267E-2,4.329642E-2],"split_indices":[3,3,3,15,20,20,20,20,10,12,12,15,15,12,15,0,0,0,0,0,0,0,0,0,0,0,0,0,0,0,0],"split_type":[0,0,0,0,0,0,0,0,0,0,0,0,0,0,0,0,0,0,0,0,0,0,0,0,0,0,0,0,0,0,0],"sum_hessian":[1.71E3,1.068E3,6.42E2,1.68E2,9E2,3.56E2,2.86E2,1.05E2,6.3E1,4.72E2,4.28E2,2.2E2,1.36E2,1.58E2,1.28E2,7.6E1,2.9E1,5.8E1,5E0,9.8E1,3.74E2,2.12E2,2.16E2,1.36E2,8.4E1,7.1E1,6.5E1,9.8E1,6E1,7E1,5.8E1],"tree_param":{"num_deleted":"0","num_feature":"299","num_nodes":"31","size_leaf_vector":"1"}},{"base_weights":[-5.000545E-4,-1.5875873E-1,2.7713835E-1,-2.5792956E-1,-7.6865014E-3,1.6755387E-1,5.250351E-1,-2.0910144E-1,-5.776584E-1,-1.2557508E-1,5.672597E-2,4.5074042E-2,2.4989167E-1,4.063404E-1,3.9415147E-2,-1.7945772E-2,-7.5166733E-3,-2.4706205E-2,-4.382893E-2,-1.4155417E-2,-3.7632508E-3,-4.69754E-4,1.0522996E-2,-1.18617155E-2,4.4869515E-3,4.451161E-3,1.7381575E-2,2.4576202E-2,1.8375361E-3],"categories":[],"categories_nodes":[],"categories_segments":[],"categories_sizes":[],"default_left":[0,0,0,0,0,0,0,0,0,0,0,0,0,0,0,0,0,0,0,0,0,0,0,0,0,0,0,0,0],"id":4,"left_children":[1,3,5,7,9,11,13,15,17,19,21,23,25,27,-1,-1,-1,-1,-1,-1,-1,-1,-1,-1,-1,-1,-1,-1,-1],"loss_changes":[7.402142E1,1.6044504E1,1.6222797E1,9.594337E0,3.2942557E0,4.2570267E0,2.1294785E0,4.2481766E0,9.7689056E-1,9.991038E-1,2.2379727E0,1.4093529E0,1.9187851E0,3.9636803E-1,0E0,0E0,0E0,0E0,0E0,0E0,0E0,0E0,0E0,0E0,0E0,0E0,0E0,0E0,0E0],"parents":[2147483647,0,0,1,1,2,2,3,3,4,4,5,5,6,6,7,7,8,8,9,9,10,10,11,11,12,12,13,13],"right_children":[2,4,6,8,10,12,14,16,18,20,22,24,26,28,-1,-1,-1,-1,-1,-1,-1,-1,-1,-1,-1,-1,-1,-1,-1],"split_conditions":[3E0,1.388E3,3E0,1E0,1E0,1E0,4E0,9.51E2,1E0,1.946E3,1.779E3,1.982E3,1.416E3,1E0,3.9415147E-2,-1.7945772E-2,-7.5166733E-3,-2.4706205E-2,-4.382893E-2,-1.4155417E-2,-3.7632508E-3,-4.69754E-4,1.0522996E-2,-1.18617155E-2,4.4869515E-3,4.451161E-3,1.7381575E-2,2.4576202E-2,1.8375361E-3],"split_indices":[8,20,32,231,29,29,27,17,257,31,20,31,20,89,0,0,0,0,0,0,0,0,0,0,0,0,0,0,0],"split_type":[0,0,0,0,0,0,0,0,0,0,0,0,0,0,0,0,0,0,0,0,0,0,0,0,0,0,0,0,0],"sum_hessian":[1.678E3,1.07E3,6.08E2,6.44E2,4.26E2,4.26E2,1.82E2,5.64E2,8E1,1.5E2,2.76E2,1.74E2,2.52E2,1.08E2,7.4E1,2.53E2,3.11E2,4.8E1,3.2E1,4.8E1,1.02E2,1.82E2,9.4E1,1.7E1,1.57E2,5.5E1,1.97E2,1.04E2,4E0],"tree_param":{"num_deleted":"0","num_feature":"299","num_nodes":"29","size_leaf_vector":"1"}},{"base_weights":[8.435552E-5,-1.6110982E-1,2.72584E-1,-4.2949817E-1,-1.09599665E-1,1.5235326E-1,4.24062E-1,-4.3404687E-2,-3.4433988E-1,-2.1087739E-1,-2.5638465E-2,6.0756102E-2,2.1446028E-1,3.570804E-1,5.822772E-1,-2.2622028E-2,-8.346468E-3,-1.6573684E-2,-8.9349765E-3,-5.778E-3,2.7918674E-3,-2.4485502E-3,6.203248E-3,1.34010445E-2,1.3747424E-3,1.6539447E-2,2.608378E-2,3.5376664E-2,6.1556525E-3],"categories":[],"categories_nodes":[],"categories_segments":[],"categories_sizes":[],"default_left":[0,0,0,0,0,0,0,0,0,0,0,0,0,0,0,0,0,0,0,0,0,0,0,0,0,0,0,0,0],"id":5,"left_children":[1,3,5,7,9,11,13,-1,15,17,19,21,23,25,27,-1,-1,-1,-1,-1,-1,-1,-1,-1,-1,-1,-1,-1,-1],"loss_changes":[7.472877E1,1.4543619E1,1.1225605E1,3.4727669E0,7.6188107E0,1.9613447E0,2.1050034E0,0E0,9.008064E-1,1.5048466E0,2.6669245E0,7.1332514E-1,4.9990177E-1,8.209286E-1,4.155197E-1,0E0,0E0,0E0,0E0,0E0,0E0,0E0,0E0,0E0,0E0,0E0,0E0,0E0,0E0],"parents":[2147483647,0,0,1,1,2,2,3,3,4,4,5,5,6,6,8,8,9,9,10,10,11,11,12,12,13,13,14,14],"right_children":[2,4,6,8,10,12,14,-1,16,18,20,22,24,26,28,-1,-1,-1,-1,-1,-1,-1,-1,-1,-1,-1,-1,-1,-1],"split_conditions":[7E0,5E0,8E0,4E0,2E0,5.02E2,9E0,-4.3404687E-2,1.155E3,6.1E1,1.1E1,5.4E1,1E0,8.16E2,2.62E2,-2.2622028E-2,-8.346468E-3,-1.6573684E-2,-8.9349765E-3,-5.778E-3,2.7918674E-3,-2.4485502E-3,6.203248E-3,1.34010445E-2,1.3747424E-3,1.6539447E-2,2.608378E-2,3.5376664E-2,6.1556525E-3],"split_indices":[3,3,3,3,32,33,3,0,17,0,37,0,251,12,37,0,0,0,0,0,0,0,0,0,0,0,0,0,0],"split_type":[0,0,0,0,0,0,0,0,0,0,0,0,0,0,0,0,0,0,0,0,0,0,0,0,0,0,0,0,0],"sum_hessian":[1.694E3,1.065E3,6.29E2,1.67E2,8.98E2,3.55E2,2.74E2,3E1,1.37E2,4.04E2,4.94E2,1.47E2,2.08E2,2.01E2,7.3E1,1.11E2,2.6E1,1.76E2,2.28E2,2.48E2,2.46E2,4.4E1,1.03E2,1.93E2,1.5E1,1.16E2,8.5E1,6.9E1,4E0],"tree_param":{"num_deleted":"0","num_feature":"299","num_nodes":"29","size_leaf_vector":"1"}},{"base_weights":[2.1897482E-3,-1.399198E-1,2.4104597E-1,-2.2216433E-1,-1.9408014E-2,1.5846306E-1,4.3957433E-1,-3.7371728E-1,-1.61348E-1,-1.4007753E-1,4.0433157E-2,4.2005416E-2,2.3939878E-1,3.3926627E-1,3.3377137E-2,-2.8238194E-2,-1.3137564E-2,-1.2924859E-2,-5.0648744E-3,-1.3422749E-2,-3.8582392E-3,-1.3720471E-4,6.317683E-3,4.232952E-3,-9.595272E-3,1.1621947E-2,2.0809948E-2,2.0780182E-2,4.6304482E-4],"categories":[],"categories_nodes":[],"categories_segments":[],"categories_sizes":[],"default_left":[0,0,0,0,0,0,0,0,0,0,0,0,0,0,0,0,0,0,0,0,0,0,0,0,0,0,0,0,0],"id":6,"left_children":[1,3,5,7,9,11,13,15,17,19,21,23,25,27,-1,-1,-1,-1,-1,-1,-1,-1,-1,-1,-1,-1,-1,-1,-1],"loss_changes":[5.662829E1,1.0318598E1,9.892124E0,5.4454613E0,3.1256213E0,4.130562E0,1.5451393E0,2.3402061E0,1.8767977E0,8.5609484E-1,8.407977E-1,1.185558E0,9.3959236E-1,4.7191048E-1,0E0,0E0,0E0,0E0,0E0,0E0,0E0,0E0,0E0,0E0,0E0,0E0,0E0,0E0,0E0],"parents":[2147483647,0,0,1,1,2,2,3,3,4,4,5,5,6,6,7,7,8,8,9,9,10,10,11,11,12,12,13,13],"right_children":[2,4,6,8,10,12,14,16,18,20,22,24,26,28,-1,-1,-1,-1,-1,-1,-1,-1,-1,-1,-1,-1,-1,-1,-1],"split_conditions":[3E0,1E0,3E0,1.956E3,2E0,1E0,4E0,5.6E1,2E0,6.3E1,1.982E3,1E0,9.45E2,1E0,3.3377137E-2,-2.8238194E-2,-1.3137564E-2,-1.2924859E-2,-5.0648744E-3,-1.3422749E-2,-3.8582392E-3,-1.3720471E-4,6.317683E-3,4.232952E-3,-9.595272E-3,1.1621947E-2,2.0809948E-2,2.0780182E-2,4.6304482E-4],"split_indices":[8,29,32,6,32,29,27,12,32,0,6,67,12,56,0,0,0,0,0,0,0,0,0,0,0,0,0,0,0],"split_type":[0,0,0,0,0,0,0,0,0,0,0,0,0,0,0,0,0,0,0,0,0,0,0,0,0,0,0,0,0],"sum_hessian":[1.661E3,1.042E3,6.19E2,6.17E2,4.25E2,4.42E2,1.77E2,1.71E2,4.46E2,1.4E2,2.85E2,1.84E2,2.58E2,1.07E2,7E1,9.5E1,7.6E1,2.46E2,2E2,6E1,8E1,1.75E2,1.1E2,1.63E2,2.1E1,1.97E2,6.1E1,1.02E2,5E0],"tree_param":{"num_deleted":"0","num_feature":"299","num_nodes":"29","size_leaf_vector":"1"}},{"base_weights":[-1.7342209E-3,-1.4453883E-1,2.4037504E-1,-3.9787212E-1,-9.8343365E-2,1.623671E-1,4.0705198E-1,-3.8469627E-2,-3.2028136E-1,-1.923385E-1,-3.515818E-2,1.20688364E-1,1.900763E-2,3.3084607E-1,5.468821E-1,-2.1562878E-2,-1.0219952E-2,-1.3248634E-2,-3.489158E-3,-6.6888775E-3,1.088462E-3,3.7219843E-3,1.30113065E-2,1.4781952E-2,2.2881575E-2,3.3417314E-2,5.9225345E-3],"categories":[],"categories_nodes":[],"categories_segments":[],"categories_sizes":[],"default_left":[0,0,0,0,0,0,0,0,0,0,0,0,0,0,0,0,0,0,0,0,0,0,0,0,0,0,0],"id":7,"left_children":[1,3,5,7,9,11,13,-1,15,17,19,21,-1,23,25,-1,-1,-1,-1,-1,-1,-1,-1,-1,-1,-1,-1],"loss_changes":[5.914476E1,1.2402817E1,7.951912E0,2.4304562E0,5.38663E0,2.7548714E0,1.3913536E0,0E0,6.24712E-1,1.5324593E0,2.3513913E0,1.9649992E0,0E0,2.2550678E-1,3.463955E-1,0E0,0E0,0E0,0E0,0E0,0E0,0E0,0E0,0E0,0E0,0E0,0E0],"parents":[2147483647,0,0,1,1,2,2,3,3,4,4,5,5,6,6,8,8,9,9,10,10,11,11,13,13,14,14],"right_children":[2,4,6,8,10,12,14,-1,16,18,20,22,-1,24,26,-1,-1,-1,-1,-1,-1,-1,-1,-1,-1,-1,-1],"split_conditions":[7E0,5E0,6.68E2,8.64E2,3.71E2,1.494E3,9E0,-3.8469627E-2,9.12E2,1.0512E4,6E0,1.756E3,1.900763E-2,1.45E2,1.041E3,-2.1562878E-2,-1.0219952E-2,-1.3248634E-2,-3.489158E-3,-6.6888775E-3,1.088462E-3,3.7219843E-3,1.30113065E-2,1.4781952E-2,2.2881575E-2,3.3417314E-2,5.9225345E-3],"split_indices":[3,3,33,20,33,15,3,0,15,1,3,20,0,36,33,0,0,0,0,0,0,0,0,0,0,0,0],"split_type":[0,0,0,0,0,0,0,0,0,0,0,0,0,0,0,0,0,0,0,0,0,0,0,0,0,0,0],"sum_hessian":[1.704E3,1.073E3,6.31E2,1.61E2,9.12E2,4.35E2,1.96E2,3.1E1,1.3E2,3.63E2,5.49E2,3.51E2,8.4E1,1.35E2,6.1E1,9.4E1,3.6E1,2.88E2,7.5E1,2.22E2,3.27E2,2.28E2,1.23E2,6.6E1,6.9E1,5.7E1,4E0],"tree_param":{"num_deleted":"0","num_feature":"299","num_nodes":"27","size_leaf_vector":"1"}},{"base_weights":[-4.482885E-3,-1.6840231E-1,1.6588828E-1,-2.3866896E-1,-3.6130913E-2,9.10166E-2,3.915084E-1,-1.9077128E-1,-4.3191588E-1,-8.0589645E-2,1.2978648E-1,5.744874E-3,1.8076833E-1,3.2201707E-1,3.365018E-2,-2.0160455E-2,-9.782551E-3,-3.3962987E-2,-1.6353836E-2,-1.0993165E-2,-2.4526485E-3,1.6180824E-3,1.4333717E-2,-5.8413036E-3,7.189615E-3,7.1980003E-3,1.495298E-2,-1.7726867E-3,1.9557903E-2],"categories":[],"categories_nodes":[],"categories_segments":[],"categories_sizes":[],"default_left":[0,0,0,0,0,0,0,0,0,0,0,0,0,0,0,0,0,0,0,0,0,0,0,0,0,0,0,0,0],"id":8,"left_children":[1,3,5,7,9,11,13,15,17,19,21,23,25,27,-1,-1,-1,-1,-1,-1,-1,-1,-1,-1,-1,-1,-1,-1,-1],"loss_changes":[4.6861164E1,7.888485E0,1.3712534E1,4.7992783E0,2.2544932E0,4.7383227E0,1.81213E0,1.4196548E0,1.7492085E0,9.405459E-1,6.9686115E-1,4.010459E0,1.1456423E0,6.6088295E-1,0E0,0E0,0E0,0E0,0E0,0E0,0E0,0E0,0E0,0E0,0E0,0E0,0E0,0E0,0E0],"parents":[2147483647,0,0,1,1,2,2,3,3,4,4,5,5,6,6,7,7,8,8,9,9,10,10,11,11,12,12,13,13],"right_children":[2,4,6,8,10,12,14,16,18,20,22,24,26,28,-1,-1,-1,-1,-1,-1,-1,-1,-1,-1,-1,-1,-1,-1,-1],"split_conditions":[3E0,1E0,3E0,1E0,8E0,1.16E3,1.83E3,5.976E3,9.08E2,1.953E3,7E0,1E0,1.469E3,1.98E3,3.365018E-2,-2.0160455E-2,-9.782551E-3,-3.3962987E-2,-1.6353836E-2,-1.0993165E-2,-2.4526485E-3,1.6180824E-3,1.4333717E-2,-5.8413036E-3,7.189615E-3,7.1980003E-3,1.495298E-2,-1.7726867E-3,1.9557903E-2],"split_indices":[10,30,32,231,28,17,17,1,17,6,4,50,17,31,0,0,0,0,0,0,0,0,0,0,0,0,0,0,0],"split_type":[0,0,0,0,0,0,0,0,0,0,0,0,0,0,0,0,0,0,0,0,0,0,0,0,0,0,0,0,0],"sum_hessian":[1.671E3,8.52E2,8.19E2,5.54E2,2.98E2,6.19E2,2E2,4.5E2,1.04E2,2.37E2,6.1E1,3.2E2,2.99E2,1.52E2,4.8E1,5.5E1,3.95E2,4.8E1,5.6E1,5.9E1,1.78E2,3.5E1,2.6E1,1.68E2,1.52E2,1.73E2,1.26E2,4E0,1.48E2],"tree_param":{"num_deleted":"0","num_feature":"299","num_nodes":"29","size_leaf_vector":"1"}},{"base_weights":[-8.60973E-4,-1.3236517E-1,1.9440448E-1,-2.1573122E-1,-4.1097226E-3,1.2152368E-1,3.771309E-1,-1.8170351E-1,-4.972361E-1,-6.1907414E-2,1.1136074E-1,9.023362E-2,1.6744284E-2,2.6365647E-1,2.8153265E-2,-2.095841E-2,-8.484672E-3,-3.4843642E-2,-1.6734289E-2,-1.4870188E-2,-2.0730956E-3,-2.3017112E-4,1.2089693E-2,3.4180244E-3,1.30600585E-2,1.99482E-3,1.6385455E-2],"categories":[],"categories_nodes":[],"categories_segments":[],"categories_sizes":[],"default_left":[0,0,0,0,0,0,0,0,0,0,0,0,0,0,0,0,0,0,0,0,0,0,0,0,0,0,0],"id":9,"left_children":[1,3,5,7,9,11,13,15,17,19,21,23,-1,25,-1,-1,-1,-1,-1,-1,-1,-1,-1,-1,-1,-1,-1],"loss_changes":[4.266921E1,1.0593334E1,8.683609E0,5.3663864E0,2.6575842E0,2.3378286E0,1.651825E0,3.3035889E0,5.7789516E-1,1.2911237E0,1.4677382E0,1.6637466E0,0E0,2.693267E-1,0E0,0E0,0E0,0E0,0E0,0E0,0E0,0E0,0E0,0E0,0E0,0E0,0E0],"parents":[2147483647,0,0,1,1,2,2,3,3,4,4,5,5,6,6,7,7,8,8,9,9,10,10,11,11,13,13],"right_children":[2,4,6,8,10,12,14,16,18,20,22,24,-1,26,-1,-1,-1,-1,-1,-1,-1,-1,-1,-1,-1,-1,-1],"split_conditions":[1.981E3,1.094E3,6.68E2,1E0,1.2216E4,1.505E3,1.2018E4,6.11E2,8E2,2E0,6E0,8.81E2,1.6744284E-2,6E0,2.8153265E-2,-2.095841E-2,-8.484672E-3,-3.4843642E-2,-1.6734289E-2,-1.4870188E-2,-2.0730956E-3,-2.3017112E-4,1.2089693E-2,3.4180244E-3,1.30600585E-2,1.99482E-3,1.6385455E-2],"split_indices":[5,17,33,46,1,15,1,15,15,11,4,18,0,28,0,0,0,0,0,0,0,0,0,0,0,0,0],"split_type":[0,0,0,0,0,0,0,0,0,0,0,0,0,0,0,0,0,0,0,0,0,0,0,0,0,0,0],"sum_hessian":[1.655E3,9.9E2,6.65E2,5.98E2,3.92E2,4.8E2,1.85E2,5.39E2,5.9E1,2.63E2,1.29E2,4.08E2,7.2E1,9.4E1,9.1E1,8.9E1,4.5E2,3.6E1,2.3E1,2.8E1,2.35E2,5.9E1,7E1,3.33E2,7.5E1,7E0,8.7E1],"tree_param":{"num_deleted":"0","num_feature":"299","num_nodes":"27","size_leaf_vector":"1"}},{"base_weights":[5.7328626E-4,-1.189822E-1,1.9172932E-1,-2.3883028E-1,-3.5501637E-2,1.17839634E-1,3.7589937E-1,-4.2602253E-1,-1.6922738E-1,-7.078479E-2,8.481162E-2,-5.3874094E-2,1.5811953E-1,2.7723396E-1,2.9825099E-2,-3.7422523E-2,-1.8560052E-2,-1.6313225E-2,-7.336445E-3,-8.106593E-3,-1.4796423E-3,8.616262E-3,-7.2019347E-3,-9.87129E-3,-1.2363019E-4,7.199705E-3,1.7404044E-2,2.0912963E-3,1.7100109E-2],"categories":[],"categories_nodes":[],"categories_segments":[],"categories_sizes":[],"default_left":[0,0,0,0,0,0,0,0,0,0,0,0,0,0,0,0,0,0,0,0,0,0,0,0,0,0,0,0,0],"id":10,"left_children":[1,3,5,7,9,11,13,15,17,19,21,23,25,27,-1,-1,-1,-1,-1,-1,-1,-1,-1,-1,-1,-1,-1,-1,-1],"loss_changes":[3.8264908E1,1.0237919E1,8.55748E0,5.1698723E0,2.6150184E0,3.2615986E0,1.7862644E0,1.7759342E0,1.3394814E0,1.4248707E0,1.8529031E0,5.130702E-1,1.684309E0,2.9863262E-1,0E0,0E0,0E0,0E0,0E0,0E0,0E0,0E0,0E0,0E0,0E0,0E0,0E0,0E0,0E0],"parents":[2147483647,0,0,1,1,2,2,3,3,4,4,5,5,6,6,7,7,8,8,9,9,10,10,11,11,12,12,13,13],"right_children":[2,4,6,8,10,12,14,16,18,20,22,24,26,28,-1,-1,-1,-1,-1,-1,-1,-1,-1,-1,-1,-1,-1,-1,-1],"split_conditions":[3E0,1.155E3,1.955E3,1E0,1.795E3,1.282E3,4E0,2E0,1.96E3,1.959E3,2E0,3E0,4E0,1.978E3,2.9825099E-2,-3.7422523E-2,-1.8560052E-2,-1.6313225E-2,-7.336445E-3,-8.106593E-3,-1.4796423E-3,8.616262E-3,-7.2019347E-3,-9.87129E-3,-1.2363019E-4,7.199705E-3,1.7404044E-2,2.0912963E-3,1.7100109E-2],"split_indices":[8,20,20,66,20,20,10,35,6,31,26,10,10,6,0,0,0,0,0,0,0,0,0,0,0,0,0,0,0],"split_type":[0,0,0,0,0,0,0,0,0,0,0,0,0,0,0,0,0,0,0,0,0,0,0,0,0,0,0,0,0],"sum_hessian":[1.667E3,1.026E3,6.41E2,4.18E2,6.08E2,4.62E2,1.79E2,1.08E2,3.1E2,4.72E2,1.36E2,8.7E1,3.75E2,1.09E2,7E1,3.1E1,7.7E1,8.4E1,2.26E2,1.87E2,2.85E2,1.06E2,3E1,2.4E1,6.3E1,3.04E2,7.1E1,7E0,1.02E2],"tree_param":{"num_deleted":"0","num_feature":"299","num_nodes":"29","size_leaf_vector":"1"}},{"base_weights":[7.249548E-4,-1.1786044E-1,2.012676E-1,-3.7493148E-1,-7.384723E-2,1.4222707E-1,4.011466E-1,-4.439951E-2,-3.2013774E-1,-1.286498E-1,7.3586786E-3,8.764791E-2,2.8461418E-1,2.8432775E-2,2.8200987E-1,-2.2141686E-2,-9.1588795E-3,-1.0554145E-2,-3.63583E-3,-4.420233E-3,3.6810406E-3,-7.1146264E-4,6.333503E-3,9.991466E-3,1.9361954E-2,3.7736925E-3,1.8748626E-2],"categories":[],"categories_nodes":[],"categories_segments":[],"categories_sizes":[],"default_left":[0,0,0,0,0,0,0,0,0,0,0,0,0,0,0,0,0,0,0,0,0,0,0,0,0,0,0],"id":11,"left_children":[1,3,5,7,9,11,13,-1,15,17,19,21,23,-1,25,-1,-1,-1,-1,-1,-1,-1,-1,-1,-1,-1,-1],"loss_changes":[4.0080605E1,1.1826599E1,7.129961E0,2.2304668E0,4.060691E0,3.6729393E0,8.173866E-1,0E0,1.0391483E0,1.7814732E0,1.6968095E0,7.3743606E-1,4.316864E-1,0E0,4.1915655E-1,0E0,0E0,0E0,0E0,0E0,0E0,0E0,0E0,0E0,0E0,0E0,0E0],"parents":[2147483647,0,0,1,1,2,2,3,3,4,4,5,5,6,6,8,8,9,9,10,10,11,11,12,12,14,14],"right_children":[2,4,6,8,10,12,14,-1,16,18,20,22,24,-1,26,-1,-1,-1,-1,-1,-1,-1,-1,-1,-1,-1,-1],"split_conditions":[7E0,5E0,2.098E3,3E0,1.411E3,1.505E3,1E0,-4.439951E-2,9.1E2,4.9E2,6E0,7.65E2,3.72E2,2.8432775E-2,9.98E2,-2.2141686E-2,-9.1588795E-3,-1.0554145E-2,-3.63583E-3,-4.420233E-3,3.6810406E-3,-7.1146264E-4,6.333503E-3,9.991466E-3,1.9361954E-2,3.7736925E-3,1.8748626E-2],"split_indices":[3,3,20,3,20,15,209,0,15,12,3,15,12,0,15,0,0,0,0,0,0,0,0,0,0,0,0],"split_type":[0,0,0,0,0,0,0,0,0,0,0,0,0,0,0,0,0,0,0,0,0,0,0,0,0,0,0],"sum_hessian":[1.678E3,1.055E3,6.23E2,1.5E2,9.05E2,4.86E2,1.37E2,1.3E1,1.37E2,5.4E2,3.65E2,3.56E2,1.3E2,7.4E1,6.3E1,9.8E1,3.9E1,3.02E2,2.38E2,1.45E2,2.2E2,5.9E1,2.97E2,4.2E1,8.8E1,1.1E1,5.2E1],"tree_param":{"num_deleted":"0","num_feature":"299","num_nodes":"27","size_leaf_vector":"1"}},{"base_weights":[-2.7489346E-3,-1.1586588E-1,1.9299355E-1,-3.2317114E-1,-7.748748E-2,1.3366397E-1,3.797728E-1,-5.262508E-1,-2.5581315E-1,-1.18479006E-1,1.0593208E-2,1.0218701E-1,1.6308667E-2,2.735407E-1,2.7508501E-2,-3.327208E-2,-8.428402E-3,-1.6544484E-2,-5.335953E-3,-1.2806938E-2,-4.9566957E-3,2.4928239E-3,-8.520973E-3,-4.7908997E-4,7.2369007E-3,6.0122404E-3,1.7913286E-2],"categories":[],"categories_nodes":[],"categories_segments":[],"categories_sizes":[],"default_left":[0,0,0,0,0,0,0,0,0,0,0,0,0,0,0,0,0,0,0,0,0,0,0,0,0,0,0],"id":12,"left_children":[1,3,5,7,9,11,13,15,17,19,21,23,-1,25,-1,-1,-1,-1,-1,-1,-1,-1,-1,-1,-1,-1,-1],"loss_changes":[3.7344105E1,8.374138E0,6.6049843E0,1.7020054E0,3.2936835E0,2.0045166E0,8.402176E-1,2.0561028E-1,4.2453384E-1,2.0064535E0,1.4475456E0,9.315152E-1,0E0,2.4727678E-1,0E0,0E0,0E0,0E0,0E0,0E0,0E0,0E0,0E0,0E0,0E0,0E0,0E0],"parents":[2147483647,0,0,1,1,2,2,3,3,4,4,5,5,6,6,7,7,8,8,9,9,10,10,11,11,13,13],"right_children":[2,4,6,8,10,12,14,16,18,20,22,24,-1,26,-1,-1,-1,-1,-1,-1,-1,-1,-1,-1,-1,-1,-1],"split_conditions":[7E0,5E0,4E0,4E0,1.488E3,2.134E3,9E0,7.5E1,3.9E1,1.954E3,2E0,8.45E2,1.6308667E-2,1.582E3,2.7508501E-2,-3.327208E-2,-8.428402E-3,-1.6544484E-2,-5.335953E-3,-1.2806938E-2,-4.9566957E-3,2.4928239E-3,-8.520973E-3,-4.7908997E-4,7.2369007E-3,6.0122404E-3,1.7913286E-2],"split_indices":[3,3,10,3,20,20,3,37,37,31,26,17,0,20,0,0,0,0,0,0,0,0,0,0,0,0,0],"split_type":[0,0,0,0,0,0,0,0,0,0,0,0,0,0,0,0,0,0,0,0,0,0,0,0,0,0,0],"sum_hessian":[1.68E3,1.066E3,6.14E2,1.62E2,9.04E2,4.71E2,1.43E2,3.4E1,1.28E2,6.17E2,2.87E2,3.92E2,7.9E1,7.2E1,7.1E1,2.9E1,5E0,1.08E2,2E1,1.52E2,4.65E2,2.41E2,4.6E1,6.2E1,3.3E2,1.4E1,5.8E1],"tree_param":{"num_deleted":"0","num_feature":"299","num_nodes":"27","size_leaf_vector":"1"}},{"base_weights":[3.8406058E-4,-1.16034165E-1,1.3856132E-1,-1.8970752E-1,-2.5853226E-2,5.1191967E-2,2.7497655E-1,-2.7933028E-1,-9.77172E-2,-2.2783022E-1,-8.781821E-5,-2.4424037E-2,1.4538741E-1,1.6965154E-1,3.494565E-1,-3.32938E-2,-1.4747102E-2,-1.0228232E-2,-3.349482E-3,-1.7908491E-2,-2.791515E-3,1.6319378E-3,-6.506306E-3,-9.1413725E-3,-1.3587484E-4,5.600504E-3,1.1333742E-2,1.0674345E-2,-2.273931E-3,2.1158297E-2,1.4215736E-3],"categories":[],"categories_nodes":[],"categories_segments":[],"categories_sizes":[],"default_left":[0,0,0,0,0,0,0,0,0,0,0,0,0,0,0,0,0,0,0,0,0,0,0,0,0,0,0,0,0,0,0],"id":13,"left_children":[1,3,5,7,9,11,13,15,17,19,21,23,25,27,29,-1,-1,-1,-1,-1,-1,-1,-1,-1,-1,-1,-1,-1,-1,-1,-1],"loss_changes":[2.709153E1,6.0264893E0,9.095324E0,3.9946766E0,2.1351044E0,3.406302E0,2.0812817E0,1.4588356E0,7.2593164E-1,5.524113E-1,1.1683612E0,7.4978316E-1,4.070177E-1,3.6961603E-1,5.1358986E-1,0E0,0E0,0E0,0E0,0E0,0E0,0E0,0E0,0E0,0E0,0E0,0E0,0E0,0E0,0E0,0E0],"parents":[2147483647,0,0,1,1,2,2,3,3,4,4,5,5,6,6,7,7,8,8,9,9,10,10,11,11,12,12,13,13,14,14],"right_children":[2,4,6,8,10,12,14,16,18,20,22,24,26,28,30,-1,-1,-1,-1,-1,-1,-1,-1,-1,-1,-1,-1,-1,-1,-1,-1],"split_conditions":[3E0,1.32E3,1.74E3,3.6E2,5E0,1.288E3,1.236E3,2E0,9.51E2,1.54E2,1E0,9.36E2,7.4E2,1E0,1E0,-3.32938E-2,-1.4747102E-2,-1.0228232E-2,-3.349482E-3,-1.7908491E-2,-2.791515E-3,1.6319378E-3,-6.506306E-3,-9.1413725E-3,-1.3587484E-4,5.600504E-3,1.1333742E-2,1.0674345E-2,-2.273931E-3,2.1158297E-2,1.4215736E-3],"split_indices":[27,20,20,12,4,17,17,9,17,12,67,20,12,67,77,0,0,0,0,0,0,0,0,0,0,0,0,0,0,0,0],"split_type":[0,0,0,0,0,0,0,0,0,0,0,0,0,0,0,0,0,0,0,0,0,0,0,0,0,0,0,0,0,0,0],"sum_hessian":[1.677E3,9.1E2,7.67E2,4.98E2,4.12E2,4.71E2,2.96E2,2.48E2,2.5E2,4.3E1,3.69E2,2.62E2,2.09E2,1.28E2,1.68E2,1.6E1,2.32E2,8.2E1,1.68E2,2.8E1,1.5E1,2.96E2,7.3E1,3.4E1,2.28E2,1.08E2,1.01E2,1.22E2,6E0,1.62E2,6E0],"tree_param":{"num_deleted":"0","num_feature":"299","num_nodes":"31","size_leaf_vector":"1"}},{"base_weights":[-4.0208166E-3,-9.222953E-2,1.56394E-1,-3.3218348E-1,-6.148586E-2,7.1021274E-2,2.7345473E-1,-3.5441153E-2,-2.4272928E-1,-1.2003901E-1,2.072722E-2,-1.2421703E-2,1.5612617E-1,2.0480284E-1,3.8819164E-1,-1.7053591E-2,-5.958519E-3,-1.0392547E-2,-2.618057E-3,-6.3910574E-4,1.0410162E-2,-4.9153836E-3,1.5295905E-3,5.907578E-3,1.1556367E-2,9.665061E-3,1.8681543E-2,3.8711992E-3,2.3943625E-2],"categories":[],"categories_nodes":[],"categories_segments":[],"categories_sizes":[],"default_left":[0,0,0,0,0,0,0,0,0,0,0,0,0,0,0,0,0,0,0,0,0,0,0,0,0,0,0,0,0],"id":14,"left_children":[1,3,5,7,9,11,13,-1,15,17,19,21,23,25,27,-1,-1,-1,-1,-1,-1,-1,-1,-1,-1,-1,-1,-1,-1],"loss_changes":[2.367996E1,7.852992E0,5.82267E0,2.3334904E0,4.653674E0,2.4985096E0,1.6100521E0,0E0,5.0489616E-1,2.3623857E0,2.0158389E0,5.0313884E-1,2.8674173E-1,5.065446E-1,3.9878464E-1,0E0,0E0,0E0,0E0,0E0,0E0,0E0,0E0,0E0,0E0,0E0,0E0,0E0,0E0],"parents":[2147483647,0,0,1,1,2,2,3,3,4,4,5,5,6,6,8,8,9,9,10,10,11,11,12,12,13,13,14,14],"right_children":[2,4,6,8,10,12,14,-1,16,18,20,22,24,26,28,-1,-1,-1,-1,-1,-1,-1,-1,-1,-1,-1,-1,-1,-1],"split_conditions":[3E0,1E0,1.766E3,8.33E2,1.388E3,1.268E3,2.327E3,-3.5441153E-2,2.06E2,9.64E2,2.028E3,1E0,3.24E2,1.121E3,3E0,-1.7053591E-2,-5.958519E-3,-1.0392547E-2,-2.618057E-3,-6.3910574E-4,1.0410162E-2,-4.9153836E-3,1.5295905E-3,5.907578E-3,1.1556367E-2,9.665061E-3,1.8681543E-2,3.8711992E-3,2.3943625E-2],"split_indices":[8,232,20,20,20,15,20,0,12,15,20,247,12,12,16,0,0,0,0,0,0,0,0,0,0,0,0,0,0],"split_type":[0,0,0,0,0,0,0,0,0,0,0,0,0,0,0,0,0,0,0,0,0,0,0,0,0,0,0,0,0],"sum_hessian":[1.667E3,1.077E3,5.9E2,1.18E2,9.59E2,3.45E2,2.45E2,2.4E1,9.4E1,5.6E2,3.99E2,1.75E2,1.7E2,1.6E2,8.5E1,6.7E1,2.7E1,3.16E2,2.44E2,3.34E2,6.5E1,6.1E1,1.14E2,7.8E1,9.2E1,1.25E2,3.5E1,6E0,7.9E1],"tree_param":{"num_deleted":"0","num_feature":"299","num_nodes":"29","size_leaf_vector":"1"}},{"base_weights":[7.603238E-4,-9.2427514E-2,1.4829005E-1,-1.583853E-1,1.1972838E-2,9.965963E-2,3.1601572E-1,-3.1820285E-1,-1.2446629E-1,-4.6715777E-2,1.3801639E-1,5.819573E-2,2.1850112E-1,1.374083E-2,2.558599E-2,-1.9463457E-2,-3.0126898E-3,-1.3368535E-2,-5.7333335E-3,-4.592795E-3,2.1067876E-3,1.2649051E-3,1.089131E-2,-1.6939682E-3,4.3080966E-3,7.621064E-3,1.5074843E-2],"categories":[],"categories_nodes":[],"categories_segments":[],"categories_sizes":[],"default_left":[0,0,0,0,0,0,0,0,0,0,0,0,0,0,0,0,0,0,0,0,0,0,0,0,0,0,0],"id":15,"left_children":[1,3,5,7,9,11,13,15,17,19,21,23,25,-1,-1,-1,-1,-1,-1,-1,-1,-1,-1,-1,-1,-1,-1],"loss_changes":[2.2841413E1,7.030366E0,5.0896435E0,3.1948023E0,2.9661975E0,2.4088206E0,9.6401405E-1,2.6456165E-1,1.3296785E0,7.219599E-1,6.6415334E-1,5.1159775E-1,2.7212286E-1,0E0,0E0,0E0,0E0,0E0,0E0,0E0,0E0,0E0,0E0,0E0,0E0,0E0,0E0],"parents":[2147483647,0,0,1,1,2,2,3,3,4,4,5,5,6,6,7,7,8,8,9,9,10,10,11,11,12,12],"right_children":[2,4,6,8,10,12,14,16,18,20,22,24,26,-1,-1,-1,-1,-1,-1,-1,-1,-1,-1,-1,-1,-1,-1],"split_conditions":[1.986E3,1E0,2.014E3,5.76E2,1.2144E4,1.498E3,1.524E3,1E0,2E0,1E0,1.509E3,1.206E3,3.72E2,1.374083E-2,2.558599E-2,-1.9463457E-2,-3.0126898E-3,-1.3368535E-2,-5.7333335E-3,-4.592795E-3,2.1067876E-3,1.2649051E-3,1.089131E-2,-1.6939682E-3,4.3080966E-3,7.621064E-3,1.5074843E-2],"split_indices":[5,30,20,15,1,15,17,146,34,73,20,20,12,0,0,0,0,0,0,0,0,0,0,0,0,0,0],"split_type":[0,0,0,0,0,0,0,0,0,0,0,0,0,0,0,0,0,0,0,0,0,0,0,0,0,0,0],"sum_hessian":[1.654E3,1.014E3,6.4E2,6.21E2,3.93E2,5.01E2,1.39E2,1.03E2,5.18E2,2.69E2,1.24E2,3.76E2,1.25E2,8.9E1,5E1,9.7E1,6E0,1.01E2,4.17E2,1.96E2,7.3E1,3.8E1,8.6E1,5.4E1,3.22E2,4.3E1,8.2E1],"tree_param":{"num_deleted":"0","num_feature":"299","num_nodes":"27","size_leaf_vector":"1"}},{"base_weights":[3.018593E-3,-8.645357E-2,1.5456066E-1,-2.7375522E-1,-5.1466238E-2,7.172349E-2,2.4786389E-1,-5.0360394E-1,-2.0706758E-1,-1.03864454E-1,-1.5310755E-3,2.1828994E-2,1.3584116E-1,1.7389041E-1,3.313925E-1,-1.484943E-2,-3.9734732E-2,-1.38499625E-2,-4.48171E-3,-8.286796E-3,-2.3733405E-3,-3.1196345E-3,2.884287E-3,-2.6389016E-4,4.737735E-3,3.3917902E-3,9.910098E-3,7.0875194E-3,1.4342457E-2,-8.315064E-4,2.0201532E-2],"categories":[],"categories_nodes":[],"categories_segments":[],"categories_sizes":[],"default_left":[0,0,0,0,0,0,0,0,0,0,0,0,0,0,0,0,0,0,0,0,0,0,0,0,0,0,0,0,0,0,0],"id":16,"left_children":[1,3,5,7,9,11,13,15,17,19,21,23,25,27,29,-1,-1,-1,-1,-1,-1,-1,-1,-1,-1,-1,-1,-1,-1,-1,-1],"loss_changes":[2.232472E1,6.69154E0,4.626336E0,2.0277376E0,2.280286E0,1.0250419E0,1.5033474E0,7.4425507E-1,3.923211E-1,9.6421385E-1,1.1926934E0,3.050059E-1,3.0424976E-1,4.5052576E-1,6.08654E-1,0E0,0E0,0E0,0E0,0E0,0E0,0E0,0E0,0E0,0E0,0E0,0E0,0E0,0E0,0E0,0E0],"parents":[2147483647,0,0,1,1,2,2,3,3,4,4,5,5,6,6,7,7,8,8,9,9,10,10,11,11,12,12,13,13,14,14],"right_children":[2,4,6,8,10,12,14,16,18,20,22,24,26,28,30,-1,-1,-1,-1,-1,-1,-1,-1,-1,-1,-1,-1,-1,-1,-1,-1],"split_conditions":[7E0,5E0,8E0,8.48E2,9.116E3,1.72E3,1.922E3,1E0,5.28E2,1.991E3,6E0,5.42E2,2.7E1,9.38E2,1.981E3,-1.484943E-2,-3.9734732E-2,-1.38499625E-2,-4.48171E-3,-8.286796E-3,-2.3733405E-3,-3.1196345E-3,2.884287E-3,-2.6389016E-4,4.737735E-3,3.3917902E-3,9.910098E-3,7.0875194E-3,1.4342457E-2,-8.315064E-4,2.0201532E-2],"split_indices":[3,3,3,20,1,20,20,231,12,6,3,33,12,12,6,0,0,0,0,0,0,0,0,0,0,0,0,0,0,0,0],"split_type":[0,0,0,0,0,0,0,0,0,0,0,0,0,0,0,0,0,0,0,0,0,0,0,0,0,0,0,0,0,0,0],"sum_hessian":[1.639E3,1.031E3,6.08E2,1.58E2,8.73E2,3.26E2,2.82E2,3E1,1.28E2,4.23E2,4.5E2,1.87E2,1.39E2,1.56E2,1.26E2,1.6E1,1.4E1,1.02E2,2.6E1,2.63E2,1.6E2,2.24E2,2.26E2,1.3E2,5.7E1,4.5E1,9.4E1,9.5E1,6.1E1,4E0,1.22E2],"tree_param":{"num_deleted":"0","num_feature":"299","num_nodes":"31","size_leaf_vector":"1"}},{"base_weights":[-7.4134017E-3,-9.176374E-2,1.4303127E-1,-2.6528978E-1,-5.762512E-2,6.659997E-2,2.3187606E-1,-3.7307993E-2,-2.2797745E-1,-1.1136173E-1,-1.3025574E-2,-3.731101E-2,8.5230134E-2,1.8777621E-1,2.1362603E-2,-1.8272834E-2,-9.820011E-3,-1.6097477E-2,-5.6267013E-3,-5.914627E-3,4.9604074E-4,-5.698578E-3,1.470936E-3,2.9537182E-3,7.833654E-3,2.2958675E-3,1.20277675E-2],"categories":[],"categories_nodes":[],"categories_segments":[],"categories_sizes":[],"default_left":[0,0,0,0,0,0,0,0,0,0,0,0,0,0,0,0,0,0,0,0,0,0,0,0,0,0,0],"id":17,"left_children":[1,3,5,7,9,11,13,-1,15,17,19,21,23,25,-1,-1,-1,-1,-1,-1,-1,-1,-1,-1,-1,-1,-1],"loss_changes":[2.08321E1,6.143326E0,3.9137316E0,1.758028E0,2.0999842E0,6.410458E-1,1.2669477E0,0E0,5.778742E-1,8.790736E-1,9.3261576E-1,2.0472208E-1,4.1795993E-1,4.717946E-1,0E0,0E0,0E0,0E0,0E0,0E0,0E0,0E0,0E0,0E0,0E0,0E0,0E0],"parents":[2147483647,0,0,1,1,2,2,3,3,4,4,5,5,6,6,8,8,9,9,10,10,11,11,12,12,13,13],"right_children":[2,4,6,8,10,12,14,-1,16,18,20,22,24,26,-1,-1,-1,-1,-1,-1,-1,-1,-1,-1,-1,-1,-1],"split_conditions":[7E0,5E0,8E0,3E0,2E0,6.6E3,1.811E3,-3.7307993E-2,1.939E3,5E0,1E0,1E0,1E0,1.99E3,2.1362603E-2,-1.8272834E-2,-9.820011E-3,-1.6097477E-2,-5.6267013E-3,-5.914627E-3,4.9604074E-4,-5.698578E-3,1.470936E-3,2.9537182E-3,7.833654E-3,2.2958675E-3,1.20277675E-2],"split_indices":[3,3,3,3,32,1,17,0,31,4,66,213,21,31,0,0,0,0,0,0,0,0,0,0,0,0,0],"split_type":[0,0,0,0,0,0,0,0,0,0,0,0,0,0,0,0,0,0,0,0,0,0,0,0,0,0,0],"sum_hessian":[1.635E3,1.049E3,5.86E2,1.68E2,8.81E2,3.19E2,2.67E2,1E1,1.58E2,3.96E2,4.85E2,4.7E1,2.72E2,2.07E2,6E1,6E1,9.8E1,2.9E1,3.67E2,9.4E1,3.91E2,2.4E1,2.3E1,1.63E2,1.09E2,2.3E1,1.84E2],"tree_param":{"num_deleted":"0","num_feature":"299","num_nodes":"27","size_leaf_vector":"1"}},{"base_weights":[2.3220847E-3,-9.503525E-2,1.0722601E-1,-3.991999E-1,-7.714611E-2,4.8908707E-2,2.2876602E-1,-2.5589384E-2,-0E0,-1.2447748E-1,1.019405E-3,2.237484E-3,1.3696857E-1,1.7395501E-1,1.9727163E-2,-5.953422E-3,-1.7010566E-2,-2.1494376E-3,6.717892E-3,-6.3531273E-3,1.5170778E-3,4.805793E-3,1.1713608E-2,7.570395E-3,1.4019373E-2],"categories":[],"categories_nodes":[],"categories_segments":[],"categories_sizes":[],"default_left":[0,0,0,0,0,0,0,0,0,0,0,0,0,0,0,0,0,0,0,0,0,0,0,0,0],"id":18,"left_children":[1,3,5,7,9,11,13,-1,-1,15,17,19,21,23,-1,-1,-1,-1,-1,-1,-1,-1,-1,-1,-1],"loss_changes":[1.7271494E1,4.6054235E0,5.701082E0,6.771736E-1,3.094997E0,2.2653952E0,1.2742538E0,0E0,0E0,1.8376694E0,1.3716854E0,9.559692E-1,5.688472E-1,3.7857914E-1,0E0,0E0,0E0,0E0,0E0,0E0,0E0,0E0,0E0,0E0,0E0],"parents":[2147483647,0,0,1,1,2,2,3,3,4,4,5,5,6,6,9,9,10,10,11,11,12,12,13,13],"right_children":[2,4,6,8,10,12,14,-1,-1,16,18,20,22,24,-1,-1,-1,-1,-1,-1,-1,-1,-1,-1,-1],"split_conditions":[3E0,4E0,1.389E3,1.4E3,1E0,8.28E2,1.3262E4,-2.5589384E-2,-0E0,1E0,1.2568E4,3.84E2,1.007E3,4E0,1.9727163E-2,-5.953422E-3,-1.7010566E-2,-2.1494376E-3,6.717892E-3,-6.3531273E-3,1.5170778E-3,4.805793E-3,1.1713608E-2,7.570395E-3,1.4019373E-2],"split_indices":[10,4,15,15,29,18,1,0,0,46,1,33,15,10,0,0,0,0,0,0,0,0,0,0,0],"split_type":[0,0,0,0,0,0,0,0,0,0,0,0,0,0,0,0,0,0,0,0,0,0,0,0,0],"sum_hessian":[1.684E3,8.73E2,8.11E2,4.4E1,8.29E2,5.52E2,2.59E2,4E1,4E0,5.16E2,3.13E2,3.64E2,1.88E2,1.78E2,8.1E1,4.58E2,5.8E1,2.36E2,7.7E1,6.1E1,3.03E2,1.05E2,8.3E1,1.12E2,6.6E1],"tree_param":{"num_deleted":"0","num_feature":"299","num_nodes":"25","size_leaf_vector":"1"}},{"base_weights":[4.6020164E-3,-8.769532E-2,1.10956736E-1,-3.989155E-1,-7.208994E-2,4.5172878E-2,2.2736827E-1,-2.5673714E-2,-3.4068527E-3,-1.6609037E-1,-3.7178606E-2,-1.842415E-2,1.1524663E-1,1.7791846E-1,3.5527298E-1,-1.4595623E-2,-5.580713E-3,-5.006612E-3,2.4796775E-4,-7.612652E-3,-7.227683E-6,3.6618838E-3,8.937599E-3,8.615932E-3,1.6237695E-2,2.330999E-3,2.2012979E-2],"categories":[],"categories_nodes":[],"categories_segments":[],"categories_sizes":[],"default_left":[0,0,0,0,0,0,0,0,0,0,0,0,0,0,0,0,0,0,0,0,0,0,0,0,0,0,0],"id":19,"left_children":[1,3,5,7,9,11,13,-1,-1,15,17,19,21,23,25,-1,-1,-1,-1,-1,-1,-1,-1,-1,-1,-1,-1],"loss_changes":[1.6375654E1,4.178532E0,5.870574E0,3.897786E-1,2.758541E0,2.2492676E0,1.4779835E0,0E0,0E0,1.2199912E0,1.2600396E0,5.2239525E-1,4.085381E-1,4.5098495E-1,3.4663773E-1,0E0,0E0,0E0,0E0,0E0,0E0,0E0,0E0,0E0,0E0,0E0,0E0],"parents":[2147483647,0,0,1,1,2,2,3,3,4,4,5,5,6,6,9,9,10,10,11,11,12,12,13,13,14,14],"right_children":[2,4,6,8,10,12,14,-1,-1,16,18,20,22,24,26,-1,-1,-1,-1,-1,-1,-1,-1,-1,-1,-1,-1],"split_conditions":[3E0,4E0,1.766E3,3.51E2,1E0,1.218E3,2.464E3,-2.5673714E-2,-3.4068527E-3,1.164E3,1.226E3,9.36E2,3.72E2,1.087E3,3E0,-1.4595623E-2,-5.580713E-3,-5.006612E-3,2.4796775E-4,-7.612652E-3,-7.227683E-6,3.6618838E-3,8.937599E-3,8.615932E-3,1.6237695E-2,2.330999E-3,2.2012979E-2],"split_indices":[27,4,20,12,66,15,20,0,0,20,20,20,12,12,16,0,0,0,0,0,0,0,0,0,0,0,0],"split_type":[0,0,0,0,0,0,0,0,0,0,0,0,0,0,0,0,0,0,0,0,0,0,0,0,0,0,0],"sum_hessian":[1.661E3,8.89E2,7.72E2,3.8E1,8.51E2,4.97E2,2.75E2,3.3E1,5E0,2.26E2,6.25E2,2.61E2,2.36E2,2.05E2,7E1,1E2,1.26E2,2.89E2,3.36E2,3.3E1,2.28E2,1.02E2,1.34E2,1.63E2,4.2E1,5E0,6.5E1],"tree_param":{"num_deleted":"0","num_feature":"299","num_nodes":"27","size_leaf_vector":"1"}},{"base_weights":[-7.29427E-4,-1.1815293E-1,7.25422E-2,-2.9148948E-1,-8.4594905E-2,1.2936537E-2,1.553619E-1,-2.654693E-2,-2.2549672E-1,-1.0890427E-1,-0E0,3.246489E-2,-8.251933E-2,9.630207E-2,2.1548116E-1,-1.4242967E-2,-2.285867E-3,-8.0551E-3,-2.60654E-3,-3.0276587E-3,2.1562548E-3,1.2033065E-3,8.762123E-3,-6.94522E-3,3.559742E-3,2.6178302E-3,7.0995423E-3,9.793961E-3,1.5597389E-2],"categories":[],"categories_nodes":[],"categories_segments":[],"categories_sizes":[],"default_left":[0,0,0,0,0,0,0,0,0,0,0,0,0,0,0,0,0,0,0,0,0,0,0,0,0,0,0,0,0],"id":20,"left_children":[1,3,5,7,9,11,13,-1,15,17,19,21,23,25,27,-1,-1,-1,-1,-1,-1,-1,-1,-1,-1,-1,-1,-1,-1],"loss_changes":[1.4691715E1,3.6881847E0,5.1587896E0,6.6969013E-1,1.1422496E0,1.1507212E0,1.4476566E0,0E0,1.9015741E-1,7.416501E-1,2.4756531E-1,6.886989E-1,5.648874E-1,2.5141454E-1,3.1510162E-1,0E0,0E0,0E0,0E0,0E0,0E0,0E0,0E0,0E0,0E0,0E0,0E0,0E0,0E0],"parents":[2147483647,0,0,1,1,2,2,3,3,4,4,5,5,6,6,8,8,9,9,10,10,11,11,12,12,13,13,14,14],"right_children":[2,4,6,8,10,12,14,-1,16,18,20,22,24,26,28,-1,-1,-1,-1,-1,-1,-1,-1,-1,-1,-1,-1,-1,-1],"split_conditions":[6E0,1E0,5.46E2,4E0,1.1105E4,1E0,8E0,-2.654693E-2,1.54E2,5.57E2,2.98E2,1.5138E4,1E0,6.9E1,1.2018E4,-1.4242967E-2,-2.285867E-3,-8.0551E-3,-2.60654E-3,-3.0276587E-3,2.1562548E-3,1.2033065E-3,8.762123E-3,-6.94522E-3,3.559742E-3,2.6178302E-3,7.0995423E-3,9.793961E-3,1.5597389E-2],"split_indices":[3,232,33,3,1,67,3,0,36,12,12,1,56,0,1,0,0,0,0,0,0,0,0,0,0,0,0,0,0],"split_type":[0,0,0,0,0,0,0,0,0,0,0,0,0,0,0,0,0,0,0,0,0,0,0,0,0,0,0,0,0],"sum_hessian":[1.7E3,6.53E2,1.047E3,1.01E2,5.52E2,6.12E2,4.35E2,2.3E1,7.8E1,4.28E2,1.24E2,5.11E2,1.01E2,2.25E2,2.1E2,7E1,8E0,2.94E2,1.34E2,5.1E1,7.3E1,4.68E2,4.3E1,8.2E1,1.9E1,7.7E1,1.48E2,1.15E2,9.5E1],"tree_param":{"num_deleted":"0","num_feature":"299","num_nodes":"29","size_leaf_vector":"1"}},{"base_weights":[-2.3231529E-4,-7.012796E-2,1.1810258E-1,-1.6721246E-1,-3.496667E-2,8.5061945E-2,2.682245E-1,-2.0434447E-2,-1.3654664E-1,-7.3185526E-2,2.1313058E-2,6.1011203E-2,1.6244811E-1,1.1990744E-2,2.036855E-2,-2.228334E-2,-7.1166838E-3,-8.148486E-3,-2.7484463E-3,5.6803932E-5,7.108055E-3,2.2818667E-3,6.9764494E-3,-0E0,1.019182E-2],"categories":[],"categories_nodes":[],"categories_segments":[],"categories_sizes":[],"default_left":[0,0,0,0,0,0,0,0,0,0,0,0,0,0,0,0,0,0,0,0,0,0,0,0,0],"id":21,"left_children":[1,3,5,7,9,11,13,-1,15,17,19,21,23,-1,-1,-1,-1,-1,-1,-1,-1,-1,-1,-1,-1],"loss_changes":[1.3806809E1,3.5416193E0,2.9513664E0,1.3130956E0,1.681756E0,8.946836E-1,2.391367E-1,0E0,6.9351053E-1,7.587855E-1,6.2470585E-1,4.7531366E-1,2.2616386E-1,0E0,0E0,0E0,0E0,0E0,0E0,0E0,0E0,0E0,0E0,0E0,0E0],"parents":[2147483647,0,0,1,1,2,2,3,3,4,4,5,5,6,6,8,8,9,9,10,10,11,11,12,12],"right_children":[2,4,6,8,10,12,14,-1,16,18,20,22,24,-1,-1,-1,-1,-1,-1,-1,-1,-1,-1,-1,-1],"split_conditions":[7E0,1E0,4E0,5E0,6E0,6.75E2,1.2E3,-2.0434447E-2,2E0,2.7E1,7.95E2,7.27E2,1.992E3,1.1990744E-2,2.036855E-2,-2.228334E-2,-7.1166838E-3,-8.148486E-3,-2.7484463E-3,5.6803932E-5,7.108055E-3,2.2818667E-3,6.9764494E-3,-0E0,1.019182E-2],"split_indices":[3,66,27,4,3,33,12,0,8,12,18,12,6,0,0,0,0,0,0,0,0,0,0,0,0],"split_type":[0,0,0,0,0,0,0,0,0,0,0,0,0,0,0,0,0,0,0,0,0,0,0,0,0],"sum_hessian":[1.663E3,1.047E3,6.16E2,2.74E2,7.73E2,5.1E2,1.06E2,3.4E1,2.4E2,4.61E2,3.12E2,3.95E2,1.15E2,6.6E1,4E1,9E0,2.31E2,1.27E2,3.34E2,2.63E2,4.9E1,2.91E2,1.04E2,7E0,1.08E2],"tree_param":{"num_deleted":"0","num_feature":"299","num_nodes":"25","size_leaf_vector":"1"}},{"base_weights":[7.7233143E-4,-7.4414946E-2,8.6773396E-2,-2.1190979E-1,-4.79485E-2,-1.5899139E-2,1.2597892E-1,-1.5773276E-2,-6.3034007E-3,-8.678058E-2,9.100842E-3,-4.8452936E-2,6.8330825E-3,8.017556E-2,1.917079E-1,-2.9485596E-3,-6.874423E-3,-1.8608088E-3,2.5132082E-3,-9.661098E-3,-1.3649535E-3,1.9568475E-3,7.843198E-3,1.1826168E-2,-3.6904146E-3],"categories":[],"categories_nodes":[],"categories_segments":[],"categories_sizes":[],"default_left":[0,0,0,0,0,0,0,0,0,0,0,0,0,0,0,0,0,0,0,0,0,0,0,0,0],"id":22,"left_children":[1,3,5,7,9,11,13,-1,-1,15,17,19,-1,21,23,-1,-1,-1,-1,-1,-1,-1,-1,-1,-1],"loss_changes":[1.083855E1,3.1851954E0,3.1697783E0,6.974554E-1,1.6833981E0,9.516382E-1,1.6227055E0,0E0,0E0,4.5767617E-1,4.2797634E-1,4.8649225E-1,0E0,8.1771135E-1,6.1662865E-1,0E0,0E0,0E0,0E0,0E0,0E0,0E0,0E0,0E0,0E0],"parents":[2147483647,0,0,1,1,2,2,3,3,4,4,5,5,6,6,9,9,10,10,11,11,13,13,14,14],"right_children":[2,4,6,8,10,12,14,-1,-1,16,18,20,-1,22,24,-1,-1,-1,-1,-1,-1,-1,-1,-1,-1],"split_conditions":[1.491E3,1.939E3,1.983E3,1.164E3,1.094E3,2E0,1.93E3,-1.5773276E-2,-6.3034007E-3,2.008E3,3E0,5E0,6.8330825E-3,1E0,2.76E2,-2.9485596E-3,-6.874423E-3,-1.8608088E-3,2.5132082E-3,-9.661098E-3,-1.3649535E-3,1.9568475E-3,7.843198E-3,1.1826168E-2,-3.6904146E-3],"split_indices":[20,31,6,20,17,29,20,0,0,44,10,4,0,21,37,0,0,0,0,0,0,0,0,0,0],"split_type":[0,0,0,0,0,0,0,0,0,0,0,0,0,0,0,0,0,0,0,0,0,0,0,0,0],"sum_hessian":[1.669E3,8.9E2,7.79E2,1.39E2,7.51E2,2.15E2,5.64E2,8.6E1,5.3E1,4.47E2,3.04E2,1.75E2,4E1,3.38E2,2.26E2,2.08E2,2.39E2,1.36E2,1.68E2,2.7E1,1.48E2,1.84E2,1.54E2,2.19E2,7E0],"tree_param":{"num_deleted":"0","num_feature":"299","num_nodes":"25","size_leaf_vector":"1"}},{"base_weights":[-1.5604575E-3,-1.047158E-1,6.0498003E-2,-3.1436853E-2,-9.3311764E-2,3.2048766E-2,1.8584755E-1,-2.1578367E-1,-6.9783196E-2,-2.6706673E-2,5.627477E-2,8.590964E-3,1.547667E-2,-1.5651155E-2,-5.675865E-3,-5.2194013E-3,1.1688244E-4,-2.8540622E-3,6.9976593E-3,5.3444305E-3,1.7235862E-3],"categories":[],"categories_nodes":[],"categories_segments":[],"categories_sizes":[],"default_left":[0,0,0,0,0,0,0,0,0,0,0,0,0,0,0,0,0,0,0,0,0],"id":23,"left_children":[1,3,5,-1,7,9,11,13,15,17,19,-1,-1,-1,-1,-1,-1,-1,-1,-1,-1],"loss_changes":[1.087482E1,2.8841214E0,3.7316515E0,0E0,1.7189693E0,1.2449477E0,4.152193E-1,4.6062994E-1,7.3677397E-1,8.226507E-1,5.532466E-1,0E0,0E0,0E0,0E0,0E0,0E0,0E0,0E0,0E0,0E0],"parents":[2147483647,0,0,1,1,2,2,4,4,5,5,6,6,7,7,8,8,9,9,10,10],"right_children":[2,4,6,-1,8,10,12,14,16,18,20,-1,-1,-1,-1,-1,-1,-1,-1,-1,-1],"split_conditions":[6E0,3E0,3E0,-3.1436853E-2,1.921E3,1.979E3,9E0,1.973E3,1E0,1.3615E4,2.008E3,8.590964E-3,1.547667E-2,-1.5651155E-2,-5.675865E-3,-5.2194013E-3,1.1688244E-4,-2.8540622E-3,6.9976593E-3,5.3444305E-3,1.7235862E-3],"split_indices":[3,3,32,0,31,6,3,6,211,1,44,0,0,0,0,0,0,0,0,0,0],"split_type":[0,0,0,0,0,0,0,0,0,0,0,0,0,0,0,0,0,0,0,0,0],"sum_hessian":[1.691E3,6.35E2,1.056E3,1.2E1,6.23E2,8.65E2,1.91E2,9.5E1,5.28E2,2.51E2,6.14E2,1.34E2,5.7E1,6.3E1,3.2E1,4.18E2,1.1E2,2.21E2,3E1,2.63E2,3.51E2],"tree_param":{"num_deleted":"0","num_feature":"299","num_nodes":"21","size_leaf_vector":"1"}},{"base_weights":[-1.4136417E-3,-5.9315965E-2,9.907294E-2,-1.8900426E-1,-3.403677E-2,4.6079E-2,1.5846972E-1,-2.8734124E-1,-1.3112378E-1,-7.612794E-2,5.489578E-3,3.6196172E-2,1.11218495E-2,1.2775683E-1,2.6465222E-1,-1.2612116E-2,-3.0321838E-2,-1.0524578E-2,-4.039386E-3,-5.3993473E-3,3.520559E-4,-4.3035327E-3,1.5886297E-3,-1.4505883E-3,2.8934674E-3,2.627311E-3,8.371601E-3,1.7391812E-2,-0E0],"categories":[],"categories_nodes":[],"categories_segments":[],"categories_sizes":[],"default_left":[0,0,0,0,0,0,0,0,0,0,0,0,0,0,0,0,0,0,0,0,0,0,0,0,0,0,0,0,0],"id":24,"left_children":[1,3,5,7,9,11,13,15,17,19,21,23,-1,25,27,-1,-1,-1,-1,-1,-1,-1,-1,-1,-1,-1,-1,-1,-1],"loss_changes":[9.659674E0,3.4081922E0,1.8593307E0,7.895117E-1,1.4863427E0,4.1136217E-1,7.6019907E-1,5.168009E-1,2.7031457E-1,5.700216E-1,7.805876E-1,2.5359365E-1,0E0,2.3321414E-1,5.1767826E-1,0E0,0E0,0E0,0E0,0E0,0E0,0E0,0E0,0E0,0E0,0E0,0E0,0E0,0E0],"parents":[2147483647,0,0,1,1,2,2,3,3,4,4,5,5,6,6,7,7,8,8,9,9,10,10,11,11,13,13,14,14],"right_children":[2,4,6,8,10,12,14,16,18,20,22,24,-1,26,28,-1,-1,-1,-1,-1,-1,-1,-1,-1,-1,-1,-1,-1,-1],"split_conditions":[7E0,5E0,8E0,1E0,9.116E3,1.6779E4,1.811E3,1E0,3E0,6.97E2,1.96E3,6.373E3,1.11218495E-2,4.95E2,1.154E3,-1.2612116E-2,-3.0321838E-2,-1.0524578E-2,-4.039386E-3,-5.3993473E-3,3.520559E-4,-4.3035327E-3,1.5886297E-3,-1.4505883E-3,2.8934674E-3,2.627311E-3,8.371601E-3,1.7391812E-2,-0E0],"split_indices":[3,3,3,259,1,1,17,293,16,18,6,1,0,33,33,0,0,0,0,0,0,0,0,0,0,0,0,0,0],"split_type":[0,0,0,0,0,0,0,0,0,0,0,0,0,0,0,0,0,0,0,0,0,0,0,0,0,0,0,0,0],"sum_hessian":[1.654E3,1.051E3,6.03E2,1.67E2,8.84E2,3.23E2,2.8E2,5.6E1,1.11E2,4.28E2,4.56E2,3.07E2,1.6E1,2.24E2,5.6E1,4.8E1,8E0,5.8E1,5.3E1,3.6E2,6.8E1,9.5E1,3.61E2,5.2E1,2.55E2,3.7E1,1.87E2,5E1,6E0],"tree_param":{"num_deleted":"0","num_feature":"299","num_nodes":"29","size_leaf_vector":"1"}},{"base_weights":[2.3232338E-3,-6.295951E-2,8.1139654E-2,-1.5091944E-1,-2.4606047E-2,5.2620586E-2,2.0371906E-1,-2.3881364E-1,-1.05324276E-1,-5.2217864E-2,2.365037E-2,-1.7894743E-2,9.2041686E-2,1.626741E-1,2.1017345E-2,-1.7755395E-2,-8.345263E-3,-1.043848E-2,-4.7725416E-3,-6.0345964E-3,-1.7506658E-3,1.1674789E-5,4.236758E-3,-2.3261225E-3,8.615896E-3,8.004924E-3,2.9357662E-3,4.9086716E-3,1.2906387E-2],"categories":[],"categories_nodes":[],"categories_segments":[],"categories_sizes":[],"default_left":[0,0,0,0,0,0,0,0,0,0,0,0,0,0,0,0,0,0,0,0,0,0,0,0,0,0,0,0,0],"id":25,"left_children":[1,3,5,7,9,11,13,15,17,19,21,23,25,27,-1,-1,-1,-1,-1,-1,-1,-1,-1,-1,-1,-1,-1,-1,-1],"loss_changes":[8.687211E0,3.078323E0,2.608293E0,9.8763037E-1,8.7042546E-1,1.7560188E0,6.3575983E-1,3.5861826E-1,2.511754E-1,4.42793E-1,2.6003578E-1,8.154803E-1,7.0427966E-1,4.3863964E-1,0E0,0E0,0E0,0E0,0E0,0E0,0E0,0E0,0E0,0E0,0E0,0E0,0E0,0E0,0E0],"parents":[2147483647,0,0,1,1,2,2,3,3,4,4,5,5,6,6,7,7,8,8,9,9,10,10,11,11,12,12,13,13],"right_children":[2,4,6,8,10,12,14,16,18,20,22,24,26,28,-1,-1,-1,-1,-1,-1,-1,-1,-1,-1,-1,-1,-1,-1,-1],"split_conditions":[1.491E3,1.954E3,2.263E3,1.024E3,1.208E3,3E0,1.368E3,7.61E2,1E0,7.264E3,8.28E2,1E0,1E0,1E0,2.1017345E-2,-1.7755395E-2,-8.345263E-3,-1.043848E-2,-4.7725416E-3,-6.0345964E-3,-1.7506658E-3,1.1674789E-5,4.236758E-3,-2.3261225E-3,8.615896E-3,8.004924E-3,2.9357662E-3,4.9086716E-3,1.2906387E-2],"split_indices":[20,5,20,20,17,10,18,15,119,1,12,95,209,21,0,0,0,0,0,0,0,0,0,0,0,0,0,0,0],"split_type":[0,0,0,0,0,0,0,0,0,0,0,0,0,0,0,0,0,0,0,0,0,0,0,0,0,0,0,0,0],"sum_hessian":[1.681E3,9.19E2,7.62E2,2.75E2,6.44E2,6.23E2,1.39E2,8.8E1,1.87E2,4.11E2,2.33E2,2.23E2,4E2,1.16E2,2.3E1,4.8E1,4E1,4E1,1.47E2,1.21E2,2.9E2,1.61E2,7.2E1,2E2,2.3E1,1.9E2,2.1E2,5.3E1,6.3E1],"tree_param":{"num_deleted":"0","num_feature":"299","num_nodes":"29","size_leaf_vector":"1"}},{"base_weights":[3.3701402E-3,-8.6479105E-2,5.8435246E-2,-6.7134336E-2,-2.4703202E-1,1.22074755E-2,1.3528891E-1,-1.1107636E-1,-2.5529299E-2,-1.9370217E-2,-8.180635E-3,-2.3730159E-2,5.495329E-2,8.501728E-2,1.877893E-1,-5.539328E-3,-1.3643656E-2,-3.070247E-3,-0E0,-3.454653E-3,3.670944E-4,1.1056821E-3,4.6524634E-3,5.745883E-3,-1.7178144E-3,1.1507494E-2,-2.7566988E-3],"categories":[],"categories_nodes":[],"categories_segments":[],"categories_sizes":[],"default_left":[0,0,0,0,0,0,0,0,0,0,0,0,0,0,0,0,0,0,0,0,0,0,0,0,0,0,0],"id":26,"left_children":[1,3,5,7,9,11,13,15,17,-1,-1,19,21,23,25,-1,-1,-1,-1,-1,-1,-1,-1,-1,-1,-1,-1],"loss_changes":[8.293939E0,1.8818231E0,3.6733696E0,1.0223806E0,3.7654305E-1,1.01365E0,9.400096E-1,4.4818497E-1,2.0941576E-1,0E0,0E0,3.82091E-1,2.4699825E-1,3.1893075E-1,4.0063047E-1,0E0,0E0,0E0,0E0,0E0,0E0,0E0,0E0,0E0,0E0,0E0,0E0],"parents":[2147483647,0,0,1,1,2,2,3,3,4,4,5,5,6,6,7,7,8,8,11,11,12,12,13,13,14,14],"right_children":[2,4,6,8,10,12,14,16,18,-1,-1,20,22,24,26,-1,-1,-1,-1,-1,-1,-1,-1,-1,-1,-1,-1],"split_conditions":[6E0,1E0,1.74E3,8.94E2,1.929E3,1.217E3,1.32E3,1E0,7.2E1,-1.9370217E-2,-8.180635E-3,6.1E1,1.997E3,1E0,2.87E2,-5.539328E-3,-1.3643656E-2,-3.070247E-3,-0E0,-3.454653E-3,3.670944E-4,1.1056821E-3,4.6524634E-3,5.745883E-3,-1.7178144E-3,1.1507494E-2,-2.7566988E-3],"split_indices":[3,46,20,15,31,17,17,293,0,0,0,0,31,67,37,0,0,0,0,0,0,0,0,0,0,0,0],"split_type":[0,0,0,0,0,0,0,0,0,0,0,0,0,0,0,0,0,0,0,0,0,0,0,0,0,0,0],"sum_hessian":[1.67E3,6.33E2,1.037E3,5.7E2,6.3E1,6.51E2,3.86E2,2.73E2,2.97E2,3.1E1,3.2E1,3.53E2,2.98E2,2.03E2,1.83E2,2.46E2,2.7E1,1.45E2,1.52E2,1.63E2,1.9E2,1.24E2,1.74E2,1.84E2,1.9E1,1.78E2,5E0],"tree_param":{"num_deleted":"0","num_feature":"299","num_nodes":"27","size_leaf_vector":"1"}},{"base_weights":[2.3973065E-3,-4.9515948E-2,8.164338E-2,-3.1709656E-1,-3.7438408E-2,4.6781734E-2,1.5875265E-1,-6.561143E-3,-2.180618E-2,-7.866478E-2,2.440605E-2,6.6821894E-4,4.3351017E-3,7.1994793E-3,1.4457333E-2,-3.6686393E-3,-1.0075004E-2,-1.1509655E-3,5.0718556E-3],"categories":[],"categories_nodes":[],"categories_segments":[],"categories_sizes":[],"default_left":[0,0,0,0,0,0,0,0,0,0,0,0,0,0,0,0,0,0,0],"id":27,"left_children":[1,3,5,7,9,11,13,-1,-1,15,17,-1,-1,-1,-1,-1,-1,-1,-1],"loss_changes":[7.005319E0,3.2371635E0,1.762887E0,2.8048944E-1,2.5308292E0,4.3654478E-1,5.075402E-1,0E0,0E0,8.3064103E-1,1.0933467E0,0E0,0E0,0E0,0E0,0E0,0E0,0E0,0E0],"parents":[2147483647,0,0,1,1,2,2,3,3,4,4,5,5,6,6,9,9,10,10],"right_children":[2,4,6,8,10,12,14,-1,-1,16,18,-1,-1,-1,-1,-1,-1,-1,-1],"split_conditions":[1.984E3,4E0,1.98E2,1E0,1E0,4.97E2,1.3518E4,-6.561143E-3,-2.180618E-2,1E0,1.1275E4,6.6821894E-4,4.3351017E-3,7.1994793E-3,1.4457333E-2,-3.6686393E-3,-1.0075004E-2,-1.1509655E-3,5.0718556E-3],"split_indices":[5,4,7,76,30,33,1,0,0,231,1,0,0,0,0,0,0,0,0],"split_type":[0,0,0,0,0,0,0,0,0,0,0,0,0,0,0,0,0,0,0],"sum_hessian":[1.695E3,1.024E3,6.71E2,4E1,9.84E2,4.67E2,2.04E2,1.1E1,2.9E1,5.91E2,3.93E2,2.06E2,2.61E2,1.51E2,5.3E1,5.09E2,8.2E1,2.3E2,1.63E2],"tree_param":{"num_deleted":"0","num_feature":"299","num_nodes":"19","size_leaf_vector":"1"}},{"base_weights":[1.5405933E-3,-7.282598E-2,5.4797698E-2,-5.1403113E-2,-2.4952663E-1,3.3371374E-2,1.8076599E-1,-1.06754735E-1,-2.1899896E-2,-1.08853085E-2,-3.3093274E-2,-4.8226655E-5,8.5472964E-2,1.1335831E-1,2.4705832E-1,-7.7300724E-3,-2.5995825E-3,-5.4235933E-3,-4.3883873E-4,-9.452121E-3,5.785577E-4,-2.244987E-3,5.915557E-3,-2.4013391E-3,8.09786E-3,4.74415E-3,1.6456172E-2],"categories":[],"categories_nodes":[],"categories_segments":[],"categories_sizes":[],"default_left":[0,0,0,0,0,0,0,0,0,0,0,0,0,0,0,0,0,0,0,0,0,0,0,0,0,0,0],"id":28,"left_children":[1,3,5,7,9,11,13,15,17,-1,-1,19,21,23,25,-1,-1,-1,-1,-1,-1,-1,-1,-1,-1,-1,-1],"loss_changes":[6.5881915E0,2.544792E0,2.572979E0,9.9478924E-1,1.0297546E0,1.4631528E0,4.8302317E-1,2.9117084E-1,4.0480775E-1,0E0,0E0,8.3540326E-1,6.3579273E-1,3.1929284E-1,2.4294424E-1,0E0,0E0,0E0,0E0,0E0,0E0,0E0,0E0,0E0,0E0,0E0,0E0],"parents":[2147483647,0,0,1,1,2,2,3,3,4,4,5,5,6,6,7,7,8,8,11,11,12,12,13,13,14,14],"right_children":[2,4,6,8,10,12,14,16,18,-1,-1,20,22,24,26,-1,-1,-1,-1,-1,-1,-1,-1,-1,-1,-1,-1],"split_conditions":[1.35E3,1E0,2.263E3,9.12E2,1E0,1E0,3E0,7E0,1.954E3,-1.08853085E-2,-3.3093274E-2,5E0,1.961E3,1E0,1.236E3,-7.7300724E-3,-2.5995825E-3,-5.4235933E-3,-4.3883873E-4,-9.452121E-3,5.785577E-4,-2.244987E-3,5.915557E-3,-2.4013391E-3,8.09786E-3,4.74415E-3,1.6456172E-2],"split_indices":[20,257,20,17,293,21,32,4,5,0,0,4,6,245,17,0,0,0,0,0,0,0,0,0,0,0,0],"split_type":[0,0,0,0,0,0,0,0,0,0,0,0,0,0,0,0,0,0,0,0,0,0,0,0,0,0,0],"sum_hessian":[1.657E3,6.9E2,9.67E2,6.2E2,7E1,8.31E2,1.36E2,2.11E2,4.09E2,6.3E1,7E0,5.07E2,3.24E2,7.3E1,6.3E1,1.47E2,6.4E1,6.5E1,3.44E2,2.7E1,4.8E2,3.4E1,2.9E2,9E0,6.4E1,1.3E1,5E1],"tree_param":{"num_deleted":"0","num_feature":"299","num_nodes":"27","size_leaf_vector":"1"}},{"base_weights":[-3.350762E-4,-7.761704E-2,4.8954066E-2,-2.5807729E-2,-6.730227E-2,1.8909877E-2,1.2690233E-1,-1.2659715E-1,-3.441486E-2,-3.4636274E-2,4.6996117E-2,9.382096E-2,1.929098E-1,-1.5741834E-2,-6.2618586E-3,-8.023135E-3,-1.3765913E-3,-4.921543E-4,-5.2038296E-3,1.7193074E-3,6.306139E-3,2.1952868E-3,7.045099E-3,1.2350675E-2,-2.829581E-3],"categories":[],"categories_nodes":[],"categories_segments":[],"categories_sizes":[],"default_left":[0,0,0,0,0,0,0,0,0,0,0,0,0,0,0,0,0,0,0,0,0,0,0,0,0],"id":29,"left_children":[1,3,5,-1,7,9,11,13,15,17,19,21,23,-1,-1,-1,-1,-1,-1,-1,-1,-1,-1,-1,-1],"loss_changes":[6.494051E0,2.314888E0,2.4087183E0,0E0,1.2342196E0,1.1433146E0,5.307245E-1,5.0607085E-1,4.462803E-1,3.5472354E-1,5.062108E-1,2.5927377E-1,4.3477774E-1,0E0,0E0,0E0,0E0,0E0,0E0,0E0,0E0,0E0,0E0,0E0,0E0],"parents":[2147483647,0,0,1,1,2,2,4,4,5,5,6,6,7,7,8,8,9,9,10,10,11,11,12,12],"right_children":[2,4,6,-1,8,10,12,14,16,18,20,22,24,-1,-1,-1,-1,-1,-1,-1,-1,-1,-1,-1,-1],"split_conditions":[6E0,3E0,1.419E3,-2.5807729E-2,2.7E1,2E0,1.3355E4,4E0,5.232E3,1E0,1.2099E4,2.01E2,1E0,-1.5741834E-2,-6.2618586E-3,-8.023135E-3,-1.3765913E-3,-4.921543E-4,-5.2038296E-3,1.7193074E-3,6.306139E-3,2.1952868E-3,7.045099E-3,1.2350675E-2,-2.829581E-3],"split_indices":[3,3,15,0,12,23,1,4,1,67,1,12,77,0,0,0,0,0,0,0,0,0,0,0,0],"split_type":[0,0,0,0,0,0,0,0,0,0,0,0,0,0,0,0,0,0,0,0,0,0,0,0,0],"sum_hessian":[1.697E3,6.61E2,1.036E3,1.4E1,6.47E2,7.52E2,2.84E2,2.26E2,4.21E2,2.57E2,4.95E2,1.96E2,8.8E1,2.2E1,2.04E2,3.6E1,3.85E2,1.77E2,8E1,3.88E2,1.07E2,6.6E1,1.3E2,8.3E1,5E0],"tree_param":{"num_deleted":"0","num_feature":"299","num_nodes":"25","size_leaf_vector":"1"}},{"base_weights":[8.6437335E-4,-5.0888855E-2,6.479885E-2,-1.2173669E-1,-2.4091057E-2,4.4331033E-2,2.135657E-1,-9.939412E-2,-2.901769E-1,-9.910491E-3,-1.7560959E-2,-2.434306E-3,6.078284E-2,2.3100138E-1,-4.2023687E-3,-8.391947E-3,-3.012371E-3,-6.9766804E-3,-2.3939056E-2,2.170685E-3,-1.9753696E-3,3.0569523E-3,1.1039505E-2,1.045846E-2,2.0518897E-2],"categories":[],"categories_nodes":[],"categories_segments":[],"categories_sizes":[],"default_left":[0,0,0,0,0,0,0,0,0,0,0,0,0,0,0,0,0,0,0,0,0,0,0,0,0],"id":30,"left_children":[1,3,5,7,9,11,13,15,17,-1,19,-1,21,23,-1,-1,-1,-1,-1,-1,-1,-1,-1,-1,-1],"loss_changes":[5.626487E0,1.7542739E0,2.2551215E0,8.148415E-1,6.1557806E-1,9.626168E-1,5.2618694E-1,4.351151E-1,3.213296E-1,0E0,5.82566E-1,0E0,5.7076454E-1,2.6304626E-1,0E0,0E0,0E0,0E0,0E0,0E0,0E0,0E0,0E0,0E0,0E0],"parents":[2147483647,0,0,1,1,2,2,3,3,4,4,5,5,6,6,7,7,8,8,10,10,12,12,13,13],"right_children":[2,4,6,8,10,12,14,16,18,-1,20,-1,22,24,-1,-1,-1,-1,-1,-1,-1,-1,-1,-1,-1],"split_conditions":[3E0,1E0,9E0,1E0,4E0,6.24E3,2.62E2,3.31E2,5.9E1,-9.910491E-3,2.007E3,-2.434306E-3,1.7227E4,1.4828E4,-4.2023687E-3,-8.391947E-3,-3.012371E-3,-6.9766804E-3,-2.3939056E-2,2.170685E-3,-1.9753696E-3,3.0569523E-3,1.1039505E-2,1.045846E-2,2.0518897E-2],"split_indices":[27,66,3,293,4,1,37,33,0,0,44,0,1,1,0,0,0,0,0,0,0,0,0,0,0],"split_type":[0,0,0,0,0,0,0,0,0,0,0,0,0,0,0,0,0,0,0,0,0,0,0,0,0],"sum_hessian":[1.693E3,9.35E2,7.58E2,2.52E2,6.83E2,6.71E2,8.7E1,2.28E2,2.4E1,2.5E1,6.58E2,1.06E2,5.65E2,8.3E1,4E0,1.15E2,1.13E2,1.3E1,1.1E1,1.47E2,5.11E2,5.34E2,3.1E1,6.4E1,1.9E1],"tree_param":{"num_deleted":"0","num_feature":"299","num_nodes":"25","size_leaf_vector":"1"}},{"base_weights":[5.2297264E-3,-4.763284E-2,6.7448325E-2,-1.7028123E-1,-3.106579E-2,3.9009787E-2,1.5255652E-1,-2.1772793E-1,-3.499374E-3,-7.077708E-2,-3.5850478E-3,1.8149614E-2,1.1480132E-1,6.564342E-3,1.2579282E-2,-1.3965014E-2,-1.7413128E-3,-7.907381E-3,-2.6161151E-3,-1.2607987E-3,2.9848316E-3,1.7094181E-3,-5.463347E-3,-3.2502771E-3,7.5903484E-3],"categories":[],"categories_nodes":[],"categories_segments":[],"categories_sizes":[],"default_left":[0,0,0,0,0,0,0,0,0,0,0,0,0,0,0,0,0,0,0,0,0,0,0,0,0],"id":31,"left_children":[1,3,5,7,9,11,13,15,-1,17,19,21,23,-1,-1,-1,-1,-1,-1,-1,-1,-1,-1,-1,-1],"loss_changes":[5.5341315E0,1.8036778E0,1.8286686E0,4.8145223E-1,8.69324E-1,9.026494E-1,3.591957E-1,2.1508193E-1,0E0,5.0638366E-1,4.6811917E-1,5.6633055E-1,3.375945E-1,0E0,0E0,0E0,0E0,0E0,0E0,0E0,0E0,0E0,0E0,0E0,0E0],"parents":[2147483647,0,0,1,1,2,2,3,3,4,4,5,5,6,6,7,7,9,9,10,10,11,11,12,12],"right_children":[2,4,6,8,10,12,14,16,-1,18,20,22,24,-1,-1,-1,-1,-1,-1,-1,-1,-1,-1,-1,-1],"split_conditions":[1.488E3,2E0,8.72E2,1.155E3,3E0,2.122E3,2.028E3,1E0,-3.499374E-3,1.7E2,7.05E2,2E0,5E0,6.564342E-3,1.2579282E-2,-1.3965014E-2,-1.7413128E-3,-7.907381E-3,-2.6161151E-3,-1.2607987E-3,2.9848316E-3,1.7094181E-3,-5.463347E-3,-3.2502771E-3,7.5903484E-3],"split_indices":[20,35,12,20,16,20,20,211,0,12,12,26,4,0,0,0,0,0,0,0,0,0,0,0,0],"split_type":[0,0,0,0,0,0,0,0,0,0,0,0,0,0,0,0,0,0,0,0,0,0,0,0,0],"sum_hessian":[1.675E3,9.05E2,7.7E2,1.03E2,8.02E2,5.82E2,1.88E2,6.9E1,3.4E1,3.24E2,4.78E2,4.61E2,1.21E2,1.2E2,6.8E1,6.1E1,8E0,8.9E1,2.35E2,3.63E2,1.15E2,4.23E2,3.8E1,8E0,1.13E2],"tree_param":{"num_deleted":"0","num_feature":"299","num_nodes":"25","size_leaf_vector":"1"}},{"base_weights":[-3.9125904E-3,-6.132923E-2,4.0210817E-2,-1.9872518E-1,-3.9297502E-2,2.211366E-2,1.4050633E-1,-2.6391798E-1,-5.1026745E-3,-5.2448895E-2,6.2157564E-2,-3.612897E-2,3.903686E-2,1.1674174E-2,5.073082E-3,-1.0956939E-2,-2.5828391E-2,-8.252478E-3,-2.2678033E-3,1.0922442E-2,1.6527559E-3,-1.2867489E-3,-9.36307E-3,3.722846E-4,3.970215E-3],"categories":[],"categories_nodes":[],"categories_segments":[],"categories_sizes":[],"default_left":[0,0,0,0,0,0,0,0,0,0,0,0,0,0,0,0,0,0,0,0,0,0,0,0,0],"id":32,"left_children":[1,3,5,7,9,11,13,15,-1,17,19,21,23,-1,-1,-1,-1,-1,-1,-1,-1,-1,-1,-1,-1],"loss_changes":[4.2608604E0,2.1588392E0,1.6932766E0,6.04342E-1,8.5811645E-1,8.0312675E-1,3.584931E-1,4.6312666E-1,0E0,6.494336E-1,2.6579627E-1,2.8635597E-1,5.777695E-1,0E0,0E0,0E0,0E0,0E0,0E0,0E0,0E0,0E0,0E0,0E0,0E0],"parents":[2147483647,0,0,1,1,2,2,3,3,4,4,5,5,6,6,7,7,9,9,10,10,11,11,12,12],"right_children":[2,4,6,8,10,12,14,16,-1,18,20,22,24,-1,-1,-1,-1,-1,-1,-1,-1,-1,-1,-1,-1],"split_conditions":[1.981E3,2E0,4E0,8.6E2,2E0,7.65E2,2.008E3,1E0,-5.1026745E-3,1E0,1E0,1E0,2E0,1.1674174E-2,5.073082E-3,-1.0956939E-2,-2.5828391E-2,-8.252478E-3,-2.2678033E-3,1.0922442E-2,1.6527559E-3,-1.2867489E-3,-9.36307E-3,3.722846E-4,3.970215E-3],"split_indices":[6,35,10,15,29,15,44,293,0,297,86,46,30,0,0,0,0,0,0,0,0,0,0,0,0],"split_type":[0,0,0,0,0,0,0,0,0,0,0,0,0,0,0,0,0,0,0,0,0,0,0,0,0],"sum_hessian":[1.674E3,7.28E2,9.46E2,9.6E1,6.32E2,8.06E2,1.4E2,5.7E1,3.9E1,5.62E2,7E1,1.79E2,6.27E2,6.2E1,7.8E1,4.5E1,1.2E1,7.1E1,4.91E2,1.1E1,5.9E1,1.65E2,1.4E1,2.96E2,3.31E2],"tree_param":{"num_deleted":"0","num_feature":"299","num_nodes":"25","size_leaf_vector":"1"}},{"base_weights":[1.8520502E-3,-6.443549E-2,4.2445388E-2,-1.490416E-1,-3.2416902E-2,1.5497139E-2,1.08546354E-1,-3.2467586E-1,-6.762031E-3,-9.873297E-3,-2.4767222E-2,5.006644E-3,6.7849266E-3,8.325851E-2,1.5990022E-1,-2.4621017E-2,-2.3083645E-3,-2.2212425E-3,2.5059516E-3,-3.119808E-3,1.1281907E-3,3.9781756E-3,9.771989E-3,1.052159E-2,-7.491366E-3],"categories":[],"categories_nodes":[],"categories_segments":[],"categories_sizes":[],"default_left":[0,0,0,0,0,0,0,0,0,0,0,0,0,0,0,0,0,0,0,0,0,0,0,0,0],"id":33,"left_children":[1,3,5,7,9,11,13,15,-1,-1,17,19,-1,21,23,-1,-1,-1,-1,-1,-1,-1,-1,-1,-1],"loss_changes":[4.507294E0,1.6831686E0,1.8328586E0,8.4715414E-1,4.4648734E-1,7.6434827E-1,3.1372404E-1,5.7398796E-1,0E0,0E0,3.9716494E-1,5.5884546E-1,0E0,2.0378757E-1,5.996008E-1,0E0,0E0,0E0,0E0,0E0,0E0,0E0,0E0,0E0,0E0],"parents":[2147483647,0,0,1,1,2,2,3,3,4,4,5,5,6,6,7,7,10,10,11,11,13,13,14,14],"right_children":[2,4,6,8,10,12,14,16,-1,-1,18,20,-1,22,24,-1,-1,-1,-1,-1,-1,-1,-1,-1,-1],"split_conditions":[6E0,1E0,8E0,1E0,4E0,9.88E2,9E0,5.05E2,-6.762031E-3,-9.873297E-3,1.3159E4,6.6E3,6.7849266E-3,1E0,2.3257E4,-2.4621017E-2,-2.3083645E-3,-2.2212425E-3,2.5059516E-3,-3.119808E-3,1.1281907E-3,3.9781756E-3,9.771989E-3,1.052159E-2,-7.491366E-3],"split_indices":[3,66,3,297,4,18,3,18,0,0,1,1,0,78,1,0,0,0,0,0,0,0,0,0,0],"split_type":[0,0,0,0,0,0,0,0,0,0,0,0,0,0,0,0,0,0,0,0,0,0,0,0,0],"sum_hessian":[1.669E3,6.32E2,1.037E3,1.69E2,4.63E2,7.41E2,2.96E2,2.2E1,1.47E2,2E1,4.43E2,6.75E2,6.6E1,2.06E2,9E1,1.5E1,7E0,3.74E2,6.9E1,1.29E2,5.46E2,1.8E2,2.6E1,8.6E1,4E0],"tree_param":{"num_deleted":"0","num_feature":"299","num_nodes":"25","size_leaf_vector":"1"}},{"base_weights":[-4.537721E-3,-4.3669112E-2,4.6010647E-2,-1.5528129E-1,-2.7900338E-2,2.6254782E-2,1.3433602E-1,-2.2540282E-1,-4.9785073E-3,-5.8700826E-2,-4.074805E-3,1.3260502E-2,7.4966867E-3,9.905458E-2,1.4674186E-2,-1.4829719E-2,6.052553E-4,-5.1619294E-3,-1.4588517E-3,-6.6783343E-4,3.4109738E-3,-1.8882041E-3,1.9045381E-3,6.9741933E-3,-5.224955E-3],"categories":[],"categories_nodes":[],"categories_segments":[],"categories_sizes":[],"default_left":[0,0,0,0,0,0,0,0,0,0,0,0,0,0,0,0,0,0,0,0,0,0,0,0,0],"id":34,"left_children":[1,3,5,7,9,11,13,15,-1,17,19,21,-1,23,-1,-1,-1,-1,-1,-1,-1,-1,-1,-1,-1],"loss_changes":[3.2892268E0,1.6149175E0,1.232865E0,4.632349E-1,5.989662E-1,7.639531E-1,4.035697E-1,3.8364792E-1,0E0,3.3286226E-1,2.1068299E-1,4.6815947E-1,0E0,4.3290412E-1,0E0,0E0,0E0,0E0,0E0,0E0,0E0,0E0,0E0,0E0,0E0],"parents":[2147483647,0,0,1,1,2,2,3,3,4,4,5,5,6,6,7,7,9,9,10,10,11,11,13,13],"right_children":[2,4,6,8,10,12,14,16,-1,18,20,22,-1,24,-1,-1,-1,-1,-1,-1,-1,-1,-1,-1,-1],"split_conditions":[1.498E3,1E0,2.263E3,2E0,9.12E2,1E0,1.368E3,1.13E2,-4.9785073E-3,1.146E3,1E0,1.979E3,7.4966867E-3,2.872E3,1.4674186E-2,-1.4829719E-2,6.052553E-4,-5.1619294E-3,-1.4588517E-3,-6.6783343E-4,3.4109738E-3,-1.8882041E-3,1.9045381E-3,6.9741933E-3,-5.224955E-3],"split_indices":[20,259,20,35,15,207,18,36,0,20,207,6,0,20,0,0,0,0,0,0,0,0,0,0,0],"split_type":[0,0,0,0,0,0,0,0,0,0,0,0,0,0,0,0,0,0,0,0,0,0,0,0,0],"sum_hessian":[1.656E3,9.35E2,7.21E2,1.11E2,8.24E2,5.94E2,1.27E2,5.1E1,6E1,3.55E2,4.69E2,5.31E2,6.3E1,1.03E2,2.4E1,4.6E1,5E0,1.86E2,1.69E2,4.24E2,4.5E1,1.55E2,3.76E2,9.5E1,8E0],"tree_param":{"num_deleted":"0","num_feature":"299","num_nodes":"25","size_leaf_vector":"1"}},{"base_weights":[-9.3320134E-4,-4.3709468E-2,4.8675716E-2,-1.4193605E-1,-2.6459405E-2,3.1693913E-2,1.3859008E-1,-1.0327504E-1,-3.0430853E-1,5.7757883E-3,-5.2255962E-2,8.724337E-3,6.705932E-2,-0E0,8.815073E-3,-8.186456E-3,-0E0,-2.4488842E-2,-4.672328E-3,2.2639537E-3,-8.098892E-4,-3.846408E-3,3.3470287E-4,-1.6251835E-3,1.3701359E-3,3.3910158E-3,1.4183566E-2],"categories":[],"categories_nodes":[],"categories_segments":[],"categories_sizes":[],"default_left":[0,0,0,0,0,0,0,0,0,0,0,0,0,0,0,0,0,0,0,0,0,0,0,0,0,0,0],"id":35,"left_children":[1,3,5,7,9,11,13,15,17,19,21,23,25,-1,-1,-1,-1,-1,-1,-1,-1,-1,-1,-1,-1,-1,-1],"loss_changes":[3.6005383E0,1.5130862E0,1.1623524E0,6.8643475E-1,6.564079E-1,5.29572E-1,2.0064831E-1,4.3768454E-1,4.1910934E-1,2.2795892E-1,3.421086E-1,2.1906106E-1,3.3928263E-1,0E0,0E0,0E0,0E0,0E0,0E0,0E0,0E0,0E0,0E0,0E0,0E0,0E0,0E0],"parents":[2147483647,0,0,1,1,2,2,3,3,4,4,5,5,6,6,7,7,8,8,9,9,10,10,11,11,12,12],"right_children":[2,4,6,8,10,12,14,16,18,20,22,24,26,-1,-1,-1,-1,-1,-1,-1,-1,-1,-1,-1,-1,-1,-1],"split_conditions":[3E0,2E0,4E0,1E0,2.008E3,1.0382E4,2E0,1.014E4,1E0,1E0,6.76E2,6.24E3,1.368E3,-0E0,8.815073E-3,-8.186456E-3,-0E0,-2.4488842E-2,-4.672328E-3,2.2639537E-3,-8.098892E-4,-3.846408E-3,3.3470287E-4,-1.6251835E-3,1.3701359E-3,3.3910158E-3,1.4183566E-2],"split_indices":[27,35,27,293,44,1,32,1,66,256,18,1,18,0,0,0,0,0,0,0,0,0,0,0,0,0,0],"split_type":[0,0,0,0,0,0,0,0,0,0,0,0,0,0,0,0,0,0,0,0,0,0,0,0,0,0,0],"sum_hessian":[1.69E3,9.09E2,7.81E2,1.31E2,7.78E2,6.62E2,1.19E2,1.11E2,2E1,3.45E2,4.33E2,4.06E2,2.56E2,9E0,1.1E2,8.2E1,2.9E1,1.1E1,9E0,1.3E2,2.15E2,3.54E2,7.9E1,1.13E2,2.93E2,2.48E2,8E0],"tree_param":{"num_deleted":"0","num_feature":"299","num_nodes":"27","size_leaf_vector":"1"}},{"base_weights":[-1.04369676E-4,-6.0247127E-2,3.6239028E-2,-2.1530181E-2,-5.251029E-2,1.9841861E-2,1.4263001E-1,-1.0032391E-1,-2.6227966E-2,-0E0,4.3627983E-3,5.383217E-3,1.1725405E-2,-6.2697623E-3,3.7927642E-3,-2.9431412E-3,6.0158555E-4,2.0581142E-3,-1.543976E-3],"categories":[],"categories_nodes":[],"categories_segments":[],"categories_sizes":[],"default_left":[0,0,0,0,0,0,0,0,0,0,0,0,0,0,0,0,0,0,0],"id":36,"left_children":[1,3,5,-1,7,9,11,13,15,17,-1,-1,-1,-1,-1,-1,-1,-1,-1],"loss_changes":[3.6311798E0,1.367038E0,1.7738099E0,0E0,7.4928486E-1,9.7630394E-1,2.9804015E-1,2.5494814E-1,3.5743436E-1,6.1220366E-1,0E0,0E0,0E0,0E0,0E0,0E0,0E0,0E0,0E0],"parents":[2147483647,0,0,1,1,2,2,4,4,5,5,6,6,7,7,8,8,9,9],"right_children":[2,4,6,-1,8,10,12,14,16,18,-1,-1,-1,-1,-1,-1,-1,-1,-1],"split_conditions":[6E0,3E0,2.263E3,-2.1530181E-2,1.6E1,7.73E2,1.502E3,1E0,1.06E3,2.008E3,4.3627983E-3,5.383217E-3,1.1725405E-2,-6.2697623E-3,3.7927642E-3,-2.9431412E-3,6.0158555E-4,2.0581142E-3,-1.543976E-3],"split_indices":[3,3,20,0,12,12,17,249,17,44,0,0,0,0,0,0,0,0,0],"split_type":[0,0,0,0,0,0,0,0,0,0,0,0,0,0,0,0,0,0,0],"sum_hessian":[1.653E3,6.23E2,1.03E3,1.1E1,6.12E2,8.97E2,1.33E2,2.12E2,4E2,6.59E2,2.38E2,7.6E1,5.7E1,2.06E2,6E0,2.43E2,1.57E2,2.81E2,3.78E2],"tree_param":{"num_deleted":"0","num_feature":"299","num_nodes":"19","size_leaf_vector":"1"}},{"base_weights":[-3.1947703E-3,-4.2328E-2,4.2730942E-2,-3.8127306E-1,-3.619093E-2,2.9038142E-3,7.500296E-2,-2.6980313E-2,-4.028266E-3,-9.8241314E-2,-1.8900035E-2,-2.1347875E-2,6.051401E-2,1.1368814E-1,4.3685608E-2,-9.237681E-3,-3.6290647E-3,-7.5465553E-3,-7.167595E-4,-3.5765276E-3,1.9381961E-4,-8.529611E-4,5.256029E-3,5.183708E-3,1.146432E-2,-7.477715E-3,2.9178683E-3],"categories":[],"categories_nodes":[],"categories_segments":[],"categories_sizes":[],"default_left":[0,0,0,0,0,0,0,0,0,0,0,0,0,0,0,0,0,0,0,0,0,0,0,0,0,0,0],"id":37,"left_children":[1,3,5,7,9,11,13,-1,-1,15,17,19,21,23,25,-1,-1,-1,-1,-1,-1,-1,-1,-1,-1,-1,-1],"loss_changes":[3.0264547E0,1.7963806E0,9.841682E-1,2.0465374E-1,9.436383E-1,5.0021523E-1,4.795289E-1,0E0,0E0,3.5640395E-1,4.9800584E-1,2.4948019E-1,2.4445993E-1,2.9325342E-1,2.6000407E-1,0E0,0E0,0E0,0E0,0E0,0E0,0E0,0E0,0E0,0E0,0E0,0E0],"parents":[2147483647,0,0,1,1,2,2,3,3,4,4,5,5,6,6,9,9,10,10,11,11,12,12,13,13,14,14],"right_children":[2,4,6,8,10,12,14,-1,-1,16,18,20,22,24,26,-1,-1,-1,-1,-1,-1,-1,-1,-1,-1,-1,-1],"split_conditions":[1.488E3,3E0,2.82E2,1E0,1.947E3,8.05E1,2.008E3,-2.6980313E-2,-4.028266E-3,1.024E3,2.2E1,1.99E3,3.1E1,1.766E3,1.918E3,-9.237681E-3,-3.6290647E-3,-7.5465553E-3,-7.167595E-4,-3.5765276E-3,1.9381961E-4,-8.529611E-4,5.256029E-3,5.183708E-3,1.146432E-2,-7.477715E-3,2.9178683E-3],"split_indices":[20,3,12,175,5,0,44,0,0,20,0,6,37,17,5,0,0,0,0,0,0,0,0,0,0,0,0],"split_type":[0,0,0,0,0,0,0,0,0,0,0,0,0,0,0,0,0,0,0,0,0,0,0,0,0,0,0],"sum_hessian":[1.677E3,9.07E2,7.7E2,1.2E1,8.95E2,3.48E2,4.22E2,8E0,4E0,1.9E2,7.05E2,2.45E2,1.03E2,1.83E2,2.39E2,6.7E1,1.23E2,3.6E1,6.69E2,9.4E1,1.51E2,2.8E1,7.5E1,1.46E2,3.7E1,5E0,2.34E2],"tree_param":{"num_deleted":"0","num_feature":"299","num_nodes":"27","size_leaf_vector":"1"}},{"base_weights":[-1.1848446E-3,-5.1837638E-2,2.8336376E-2,-1.4872153E-1,-2.936461E-2,5.6350003E-3,6.98871E-2,-6.5658437E-3,-3.57275E-1,-5.5822954E-2,-2.4665745E-3,3.2209404E-2,-1.4025097E-2,9.923793E-2,2.4482477E-3,-2.7169557E-2,-8.198681E-4,-1.1413561E-3,-4.852395E-3,-6.9289347E-3,3.081975E-4,-3.2685844E-3,2.4054768E-3,-3.9575007E-3,-1.5928199E-4,6.404049E-3,-2.3894864E-3],"categories":[],"categories_nodes":[],"categories_segments":[],"categories_sizes":[],"default_left":[0,0,0,0,0,0,0,0,0,0,0,0,0,0,0,0,0,0,0,0,0,0,0,0,0,0,0],"id":38,"left_children":[1,3,5,7,9,11,13,-1,15,17,19,21,23,25,-1,-1,-1,-1,-1,-1,-1,-1,-1,-1,-1,-1,-1],"loss_changes":[2.5491946E0,1.3320626E0,1.0031939E0,7.0418E-1,3.594704E-1,3.6970013E-1,2.8165495E-1,0E0,4.7944927E-1,2.3299819E-1,2.4824919E-1,2.3712379E-1,2.3385906E-1,2.6925015E-1,0E0,0E0,0E0,0E0,0E0,0E0,0E0,0E0,0E0,0E0,0E0,0E0,0E0],"parents":[2147483647,0,0,1,1,2,2,3,3,4,4,5,5,6,6,8,8,9,9,10,10,11,11,12,12,13,13],"right_children":[2,4,6,8,10,12,14,-1,16,18,20,22,24,26,-1,-1,-1,-1,-1,-1,-1,-1,-1,-1,-1,-1,-1],"split_conditions":[6E0,1E0,1.74E3,1E0,6.9E1,2.008E3,2.008E3,-6.5658437E-3,7E0,2.008E3,2E0,3.4E1,1.146E3,1E0,2.4482477E-3,-2.7169557E-2,-8.198681E-4,-1.1413561E-3,-4.852395E-3,-6.9289347E-3,3.081975E-4,-3.2685844E-3,2.4054768E-3,-3.9575007E-3,-1.5928199E-4,6.404049E-3,-2.3894864E-3],"split_indices":[3,259,20,293,0,44,44,0,28,44,10,0,20,109,0,0,0,0,0,0,0,0,0,0,0,0,0],"split_type":[0,0,0,0,0,0,0,0,0,0,0,0,0,0,0,0,0,0,0,0,0,0,0,0,0,0,0],"sum_hessian":[1.696E3,6.25E2,1.071E3,1.13E2,5.12E2,6.97E2,3.74E2,1.01E2,1.2E1,2.54E2,2.58E2,2.98E2,3.99E2,1.77E2,1.97E2,8E0,4E0,1.12E2,1.42E2,1.4E1,2.44E2,2.4E1,2.74E2,6.5E1,3.34E2,1.67E2,1E1],"tree_param":{"num_deleted":"0","num_feature":"299","num_nodes":"27","size_leaf_vector":"1"}},{"base_weights":[-2.1012765E-3,-6.0196534E-2,2.8878035E-2,-1.300553E-1,-3.1434122E-2,1.1549012E-2,1.0081319E-1,-2.0660719E-2,-1.0687219E-1,-9.4159255E-3,-2.5148334E-2,-6.408477E-3,1.8805884E-2,4.591962E-3,9.847685E-3,-7.6442915E-3,-1.7896511E-3,-5.972812E-3,-1.0181909E-3,7.470953E-4,8.717604E-3],"categories":[],"categories_nodes":[],"categories_segments":[],"categories_sizes":[],"default_left":[0,0,0,0,0,0,0,0,0,0,0,0,0,0,0,0,0,0,0,0,0],"id":39,"left_children":[1,3,5,7,9,11,13,-1,15,-1,17,-1,19,-1,-1,-1,-1,-1,-1,-1,-1],"loss_changes":[2.9388328E0,1.1088774E0,1.3070836E0,6.542933E-1,2.946695E-1,7.503648E-1,2.3481488E-1,0E0,2.3930955E-1,0E0,2.158015E-1,0E0,6.187906E-1,0E0,0E0,0E0,0E0,0E0,0E0,0E0,0E0],"parents":[2147483647,0,0,1,1,2,2,3,3,4,4,5,5,6,6,8,8,10,10,12,12],"right_children":[2,4,6,8,10,12,14,-1,16,-1,18,-1,20,-1,-1,-1,-1,-1,-1,-1,-1],"split_conditions":[1.251E3,1.6E1,9.38E2,3E0,1.924E3,5E0,3.97E2,-2.0660719E-2,1.155E3,-9.4159255E-3,2.645E3,-6.408477E-3,2.592E3,4.591962E-3,9.847685E-3,-7.6442915E-3,-1.7896511E-3,-5.972812E-3,-1.0181909E-3,7.470953E-4,8.717604E-3],"split_indices":[20,12,12,3,5,4,7,0,20,0,1,0,20,0,0,0,0,0,0,0,0],"split_type":[0,0,0,0,0,0,0,0,0,0,0,0,0,0,0,0,0,0,0,0,0],"sum_hessian":[1.624E3,5.65E2,1.059E3,1.6E2,4.05E2,8.58E2,2.01E2,1E1,1.5E2,1.4E1,3.91E2,4.5E1,8.13E2,1.57E2,4.4E1,1.12E2,3.8E1,3.1E1,3.6E2,7.81E2,3.2E1],"tree_param":{"num_deleted":"0","num_feature":"299","num_nodes":"21","size_leaf_vector":"1"}},{"base_weights":[2.5302735E-3,-3.7017666E-2,3.588264E-2,-7.313489E-2,-6.311545E-4,2.1446956E-2,1.2443488E-1,-1.5454333E-1,-4.7318816E-2,-1.7340243E-2,3.7230095E-3,-0E0,4.573155E-2,5.2563655E-3,1.3082118E-2,-6.5178084E-3,-1.7799856E-2,-6.761841E-3,-1.9564484E-3,-1.4140281E-3,4.7144294E-3,-2.898753E-3,5.635129E-4,2.0481071E-4,3.7598764E-3],"categories":[],"categories_nodes":[],"categories_segments":[],"categories_sizes":[],"default_left":[0,0,0,0,0,0,0,0,0,0,0,0,0,0,0,0,0,0,0,0,0,0,0,0,0],"id":40,"left_children":[1,3,5,7,9,11,13,15,17,19,-1,21,23,-1,-1,-1,-1,-1,-1,-1,-1,-1,-1,-1,-1],"loss_changes":[2.1881044E0,9.865668E-1,1.125792E0,7.4604106E-1,4.0727356E-1,4.0954527E-1,3.2129407E-1,4.067006E-1,2.4796373E-1,2.0167096E-1,0E0,2.012709E-1,2.7448976E-1,0E0,0E0,0E0,0E0,0E0,0E0,0E0,0E0,0E0,0E0,0E0,0E0],"parents":[2147483647,0,0,1,1,2,2,3,3,4,4,5,5,6,6,7,7,8,8,9,9,11,11,12,12],"right_children":[2,4,6,8,10,12,14,16,18,20,-1,22,24,-1,-1,-1,-1,-1,-1,-1,-1,-1,-1,-1,-1],"split_conditions":[1.986E3,6E0,2.224E3,1E0,1.2E3,1E0,1.368E3,1E0,1E0,1E0,3.7230095E-3,6.6E2,1.35E3,5.2563655E-3,1.3082118E-2,-6.5178084E-3,-1.7799856E-2,-6.761841E-3,-1.9564484E-3,-1.4140281E-3,4.7144294E-3,-2.898753E-3,5.635129E-4,2.0481071E-4,3.7598764E-3],"split_indices":[6,4,20,66,17,21,18,293,297,95,0,15,20,0,0,0,0,0,0,0,0,0,0,0,0],"split_type":[0,0,0,0,0,0,0,0,0,0,0,0,0,0,0,0,0,0,0,0,0,0,0,0,0],"sum_hessian":[1.652E3,7.54E2,8.98E2,3.75E2,3.79E2,7.77E2,1.21E2,8.5E1,2.9E2,3.04E2,7.5E1,4.13E2,3.64E2,9.5E1,2.6E1,7.1E1,1.4E1,4.4E1,2.46E2,2.88E2,1.6E1,6.6E1,3.47E2,1.13E2,2.51E2],"tree_param":{"num_deleted":"0","num_feature":"299","num_nodes":"25","size_leaf_vector":"1"}},{"base_weights":[-2.7456027E-4,-3.4236606E-2,3.399915E-2,-2.9358253E-1,-2.8729804E-2,1.8502193E-2,1.0078994E-1,-4.8352154E-3,-2.9006777E-2,-1.988353E-2,-7.506052E-3,4.7729105E-2,-6.624742E-3,6.4746435E-3,-4.0336787E-3,-4.3878374E-3,-5.032568E-4,2.1526674E-3,8.188505E-3,-6.4354893E-3,8.5026426E-5],"categories":[],"categories_nodes":[],"categories_segments":[],"categories_sizes":[],"default_left":[0,0,0,0,0,0,0,0,0,0,0,0,0,0,0,0,0,0,0,0,0],"id":41,"left_children":[1,3,5,7,9,11,13,-1,-1,15,-1,17,19,-1,-1,-1,-1,-1,-1,-1,-1],"loss_changes":[1.9252548E0,1.121345E0,8.296462E-1,4.8687875E-1,6.912862E-1,4.9983308E-1,2.7362037E-1,0E0,0E0,4.5763245E-1,0E0,2.8011596E-1,3.14364E-1,0E0,0E0,0E0,0E0,0E0,0E0,0E0,0E0],"parents":[2147483647,0,0,1,1,2,2,3,3,4,4,5,5,6,6,9,9,11,11,12,12],"right_children":[2,4,6,8,10,12,14,-1,-1,16,-1,18,20,-1,-1,-1,-1,-1,-1,-1,-1],"split_conditions":[1.089E3,3E0,1.097E3,1E0,1E0,2.008E3,1E0,-4.8352154E-3,-2.9006777E-2,5.976E3,-7.506052E-3,1.8E3,2E0,6.4746435E-3,-4.0336787E-3,-4.3878374E-3,-5.032568E-4,2.1526674E-3,8.188505E-3,-6.4354893E-3,8.5026426E-5],"split_indices":[17,3,12,293,46,44,118,0,0,1,0,17,11,0,0,0,0,0,0,0,0],"split_type":[0,0,0,0,0,0,0,0,0,0,0,0,0,0,0,0,0,0,0,0,0],"sum_hessian":[1.647E3,8.29E2,8.18E2,1.3E1,8.16E2,6.69E2,1.49E2,9E0,4E0,7.54E2,6.2E1,3.1E2,3.59E2,1.43E2,6E0,1.24E2,6.3E2,2.82E2,2.8E1,2.4E1,3.35E2],"tree_param":{"num_deleted":"0","num_feature":"299","num_nodes":"21","size_leaf_vector":"1"}},{"base_weights":[-4.1988402E-4,-2.4767006E-2,5.1439766E-2,-8.906123E-3,-1.4496853E-2,4.2241488E-2,1.2680189E-2,-8.103027E-2,-3.3140439E-3,-4.686463E-5,6.162134E-2,-3.5076323E-3,-1.6992053E-2,-9.777407E-4,2.2922603E-3,3.8504093E-3,-6.369654E-3],"categories":[],"categories_nodes":[],"categories_segments":[],"categories_sizes":[],"default_left":[0,0,0,0,0,0,0,0,0,0,0,0,0,0,0,0,0],"id":42,"left_children":[1,3,5,-1,7,9,-1,11,13,-1,15,-1,-1,-1,-1,-1,-1],"loss_changes":[2.0915458E0,1.4445858E0,7.364719E-1,0E0,7.7066064E-1,4.2899728E-1,0E0,5.625509E-1,5.095656E-1,0E0,2.5181556E-1,0E0,0E0,0E0,0E0,0E0,0E0],"parents":[2147483647,0,0,1,1,2,2,4,4,5,5,7,7,8,8,10,10],"right_children":[2,4,6,-1,8,10,-1,12,14,-1,16,-1,-1,-1,-1,-1,-1],"split_conditions":[1.2E3,5E0,3E0,-8.906123E-3,6.11E2,2.52E2,1.2680189E-2,1E0,1.756E3,-4.686463E-5,2.872E3,-3.5076323E-3,-1.6992053E-2,-9.777407E-4,2.2922603E-3,3.8504093E-3,-6.369654E-3],"split_indices":[15,4,23,0,15,12,0,100,20,0,20,0,0,0,0,0,0],"split_type":[0,0,0,0,0,0,0,0,0,0,0,0,0,0,0,0,0],"sum_hessian":[1.652E3,1.127E3,5.25E2,8E1,1.047E3,5.02E2,2.3E1,1.46E2,9.01E2,1.55E2,3.47E2,1.37E2,9E0,6.89E2,2.12E2,3.42E2,5E0],"tree_param":{"num_deleted":"0","num_feature":"299","num_nodes":"17","size_leaf_vector":"1"}},{"base_weights":[-3.2719574E-3,-3.3304755E-2,3.3474363E-2,-7.572014E-2,-2.3839066E-3,9.597507E-3,6.916296E-2,-2.0730922E-1,-6.1549656E-2,-1.10793235E-2,5.3181103E-3,-2.2372967E-3,1.3095725E-3,2.6090003E-3,1.09652266E-1,-6.7998646E-3,-1.964657E-2,-5.5097323E-3,-1.7517078E-3,-1.1047415E-3,2.5823065E-3,7.1755764E-3,-5.9344578E-3],"categories":[],"categories_nodes":[],"categories_segments":[],"categories_sizes":[],"default_left":[0,0,0,0,0,0,0,0,0,0,0,0,0,0,0,0,0,0,0,0,0,0,0],"id":43,"left_children":[1,3,5,7,9,11,13,15,17,19,-1,-1,-1,-1,21,-1,-1,-1,-1,-1,-1,-1,-1],"loss_changes":[1.8529187E0,1.2039049E0,6.304207E-1,6.480851E-1,4.3057165E-1,2.7772227E-1,2.6513004E-1,2.2470462E-1,3.400228E-1,2.1159211E-1,0E0,0E0,0E0,0E0,3.3245814E-1,0E0,0E0,0E0,0E0,0E0,0E0,0E0,0E0],"parents":[2147483647,0,0,1,1,2,2,3,3,4,4,5,5,6,6,7,7,8,8,9,9,14,14],"right_children":[2,4,6,8,10,12,14,16,18,20,-1,-1,-1,-1,22,-1,-1,-1,-1,-1,-1,-1,-1],"split_conditions":[3E0,2.06E2,1.365E3,4E0,1.4E3,6.24E3,1.2568E4,1E0,3E0,1E0,5.3181103E-3,-2.2372967E-3,1.3095725E-3,2.6090003E-3,2.66E2,-6.7998646E-3,-1.964657E-2,-5.5097323E-3,-1.7517078E-3,-1.1047415E-3,2.5823065E-3,7.1755764E-3,-5.9344578E-3],"split_indices":[27,12,17,4,15,1,1,293,16,50,0,0,0,0,37,0,0,0,0,0,0,0,0],"split_type":[0,0,0,0,0,0,0,0,0,0,0,0,0,0,0,0,0,0,0,0,0,0,0],"sum_hessian":[1.672E3,9.22E2,7.5E2,3.85E2,5.37E2,4.54E2,2.96E2,3.2E1,3.53E2,4.95E2,4.2E1,9.2E1,3.62E2,1.9E2,1.06E2,2.3E1,9E0,1.7E2,1.83E2,4.38E2,5.7E1,1.02E2,4E0],"tree_param":{"num_deleted":"0","num_feature":"299","num_nodes":"23","size_leaf_vector":"1"}},{"base_weights":[-2.1935229E-3,-3.599384E-2,2.9996498E-2,2.7555753E-3,-6.67638E-2,1.7827574E-2,8.778714E-2,-6.969543E-4,4.088466E-3,-1.9663586E-1,-4.4862665E-2,2.348352E-3,2.2596956E-5,9.703298E-2,-3.9360537E-3,-2.217966E-2,-7.994907E-3,-6.5187477E-3,-1.8607142E-3,3.8539574E-3,9.533487E-3],"categories":[],"categories_nodes":[],