{"learner":{"attributes":{},"feature_names":[],"feature_types":[],"gradient_booster":{"model":{"gbtree_model_param":{"num_parallel_tree":"1","num_trees":"3903"},"iteration_indptr":[0,1,2,3,4,5,6,7,8,9,10,11,12,13,14,15,16,17,18,19,20,21,22,23,24,25,26,27,28,29,30,31,32,33,34,35,36,37,38,39,40,41,42,43,44,45,46,47,48,49,50,51,52,53,54,55,56,57,58,59,60,61,62,63,64,65,66,67,68,69,70,71,72,73,74,75,76,77,78,79,80,81,82,83,84,85,86,87,88,89,90,91,92,93,94,95,96,97,98,99,100,101,102,103,104,105,106,107,108,109,110,111,112,113,114,115,116,117,118,119,120,121,122,123,124,125,126,127,128,129,130,131,132,133,134,135,136,137,138,139,140,141,142,143,144,145,146,147,148,149,150,151,152,153,154,155,156,157,158,159,160,161,162,163,164,165,166,167,168,169,170,171,172,173,174,175,176,177,178,179,180,181,182,183,184,185,186,187,188,189,190,191,192,193,194,195,196,197,198,199,200,201,202,203,204,205,206,207,208,209,210,211,212,213,214,215,216,217,218,219,220,221,222,223,224,225,226,227,228,229,230,231,232,233,234,235,236,237,238,239,240,241,242,243,244,245,246,247,248,249,250,251,252,253,254,255,256,257,258,259,260,261,262,263,264,265,266,267,268,269,270,271,272,273,274,275,276,277,278,279,280,281,282,283,284,285,286,287,288,289,290,291,292,293,294,295,296,297,298,299,300,301,302,303,304,305,306,307,308,309,310,311,312,313,314,315,316,317,318,319,320,321,322,323,324,325,326,327,328,329,330,331,332,333,334,335,336,337,338,339,340,341,342,343,344,345,346,347,348,349,350,351,352,353,354,355,356,357,358,359,360,361,362,363,364,365,366,367,368,369,370,371,372,373,374,375,376,377,378,379,380,381,382,383,384,385,386,387,388,389,390,391,392,393,394,395,396,397,398,399,400,401,402,403,404,405,406,407,408,409,410,411,412,413,414,415,416,417,418,419,420,421,422,423,424,425,426,427,428,429,430,431,432,433,434,435,436,437,438,439,440,441,442,443,444,445,446,447,448,449,450,451,452,453,454,455,456,457,458,459,460,461,462,463,464,465,466,467,468,469,470,471,472,473,474,475,476,477,478,479,480,481,482,483,484,485,486,487,488,489,490,491,492,493,494,495,496,497,498,499,500,501,502,503,504,505,506,507,508,509,510,511,512,513,514,515,516,517,518,519,520,521,522,523,524,525,526,527,528,529,530,531,532,533,534,535,536,537,538,539,540,541,542,543,544,545,546,547,548,549,550,551,552,553,554,555,556,557,558,559,560,561,562,563,564,565,566,567,568,569,570,571,572,573,574,575,576,577,578,579,580,581,582,583,584,585,586,587,588,589,590,591,592,593,594,595,596,597,598,599,600,601,602,603,604,605,606,607,608,609,610,611,612,613,614,615,616,617,618,619,620,621,622,623,624,625,626,627,628,629,630,631,632,633,634,635,636,637,638,639,640,641,642,643,644,645,646,647,648,649,650,651,652,653,654,655,656,657,658,659,660,661,662,663,664,665,666,667,668,669,670,671,672,673,674,675,676,677,678,679,680,681,682,683,684,685,686,687,688,689,690,691,692,693,694,695,696,697,698,699,700,701,702,703,704,705,706,707,708,709,710,711,712,713,714,715,716,717,718,719,720,721,722,723,724,725,726,727,728,729,730,731,732,733,734,735,736,737,738,739,740,741,742,743,744,745,746,747,748,749,750,751,752,753,754,755,756,757,758,759,760,761,762,763,764,765,766,767,768,769,770,771,772,773,774,775,776,777,778,779,780,781,782,783,784,785,786,787,788,789,790,791,792,793,794,795,796,797,798,799,800,801,802,803,804,805,806,807,808,809,810,811,812,813,814,815,816,817,818,819,820,821,822,823,824,825,826,827,828,829,830,831,832,833,834,835,836,837,838,839,840,841,842,843,844,845,846,847,848,849,850,851,852,853,854,855,856,857,858,859,860,861,862,863,864,865,866,867,868,869,870,871,872,873,874,875,876,877,878,879,880,881,882,883,884,885,886,887,888,889,890,891,892,893,894,895,896,897,898,899,900,901,902,903,904,905,906,907,908,909,910,911,912,913,914,915,916,917,918,919,920,921,922,923,924,925,926,927,928,929,930,931,932,933,934,935,936,937,938,939,940,941,942,943,944,945,946,947,948,949,950,951,952,953,954,955,956,957,958,959,960,961,962,963,964,965,966,967,968,969,970,971,972,973,974,975,976,977,978,979,980,981,982,983,984,985,986,987,988,989,990,991,992,993,994,995,996,997,998,999,1000,1001,1002,1003,1004,1005,1006,1007,1008,1009,1010,1011,1012,1013,1014,1015,1016,1017,1018,1019,1020,1021,1022,1023,1024,1025,1026,1027,1028,1029,1030,1031,1032,1033,1034,1035,1036,1037,1038,1039,1040,1041,1042,1043,1044,1045,1046,1047,1048,1049,1050,1051,1052,1053,1054,1055,1056,1057,1058,1059,1060,1061,1062,1063,1064,1065,1066,1067,1068,1069,1070,1071,1072,1073,1074,1075,1076,1077,1078,1079,1080,1081,1082,1083,1084,1085,1086,1087,1088,1089,1090,1091,1092,1093,1094,1095,1096,1097,1098,1099,1100,1101,1102,1103,1104,1105,1106,1107,1108,1109,1110,1111,1112,1113,1114,1115,1116,1117,1118,1119,1120,1121,1122,1123,1124,1125,1126,1127,1128,1129,1130,1131,1132,1133,1134,1135,1136,1137,1138,1139,1140,1141,1142,1143,1144,1145,1146,1147,1148,1149,1150,1151,1152,1153,1154,1155,1156,1157,1158,1159,1160,1161,1162,1163,1164,1165,1166,1167,1168,1169,1170,1171,1172,1173,1174,1175,1176,1177,1178,1179,1180,1181,1182,1183,1184,1185,1186,1187,1188,1189,1190,1191,1192,1193,1194,1195,1196,1197,1198,1199,1200,1201,1202,1203,1204,1205,1206,1207,1208,1209,1210,1211,1212,1213,1214,1215,1216,1217,1218,1219,1220,1221,1222,1223,1224,1225,1226,1227,1228,1229,1230,1231,1232,1233,1234,1235,1236,1237,1238,1239,1240,1241,1242,1243,1244,1245,1246,1247,1248,1249,1250,1251,1252,1253,1254,1255,1256,1257,1258,1259,1260,1261,1262,1263,1264,1265,1266,1267,1268,1269,1270,1271,1272,1273,1274,1275,1276,1277,1278,1279,1280,1281,1282,1283,1284,1285,1286,1287,1288,1289,1290,1291,1292,1293,1294,1295,1296,1297,1298,1299,1300,1301,1302,1303,1304,1305,1306,1307,1308,1309,1310,1311,1312,1313,1314,1315,1316,1317,1318,1319,1320,1321,1322,1323,1324,1325,1326,1327,1328,1329,1330,1331,1332,1333,1334,1335,1336,1337,1338,1339,1340,1341,1342,1343,1344,1345,1346,1347,1348,1349,1350,1351,1352,1353,1354,1355,1356,1357,1358,1359,1360,1361,1362,1363,1364,1365,1366,1367,1368,1369,1370,1371,1372,1373,1374,1375,1376,1377,1378,1379,1380,1381,1382,1383,1384,1385,1386,1387,1388,1389,1390,1391,1392,1393,1394,1395,1396,1397,1398,1399,1400,1401,1402,1403,1404,1405,1406,1407,1408,1409,1410,1411,1412,1413,1414,1415,1416,1417,1418,1419,1420,1421,1422,1423,1424,1425,1426,1427,1428,1429,1430,1431,1432,1433,1434,1435,1436,1437,1438,1439,1440,1441,1442,1443,1444,1445,1446,1447,1448,1449,1450,1451,1452,1453,1454,1455,1456,1457,1458,1459,1460,1461,1462,1463,1464,1465,1466,1467,1468,1469,1470,1471,1472,1473,1474,1475,1476,1477,1478,1479,1480,1481,1482,1483,1484,1485,1486,1487,1488,1489,1490,1491,1492,1493,1494,1495,1496,1497,1498,1499,1500,1501,1502,1503,1504,1505,1506,1507,1508,1509,1510,1511,1512,1513,1514,1515,1516,1517,1518,1519,1520,1521,1522,1523,1524,1525,1526,1527,1528,1529,1530,1531,1532,1533,1534,1535,1536,1537,1538,1539,1540,1541,1542,1543,1544,1545,1546,1547,1548,1549,1550,1551,1552,1553,1554,1555,1556,1557,1558,1559,1560,1561,1562,1563,1564,1565,1566,1567,1568,1569,1570,1571,1572,1573,1574,1575,1576,1577,1578,1579,1580,1581,1582,1583,1584,1585,1586,1587,1588,1589,1590,1591,1592,1593,1594,1595,1596,1597,1598,1599,1600,1601,1602,1603,1604,1605,1606,1607,1608,1609,1610,1611,1612,1613,1614,1615,1616,1617,1618,1619,1620,1621,1622,1623,1624,1625,1626,1627,1628,1629,1630,1631,1632,1633,1634,1635,1636,1637,1638,1639,1640,1641,1642,1643,1644,1645,1646,1647,1648,1649,1650,1651,1652,1653,1654,1655,1656,1657,1658,1659,1660,1661,1662,1663,1664,1665,1666,1667,1668,1669,1670,1671,1672,1673,1674,1675,1676,1677,1678,1679,1680,1681,1682,1683,1684,1685,1686,1687,1688,1689,1690,1691,1692,1693,1694,1695,1696,1697,1698,1699,1700,1701,1702,1703,1704,1705,1706,1707,1708,1709,1710,1711,1712,1713,1714,1715,1716,1717,1718,1719,1720,1721,1722,1723,1724,1725,1726,1727,1728,1729,1730,1731,1732,1733,1734,1735,1736,1737,1738,1739,1740,1741,1742,1743,1744,1745,1746,1747,1748,1749,1750,1751,1752,1753,1754,1755,1756,1757,1758,1759,1760,1761,1762,1763,1764,1765,1766,1767,1768,1769,1770,1771,1772,1773,1774,1775,1776,1777,1778,1779,1780,1781,1782,1783,1784,1785,1786,1787,1788,1789,1790,1791,1792,1793,1794,1795,1796,1797,1798,1799,1800,1801,1802,1803,1804,1805,1806,1807,1808,1809,1810,1811,1812,1813,1814,1815,1816,1817,1818,1819,1820,1821,1822,1823,1824,1825,1826,1827,1828,1829,1830,1831,1832,1833,1834,1835,1836,1837,1838,1839,1840,1841,1842,1843,1844,1845,1846,1847,1848,1849,1850,1851,1852,1853,1854,1855,1856,1857,1858,1859,1860,1861,1862,1863,1864,1865,1866,1867,1868,1869,1870,1871,1872,1873,1874,1875,1876,1877,1878,1879,1880,1881,1882,1883,1884,1885,1886,1887,1888,1889,1890,1891,1892,1893,1894,1895,1896,1897,1898,1899,1900,1901,1902,1903,1904,1905,1906,1907,1908,1909,1910,1911,1912,1913,1914,1915,1916,1917,1918,1919,1920,1921,1922,1923,1924,1925,1926,1927,1928,1929,1930,1931,1932,1933,1934,1935,1936,1937,1938,1939,1940,1941,1942,1943,1944,1945,1946,1947,1948,1949,1950,1951,1952,1953,1954,1955,1956,1957,1958,1959,1960,1961,1962,1963,1964,1965,1966,1967,1968,1969,1970,1971,1972,1973,1974,1975,1976,1977,1978,1979,1980,1981,1982,1983,1984,1985,1986,1987,1988,1989,1990,1991,1992,1993,1994,1995,1996,1997,1998,1999,2000,2001,2002,2003,2004,2005,2006,2007,2008,2009,2010,2011,2012,2013,2014,2015,2016,2017,2018,2019,2020,2021,2022,2023,2024,2025,2026,2027,2028,2029,2030,2031,2032,2033,2034,2035,2036,2037,2038,2039,2040,2041,2042,2043,2044,2045,2046,2047,2048,2049,2050,2051,2052,2053,2054,2055,2056,2057,2058,2059,2060,2061,2062,2063,2064,2065,2066,2067,2068,2069,2070,2071,2072,2073,2074,2075,2076,2077,2078,2079,2080,2081,2082,2083,2084,2085,2086,2087,2088,2089,2090,2091,2092,2093,2094,2095,2096,2097,2098,2099,2100,2101,2102,2103,2104,2105,2106,2107,2108,2109,2110,2111,2112,2113,2114,2115,2116,2117,2118,2119,2120,2121,2122,2123,2124,2125,2126,2127,2128,2129,2130,2131,2132,2133,2134,2135,2136,2137,2138,2139,2140,2141,2142,2143,2144,2145,2146,2147,2148,2149,2150,2151,2152,2153,2154,2155,2156,2157,2158,2159,2160,2161,2162,2163,2164,2165,2166,2167,2168,2169,2170,2171,2172,2173,2174,2175,2176,2177,2178,2179,2180,2181,2182,2183,2184,2185,2186,2187,2188,2189,2190,2191,2192,2193,2194,2195,2196,2197,2198,2199,2200,2201,2202,2203,2204,2205,2206,2207,2208,2209,2210,2211,2212,2213,2214,2215,2216,2217,2218,2219,2220,2221,2222,2223,2224,2225,2226,2227,2228,2229,2230,2231,2232,2233,2234,2235,2236,2237,2238,2239,2240,2241,2242,2243,2244,2245,2246,2247,2248,2249,2250,2251,2252,2253,2254,2255,2256,2257,2258,2259,2260,2261,2262,2263,2264,2265,2266,2267,2268,2269,2270,2271,2272,2273,2274,2275,2276,2277,2278,2279,2280,2281,2282,2283,2284,2285,2286,2287,2288,2289,2290,2291,2292,2293,2294,2295,2296,2297,2298,2299,2300,2301,2302,2303,2304,2305,2306,2307,2308,2309,2310,2311,2312,2313,2314,2315,2316,2317,2318,2319,2320,2321,2322,2323,2324,2325,2326,2327,2328,2329,2330,2331,2332,2333,2334,2335,2336,2337,2338,2339,2340,2341,2342,2343,2344,2345,2346,2347,2348,2349,2350,2351,2352,2353,2354,2355,2356,2357,2358,2359,2360,2361,2362,2363,2364,2365,2366,2367,2368,2369,2370,2371,2372,2373,2374,2375,2376,2377,2378,2379,2380,2381,2382,2383,2384,2385,2386,2387,2388,2389,2390,2391,2392,2393,2394,2395,2396,2397,2398,2399,2400,2401,2402,2403,2404,2405,2406,2407,2408,2409,2410,2411,2412,2413,2414,2415,2416,2417,2418,2419,2420,2421,2422,2423,2424,2425,2426,2427,2428,2429,2430,2431,2432,2433,2434,2435,2436,2437,2438,2439,2440,2441,2442,2443,2444,2445,2446,2447,2448,2449,2450,2451,2452,2453,2454,2455,2456,2457,2458,2459,2460,2461,2462,2463,2464,2465,2466,2467,2468,2469,2470,2471,2472,2473,2474,2475,2476,2477,2478,2479,2480,2481,2482,2483,2484,2485,2486,2487,2488,2489,2490,2491,2492,2493,2494,2495,2496,2497,2498,2499,2500,2501,2502,2503,2504,2505,2506,2507,2508,2509,2510,2511,2512,2513,2514,2515,2516,2517,2518,2519,2520,2521,2522,2523,2524,2525,2526,2527,2528,2529,2530,2531,2532,2533,2534,2535,2536,2537,2538,2539,2540,2541,2542,2543,2544,2545,2546,2547,2548,2549,2550,2551,2552,2553,2554,2555,2556,2557,2558,2559,2560,2561,2562,2563,2564,2565,2566,2567,2568,2569,2570,2571,2572,2573,2574,2575,2576,2577,2578,2579,2580,2581,2582,2583,2584,2585,2586,2587,2588,2589,2590,2591,2592,2593,2594,2595,2596,2597,2598,2599,2600,2601,2602,2603,2604,2605,2606,2607,2608,2609,2610,2611,2612,2613,2614,2615,2616,2617,2618,2619,2620,2621,2622,2623,2624,2625,2626,2627,2628,2629,2630,2631,2632,2633,2634,2635,2636,2637,2638,2639,2640,2641,2642,2643,2644,2645,2646,2647,2648,2649,2650,2651,2652,2653,2654,2655,2656,2657,2658,2659,2660,2661,2662,2663,2664,2665,2666,2667,2668,2669,2670,2671,2672,2673,2674,2675,2676,2677,2678,2679,2680,2681,2682,2683,2684,2685,2686,2687,2688,2689,2690,2691,2692,2693,2694,2695,2696,2697,2698,2699,2700,2701,2702,2703,2704,2705,2706,2707,2708,2709,2710,2711,2712,2713,2714,2715,2716,2717,2718,2719,2720,2721,2722,2723,2724,2725,2726,2727,2728,2729,2730,2731,2732,2733,2734,2735,2736,2737,2738,2739,2740,2741,2742,2743,2744,2745,2746,2747,2748,2749,2750,2751,2752,2753,2754,2755,2756,2757,2758,2759,2760,2761,2762,2763,2764,2765,2766,2767,2768,2769,2770,2771,2772,2773,2774,2775,2776,2777,2778,2779,2780,2781,2782,2783,2784,2785,2786,2787,2788,2789,2790,2791,2792,2793,2794,2795,2796,2797,2798,2799,2800,2801,2802,2803,2804,2805,2806,2807,2808,2809,2810,2811,2812,2813,2814,2815,2816,2817,2818,2819,2820,2821,2822,2823,2824,2825,2826,2827,2828,2829,2830,2831,2832,2833,2834,2835,2836,2837,2838,2839,2840,2841,2842,2843,2844,2845,2846,2847,2848,2849,2850,2851,2852,2853,2854,2855,2856,2857,2858,2859,2860,2861,2862,2863,2864,2865,2866,2867,2868,2869,2870,2871,2872,2873,2874,2875,2876,2877,2878,2879,2880,2881,2882,2883,2884,2885,2886,2887,2888,2889,2890,2891,2892,2893,2894,2895,2896,2897,2898,2899,2900,2901,2902,2903,2904,2905,2906,2907,2908,2909,2910,2911,2912,2913,2914,2915,2916,2917,2918,2919,2920,2921,2922,2923,2924,2925,2926,2927,2928,2929,2930,2931,2932,2933,2934,2935,2936,2937,2938,2939,2940,2941,2942,2943,2944,2945,2946,2947,2948,2949,2950,2951,2952,2953,2954,2955,2956,2957,2958,2959,2960,2961,2962,2963,2964,2965,2966,2967,2968,2969,2970,2971,2972,2973,2974,2975,2976,2977,2978,2979,2980,2981,2982,2983,2984,2985,2986,2987,2988,2989,2990,2991,2992,2993,2994,2995,2996,2997,2998,2999,3000,3001,3002,3003,3004,3005,3006,3007,3008,3009,3010,3011,3012,3013,3014,3015,3016,3017,3018,3019,3020,3021,3022,3023,3024,3025,3026,3027,3028,3029,3030,3031,3032,3033,3034,3035,3036,3037,3038,3039,3040,3041,3042,3043,3044,3045,3046,3047,3048,3049,3050,3051,3052,3053,3054,3055,3056,3057,3058,3059,3060,3061,3062,3063,3064,3065,3066,3067,3068,3069,3070,3071,3072,3073,3074,3075,3076,3077,3078,3079,3080,3081,3082,3083,3084,3085,3086,3087,3088,3089,3090,3091,3092,3093,3094,3095,3096,3097,3098,3099,3100,3101,3102,3103,3104,3105,3106,3107,3108,3109,3110,3111,3112,3113,3114,3115,3116,3117,3118,3119,3120,3121,3122,3123,3124,3125,3126,3127,3128,3129,3130,3131,3132,3133,3134,3135,3136,3137,3138,3139,3140,3141,3142,3143,3144,3145,3146,3147,3148,3149,3150,3151,3152,3153,3154,3155,3156,3157,3158,3159,3160,3161,3162,3163,3164,3165,3166,3167,3168,3169,3170,3171,3172,3173,3174,3175,3176,3177,3178,3179,3180,3181,3182,3183,3184,3185,3186,3187,3188,3189,3190,3191,3192,3193,3194,3195,3196,3197,3198,3199,3200,3201,3202,3203,3204,3205,3206,3207,3208,3209,3210,3211,3212,3213,3214,3215,3216,3217,3218,3219,3220,3221,3222,3223,3224,3225,3226,3227,3228,3229,3230,3231,3232,3233,3234,3235,3236,3237,3238,3239,3240,3241,3242,3243,3244,3245,3246,3247,3248,3249,3250,3251,3252,3253,3254,3255,3256,3257,3258,3259,3260,3261,3262,3263,3264,3265,3266,3267,3268,3269,3270,3271,3272,3273,3274,3275,3276,3277,3278,3279,3280,3281,3282,3283,3284,3285,3286,3287,3288,3289,3290,3291,3292,3293,3294,3295,3296,3297,3298,3299,3300,3301,3302,3303,3304,3305,3306,3307,3308,3309,3310,3311,3312,3313,3314,3315,3316,3317,3318,3319,3320,3321,3322,3323,3324,3325,3326,3327,3328,3329,3330,3331,3332,3333,3334,3335,3336,3337,3338,3339,3340,3341,3342,3343,3344,3345,3346,3347,3348,3349,3350,3351,3352,3353,3354,3355,3356,3357,3358,3359,3360,3361,3362,3363,3364,3365,3366,3367,3368,3369,3370,3371,3372,3373,3374,3375,3376,3377,3378,3379,3380,3381,3382,3383,3384,3385,3386,3387,3388,3389,3390,3391,3392,3393,3394,3395,3396,3397,3398,3399,3400,3401,3402,3403,3404,3405,3406,3407,3408,3409,3410,3411,3412,3413,3414,3415,3416,3417,3418,3419,3420,3421,3422,3423,3424,3425,3426,3427,3428,3429,3430,3431,3432,3433,3434,3435,3436,3437,3438,3439,3440,3441,3442,3443,3444,3445,3446,3447,3448,3449,3450,3451,3452,3453,3454,3455,3456,3457,3458,3459,3460,3461,3462,3463,3464,3465,3466,3467,3468,3469,3470,3471,3472,3473,3474,3475,3476,3477,3478,3479,3480,3481,3482,3483,3484,3485,3486,3487,3488,3489,3490,3491,3492,3493,3494,3495,3496,3497,3498,3499,3500,3501,3502,3503,3504,3505,3506,3507,3508,3509,3510,3511,3512,3513,3514,3515,3516,3517,3518,3519,3520,3521,3522,3523,3524,3525,3526,3527,3528,3529,3530,3531,3532,3533,3534,3535,3536,3537,3538,3539,3540,3541,3542,3543,3544,3545,3546,3547,3548,3549,3550,3551,3552,3553,3554,3555,3556,3557,3558,3559,3560,3561,3562,3563,3564,3565,3566,3567,3568,3569,3570,3571,3572,3573,3574,3575,3576,3577,3578,3579,3580,3581,3582,3583,3584,3585,3586,3587,3588,3589,3590,3591,3592,3593,3594,3595,3596,3597,3598,3599,3600,3601,3602,3603,3604,3605,3606,3607,3608,3609,3610,3611,3612,3613,3614,3615,3616,3617,3618,3619,3620,3621,3622,3623,3624,3625,3626,3627,3628,3629,3630,3631,3632,3633,3634,3635,3636,3637,3638,3639,3640,3641,3642,3643,3644,3645,3646,3647,3648,3649,3650,3651,3652,3653,3654,3655,3656,3657,3658,3659,3660,3661,3662,3663,3664,3665,3666,3667,3668,3669,3670,3671,3672,3673,3674,3675,3676,3677,3678,3679,3680,3681,3682,3683,3684,3685,3686,3687,3688,3689,3690,3691,3692,3693,3694,3695,3696,3697,3698,3699,3700,3701,3702,3703,3704,3705,3706,3707,3708,3709,3710,3711,3712,3713,3714,3715,3716,3717,3718,3719,3720,3721,3722,3723,3724,3725,3726,3727,3728,3729,3730,3731,3732,3733,3734,3735,3736,3737,3738,3739,3740,3741,3742,3743,3744,3745,3746,3747,3748,3749,3750,3751,3752,3753,3754,3755,3756,3757,3758,3759,3760,3761,3762,3763,3764,3765,3766,3767,3768,3769,3770,3771,3772,3773,3774,3775,3776,3777,3778,3779,3780,3781,3782,3783,3784,3785,3786,3787,3788,3789,3790,3791,3792,3793,3794,3795,3796,3797,3798,3799,3800,3801,3802,3803,3804,3805,3806,3807,3808,3809,3810,3811,3812,3813,3814,3815,3816,3817,3818,3819,3820,3821,3822,3823,3824,3825,3826,3827,3828,3829,3830,3831,3832,3833,3834,3835,3836,3837,3838,3839,3840,3841,3842,3843,3844,3845,3846,3847,3848,3849,3850,3851,3852,3853,3854,3855,3856,3857,3858,3859,3860,3861,3862,3863,3864,3865,3866,3867,3868,3869,3870,3871,3872,3873,3874,3875,3876,3877,3878,3879,3880,3881,3882,3883,3884,3885,3886,3887,3888,3889,3890,3891,3892,3893,3894,3895,3896,3897,3898,3899,3900,3901,3902,3903],"tree_info":[0,0,0,0,0,0,0,0,0,0,0,0,0,0,0,0,0,0,0,0,0,0,0,0,0,0,0,0,0,0,0,0,0,0,0,0,0,0,0,0,0,0,0,0,0,0,0,0,0,0,0,0,0,0,0,0,0,0,0,0,0,0,0,0,0,0,0,0,0,0,0,0,0,0,0,0,0,0,0,0,0,0,0,0,0,0,0,0,0,0,0,0,0,0,0,0,0,0,0,0,0,0,0,0,0,0,0,0,0,0,0,0,0,0,0,0,0,0,0,0,0,0,0,0,0,0,0,0,0,0,0,0,0,0,0,0,0,0,0,0,0,0,0,0,0,0,0,0,0,0,0,0,0,0,0,0,0,0,0,0,0,0,0,0,0,0,0,0,0,0,0,0,0,0,0,0,0,0,0,0,0,0,0,0,0,0,0,0,0,0,0,0,0,0,0,0,0,0,0,0,0,0,0,0,0,0,0,0,0,0,0,0,0,0,0,0,0,0,0,0,0,0,0,0,0,0,0,0,0,0,0,0,0,0,0,0,0,0,0,0,0,0,0,0,0,0,0,0,0,0,0,0,0,0,0,0,0,0,0,0,0,0,0,0,0,0,0,0,0,0,0,0,0,0,0,0,0,0,0,0,0,0,0,0,0,0,0,0,0,0,0,0,0,0,0,0,0,0,0,0,0,0,0,0,0,0,0,0,0,0,0,0,0,0,0,0,0,0,0,0,0,0,0,0,0,0,0,0,0,0,0,0,0,0,0,0,0,0,0,0,0,0,0,0,0,0,0,0,0,0,0,0,0,0,0,0,0,0,0,0,0,0,0,0,0,0,0,0,0,0,0,0,0,0,0,0,0,0,0,0,0,0,0,0,0,0,0,0,0,0,0,0,0,0,0,0,0,0,0,0,0,0,0,0,0,0,0,0,0,0,0,0,0,0,0,0,0,0,0,0,0,0,0,0,0,0,0,0,0,0,0,0,0,0,0,0,0,0,0,0,0,0,0,0,0,0,0,0,0,0,0,0,0,0,0,0,0,0,0,0,0,0,0,0,0,0,0,0,0,0,0,0,0,0,0,0,0,0,0,0,0,0,0,0,0,0,0,0,0,0,0,0,0,0,0,0,0,0,0,0,0,0,0,0,0,0,0,0,0,0,0,0,0,0,0,0,0,0,0,0,0,0,0,0,0,0,0,0,0,0,0,0,0,0,0,0,0,0,0,0,0,0,0,0,0,0,0,0,0,0,0,0,0,0,0,0,0,0,0,0,0,0,0,0,0,0,0,0,0,0,0,0,0,0,0,0,0,0,0,0,0,0,0,0,0,0,0,0,0,0,0,0,0,0,0,0,0,0,0,0,0,0,0,0,0,0,0,0,0,0,0,0,0,0,0,0,0,0,0,0,0,0,0,0,0,0,0,0,0,0,0,0,0,0,0,0,0,0,0,0,0,0,0,0,0,0,0,0,0,0,0,0,0,0,0,0,0,0,0,0,0,0,0,0,0,0,0,0,0,0,0,0,0,0,0,0,0,0,0,0,0,0,0,0,0,0,0,0,0,0,0,0,0,0,0,0,0,0,0,0,0,0,0,0,0,0,0,0,0,0,0,0,0,0,0,0,0,0,0,0,0,0,0,0,0,0,0,0,0,0,0,0,0,0,0,0,0,0,0,0,0,0,0,0,0,0,0,0,0,0,0,0,0,0,0,0,0,0,0,0,0,0,0,0,0,0,0,0,0,0,0,0,0,0,0,0,0,0,0,0,0,0,0,0,0,0,0,0,0,0,0,0,0,0,0,0,0,0,0,0,0,0,0,0,0,0,0,0,0,0,0,0,0,0,0,0,0,0,0,0,0,0,0,0,0,0,0,0,0,0,0,0,0,0,0,0,0,0,0,0,0,0,0,0,0,0,0,0,0,0,0,0,0,0,0,0,0,0,0,0,0,0,0,0,0,0,0,0,0,0,0,0,0,0,0,0,0,0,0,0,0,0,0,0,0,0,0,0,0,0,0,0,0,0,0,0,0,0,0,0,0,0,0,0,0,0,0,0,0,0,0,0,0,0,0,0,0,0,0,0,0,0,0,0,0,0,0,0,0,0,0,0,0,0,0,0,0,0,0,0,0,0,0,0,0,0,0,0,0,0,0,0,0,0,0,0,0,0,0,0,0,0,0,0,0,0,0,0,0,0,0,0,0,0,0,0,0,0,0,0,0,0,0,0,0,0,0,0,0,0,0,0,0,0,0,0,0,0,0,0,0,0,0,0,0,0,0,0,0,0,0,0,0,0,0,0,0,0,0,0,0,0,0,0,0,0,0,0,0,0,0,0,0,0,0,0,0,0,0,0,0,0,0,0,0,0,0,0,0,0,0,0,0,0,0,0,0,0,0,0,0,0,0,0,0,0,0,0,0,0,0,0,0,0,0,0,0,0,0,0,0,0,0,0,0,0,0,0,0,0,0,0,0,0,0,0,0,0,0,0,0,0,0,0,0,0,0,0,0,0,0,0,0,0,0,0,0,0,0,0,0,0,0,0,0,0,0,0,0,0,0,0,0,0,0,0,0,0,0,0,0,0,0,0,0,0,0,0,0,0,0,0,0,0,0,0,0,0,0,0,0,0,0,0,0,0,0,0,0,0,0,0,0,0,0,0,0,0,0,0,0,0,0,0,0,0,0,0,0,0,0,0,0,0,0,0,0,0,0,0,0,0,0,0,0,0,0,0,0,0,0,0,0,0,0,0,0,0,0,0,0,0,0,0,0,0,0,0,0,0,0,0,0,0,0,0,0,0,0,0,0,0,0,0,0,0,0,0,0,0,0,0,0,0,0,0,0,0,0,0,0,0,0,0,0,0,0,0,0,0,0,0,0,0,0,0,0,0,0,0,0,0,0,0,0,0,0,0,0,0,0,0,0,0,0,0,0,0,0,0,0,0,0,0,0,0,0,0,0,0,0,0,0,0,0,0,0,0,0,0,0,0,0,0,0,0,0,0,0,0,0,0,0,0,0,0,0,0,0,0,0,0,0,0,0,0,0,0,0,0,0,0,0,0,0,0,0,0,0,0,0,0,0,0,0,0,0,0,0,0,0,0,0,0,0,0,0,0,0,0,0,0,0,0,0,0,0,0,0,0,0,0,0,0,0,0,0,0,0,0,0,0,0,0,0,0,0,0,0,0,0,0,0,0,0,0,0,0,0,0,0,0,0,0,0,0,0,0,0,0,0,0,0,0,0,0,0,0,0,0,0,0,0,0,0,0,0,0,0,0,0,0,0,0,0,0,0,0,0,0,0,0,0,0,0,0,0,0,0,0,0,0,0,0,0,0,0,0,0,0,0,0,0,0,0,0,0,0,0,0,0,0,0,0,0,0,0,0,0,0,0,0,0,0,0,0,0,0,0,0,0,0,0,0,0,0,0,0,0,0,0,0,0,0,0,0,0,0,0,0,0,0,0,0,0,0,0,0,0,0,0,0,0,0,0,0,0,0,0,0,0,0,0,0,0,0,0,0,0,0,0,0,0,0,0,0,0,0,0,0,0,0,0,0,0,0,0,0,0,0,0,0,0,0,0,0,0,0,0,0,0,0,0,0,0,0,0,0,0,0,0,0,0,0,0,0,0,0,0,0,0,0,0,0,0,0,0,0,0,0,0,0,0,0,0,0,0,0,0,0,0,0,0,0,0,0,0,0,0,0,0,0,0,0,0,0,0,0,0,0,0,0,0,0,0,0,0,0,0,0,0,0,0,0,0,0,0,0,0,0,0,0,0,0,0,0,0,0,0,0,0,0,0,0,0,0,0,0,0,0,0,0,0,0,0,0,0,0,0,0,0,0,0,0,0,0,0,0,0,0,0,0,0,0,0,0,0,0,0,0,0,0,0,0,0,0,0,0,0,0,0,0,0,0,0,0,0,0,0,0,0,0,0,0,0,0,0,0,0,0,0,0,0,0,0,0,0,0,0,0,0,0,0,0,0,0,0,0,0,0,0,0,0,0,0,0,0,0,0,0,0,0,0,0,0,0,0,0,0,0,0,0,0,0,0,0,0,0,0,0,0,0,0,0,0,0,0,0,0,0,0,0,0,0,0,0,0,0,0,0,0,0,0,0,0,0,0,0,0,0,0,0,0,0,0,0,0,0,0,0,0,0,0,0,0,0,0,0,0,0,0,0,0,0,0,0,0,0,0,0,0,0,0,0,0,0,0,0,0,0,0,0,0,0,0,0,0,0,0,0,0,0,0,0,0,0,0,0,0,0,0,0,0,0,0,0,0,0,0,0,0,0,0,0,0,0,0,0,0,0,0,0,0,0,0,0,0,0,0,0,0,0,0,0,0,0,0,0,0,0,0,0,0,0,0,0,0,0,0,0,0,0,0,0,0,0,0,0,0,0,0,0,0,0,0,0,0,0,0,0,0,0,0,0,0,0,0,0,0,0,0,0,0,0,0,0,0,0,0,0,0,0,0,0,0,0,0,0,0,0,0,0,0,0,0,0,0,0,0,0,0,0,0,0,0,0,0,0,0,0,0,0,0,0,0,0,0,0,0,0,0,0,0,0,0,0,0,0,0,0,0,0,0,0,0,0,0,0,0,0,0,0,0,0,0,0,0,0,0,0,0,0,0,0,0,0,0,0,0,0,0,0,0,0,0,0,0,0,0,0,0,0,0,0,0,0,0,0,0,0,0,0,0,0,0,0,0,0,0,0,0,0,0,0,0,0,0,0,0,0,0,0,0,0,0,0,0,0,0,0,0,0,0,0,0,0,0,0,0,0,0,0,0,0,0,0,0,0,0,0,0,0,0,0,0,0,0,0,0,0,0,0,0,0,0,0,0,0,0,0,0,0,0,0,0,0,0,0,0,0,0,0,0,0,0,0,0,0,0,0,0,0,0,0,0,0,0,0,0,0,0,0,0,0,0,0,0,0,0,0,0,0,0,0,0,0,0,0,0,0,0,0,0,0,0,0,0,0,0,0,0,0,0,0,0,0,0,0,0,0,0,0,0,0,0,0,0,0,0,0,0,0,0,0,0,0,0,0,0,0,0,0,0,0,0,0,0,0,0,0,0,0,0,0,0,0,0,0,0,0,0,0,0,0,0,0,0,0,0,0,0,0,0,0,0,0,0,0,0,0,0,0,0,0,0,0,0,0,0,0,0,0,0,0,0,0,0,0,0,0,0,0,0,0,0,0,0,0,0,0,0,0,0,0,0,0,0,0,0,0,0,0,0,0,0,0,0,0,0,0,0,0,0,0,0,0,0,0,0,0,0,0,0,0,0,0,0,0,0,0,0,0,0,0,0,0,0,0,0,0,0,0,0,0,0,0,0,0,0,0,0,0,0,0,0,0,0,0,0,0,0,0,0,0,0,0,0,0,0,0,0,0,0,0,0,0,0,0,0,0,0,0,0,0,0,0,0,0,0,0,0,0,0,0,0,0,0,0,0,0,0,0,0,0,0,0,0,0,0,0,0,0,0,0,0,0,0,0,0,0,0,0,0,0,0,0,0,0,0,0,0,0,0,0,0,0,0,0,0,0,0,0,0,0,0,0,0,0,0,0,0,0,0,0,0,0,0,0,0,0,0,0,0,0,0,0,0,0,0,0,0,0,0,0,0,0,0,0,0,0,0,0,0,0,0,0,0,0,0,0,0,0,0,0,0,0,0,0,0,0,0,0,0,0,0,0,0,0,0,0,0,0,0,0,0,0,0,0,0,0,0,0,0,0,0,0,0,0,0,0,0,0,0,0,0,0,0,0,0,0,0,0,0,0,0,0,0,0,0,0,0,0,0,0,0,0,0,0,0,0,0,0,0,0,0,0,0,0,0,0,0,0,0,0,0,0,0,0,0,0,0,0,0,0,0,0,0,0,0,0,0,0,0,0,0,0,0,0,0,0,0,0,0,0,0,0,0,0,0,0,0,0,0,0,0,0,0,0,0,0,0,0,0,0,0,0,0,0,0,0,0,0,0,0,0,0,0,0,0,0,0,0,0,0,0,0,0,0,0,0,0,0,0,0,0,0,0,0,0,0,0,0,0,0,0,0,0,0,0,0,0,0,0,0,0,0,0,0,0,0,0,0,0,0,0,0,0,0,0,0,0,0,0,0,0,0,0,0,0,0,0,0,0,0,0,0,0,0,0,0,0,0,0,0,0,0,0,0,0,0,0,0,0,0,0,0,0,0,0,0,0,0,0,0,0,0,0,0,0,0,0,0,0,0,0,0,0,0,0,0,0,0,0,0,0,0,0,0,0,0,0,0,0,0,0,0,0,0,0,0,0,0,0,0,0,0,0,0,0,0,0,0,0,0,0,0,0,0,0,0,0,0,0,0,0,0,0,0,0,0,0,0,0,0,0,0,0,0,0,0,0,0,0,0,0,0,0,0,0,0,0,0,0,0,0,0,0,0,0,0,0,0,0,0,0,0,0,0,0,0,0,0,0,0,0,0,0,0,0,0,0,0,0,0,0,0,0,0,0,0,0,0,0,0,0,0,0,0,0,0,0,0,0,0,0,0,0,0,0,0,0,0,0,0,0,0,0,0,0,0,0,0,0,0,0,0,0,0,0,0,0,0,0,0,0,0,0,0,0,0,0,0,0,0,0,0,0,0,0,0,0,0,0,0,0,0,0,0,0,0,0,0,0,0,0,0,0,0,0,0,0,0,0,0,0,0,0,0,0,0,0,0,0,0,0,0,0,0,0,0,0,0,0,0,0,0,0,0,0,0,0,0,0,0,0,0,0,0,0,0,0,0,0,0,0,0,0,0,0,0,0,0,0,0,0,0,0,0,0,0,0,0,0,0,0,0,0,0,0,0,0,0,0,0,0,0,0,0,0,0,0,0,0,0,0,0,0,0,0,0,0,0,0,0,0,0,0,0,0,0,0,0,0,0,0,0,0,0,0,0,0,0,0,0,0,0,0,0,0,0,0,0,0,0,0,0,0,0,0,0,0,0,0,0,0,0,0,0,0,0,0,0,0,0,0,0,0,0,0,0,0,0,0,0,0,0,0,0,0,0,0,0,0,0,0,0,0,0,0,0,0,0,0,0,0,0,0,0,0,0,0,0,0,0,0,0,0,0,0,0,0,0,0,0,0,0,0,0,0,0,0,0,0,0,0,0,0,0,0,0,0,0,0,0,0,0,0,0,0,0,0,0,0,0,0,0,0,0,0,0,0,0,0,0,0,0,0,0,0,0,0,0,0,0,0,0,0,0,0,0,0,0,0,0,0,0,0,0,0,0,0,0,0,0,0,0,0,0,0,0,0,0,0,0,0,0,0,0,0,0,0,0,0,0,0,0,0,0,0,0,0,0,0,0,0,0,0,0,0,0,0,0,0,0,0,0,0,0,0,0,0,0,0,0,0,0,0,0,0,0,0,0,0,0,0,0,0,0,0,0,0,0,0,0,0,0,0,0,0,0,0,0,0,0,0,0,0,0,0,0,0,0,0,0,0,0,0,0,0,0,0,0,0,0,0,0,0,0,0,0,0,0,0,0,0,0,0,0,0,0,0,0,0,0,0,0,0,0,0,0,0,0,0,0,0,0,0,0,0,0,0,0,0,0,0,0,0,0,0,0,0,0,0,0,0,0,0,0,0,0,0,0,0,0,0,0,0,0,0,0,0,0,0,0,0,0,0,0,0,0,0,0,0,0,0,0,0,0,0,0,0,0,0,0,0,0,0,0,0,0,0,0,0,0,0,0,0,0,0,0,0,0,0,0,0,0,0,0,0,0,0,0,0,0,0,0,0,0,0,0,0,0,0,0,0,0,0,0,0,0,0,0,0,0,0,0,0,0,0,0,0,0,0,0,0,0,0,0,0,0,0,0,0,0,0,0,0,0,0,0,0,0,0,0,0,0,0,0,0,0,0,0,0,0,0,0,0,0,0,0,0,0,0,0,0,0,0,0,0,0,0,0,0,0,0,0,0,0,0,0,0,0,0,0,0,0,0,0,0,0,0,0,0,0,0,0,0,0,0,0,0,0,0,0,0,0,0,0,0,0,0,0,0,0,0,0,0,0,0,0,0,0,0,0,0,0,0,0,0,0,0,0,0,0,0,0,0,0,0,0,0,0,0,0,0,0,0,0,0,0,0,0,0,0,0,0,0,0,0,0,0,0,0,0,0,0,0,0,0,0,0,0,0,0,0,0,0,0,0,0,0,0,0,0,0,0,0,0,0,0,0,0,0,0,0,0,0,0,0,0,0,0,0,0,0,0,0,0,0,0,0,0,0,0,0,0,0,0,0,0,0,0,0,0,0,0,0,0,0,0,0,0,0,0,0,0,0,0,0,0,0,0,0,0,0,0,0,0,0,0,0,0,0,0,0,0,0,0,0,0,0,0,0,0,0,0,0,0,0,0,0,0,0,0,0,0,0,0,0,0,0,0,0,0,0,0,0,0,0,0,0,0,0,0,0,0,0,0,0,0,0,0,0,0,0,0,0,0,0,0,0,0,0,0,0,0,0,0,0,0,0,0,0,0,0,0,0,0,0,0,0,0,0,0,0,0,0,0,0,0,0,0,0,0,0,0,0,0,0,0,0,0,0,0,0,0,0,0,0,0,0,0,0,0,0,0,0,0,0,0,0,0,0,0,0,0,0,0,0,0,0,0,0,0,0,0,0,0,0,0,0,0,0,0,0,0,0,0,0,0,0,0,0,0,0,0,0,0,0,0,0,0,0,0,0,0,0,0,0,0,0,0,0,0,0,0,0,0,0,0,0,0,0,0,0,0,0,0,0,0,0,0,0,0,0,0,0,0,0,0,0,0,0],"trees":[{"base_weights":[9.699097E-4,-1.9831483E-1,3.3259755E-1,-3.3471972E-1,-1.1436123E-2,1.9875063E-1,5.997866E-1,-5.5494124E-1,-2.6196575E-1,-1.0689771E-1,2.4787936E-1,6.452112E-2,2.908939E-1,1.4288113E-2,6.6792035E-1,-3.1103518E-2,-1.5461694E-2,-1.4030259E-2,-8.099354E-3,-1.0054723E-2,-4.5846996E-4,5.874633E-3,1.7611157E-2,-1.3382944E-3,8.089085E-3,5.9727672E-3,1.6928634E-2,2.1044305E-2,3.200157E-2],"categories":[],"categories_nodes":[],"categories_segments":[],"categories_sizes":[],"default_left":[0,0,0,0,0,0,0,0,0,0,0,0,0,0,0,0,0,0,0,0,0,0,0,0,0,0,0,0,0],"id":0,"left_children":[1,3,5,7,9,11,13,15,17,19,21,23,25,-1,27,-1,-1,-1,-1,-1,-1,-1,-1,-1,-1,-1,-1,-1,-1],"loss_changes":[7.941327E1,1.9070732E1,1.5773563E1,6.519081E0,7.941283E0,3.676095E0,2.0875397E0,2.7901459E0,1.3810902E0,2.8610754E0,1.367156E0,1.5503988E0,2.6515732E0,0E0,6.758919E-1,0E0,0E0,0E0,0E0,0E0,0E0,0E0,0E0,0E0,0E0,0E0,0E0,0E0,0E0],"parents":[2147483647,0,0,1,1,2,2,3,3,4,4,5,5,6,6,7,7,8,8,9,9,10,10,11,11,12,12,14,14],"right_children":[2,4,6,8,10,12,14,16,18,20,22,24,26,-1,28,-1,-1,-1,-1,-1,-1,-1,-1,-1,-1,-1,-1,-1,-1],"split_conditions":[1.986E3,1E0,6.5E2,1.953E3,1.74E3,1.484E3,1.661E3,1.124E3,9.86E2,4E2,1.498E3,1.225E3,9.76E2,1.4288113E-2,1.414E3,-3.1103518E-2,-1.5461694E-2,-1.4030259E-2,-8.099354E-3,-1.0054723E-2,-4.5846996E-4,5.874633E-3,1.7611157E-2,-1.3382944E-3,8.089085E-3,5.9727672E-3,1.6928634E-2,2.1044305E-2,3.200157E-2],"split_indices":[5,29,33,6,20,20,20,20,17,33,17,17,17,0,17,0,0,0,0,0,0,0,0,0,0,0,0,0,0],"split_type":[0,0,0,0,0,0,0,0,0,0,0,0,0,0,0,0,0,0,0,0,0,0,0,0,0,0,0,0,0],"sum_hessian":[1.197E3,7.48E2,4.49E2,4.31E2,3.17E2,3.02E2,1.47E2,1.03E2,3.28E2,2.33E2,8.4E1,1.25E2,1.77E2,3.3E1,1.14E2,5.1E1,5.2E1,1.67E2,1.61E2,9.8E1,1.35E2,5.3E1,3.1E1,7.1E1,5.4E1,7.5E1,1.02E2,4.1E1,7.3E1],"tree_param":{"num_deleted":"0","num_feature":"299","num_nodes":"29","size_leaf_vector":"1"}},{"base_weights":[6.7094667E-3,-1.8051392E-1,3.2911122E-1,-5.000025E-1,-1.21610664E-1,1.7243072E-1,5.396284E-1,-6.166791E-1,-1.2373655E-2,-2.498692E-1,-2.3681954E-2,1.18380316E-1,3.5219675E-1,3.8040784E-1,7.096856E-1,-3.0778192E-2,-1.6059501E-2,-1.6026463E-2,-8.406009E-3,-5.761362E-3,2.5852646E-3,-3.8807414E-4,7.399256E-3,6.0686544E-3,1.6612945E-2,8.929151E-3,1.9725401E-2,2.1981718E-2,3.417359E-2],"categories":[],"categories_nodes":[],"categories_segments":[],"categories_sizes":[],"default_left":[0,0,0,0,0,0,0,0,0,0,0,0,0,0,0,0,0,0,0,0,0,0,0,0,0,0,0,0,0],"id":1,"left_children":[1,3,5,7,9,11,13,15,-1,17,19,21,23,25,27,-1,-1,-1,-1,-1,-1,-1,-1,-1,-1,-1,-1,-1,-1],"loss_changes":[7.066164E1,1.3717642E1,1.3895424E1,2.303709E0,7.842432E0,2.2800198E0,4.204632E0,1.0349503E0,0E0,1.5726128E0,3.3796868E0,1.3883975E0,2.3882389E-1,1.0777779E0,4.2263412E-1,0E0,0E0,0E0,0E0,0E0,0E0,0E0,0E0,0E0,0E0,0E0,0E0,0E0,0E0],"parents":[2147483647,0,0,1,1,2,2,3,3,4,4,5,5,6,6,7,7,9,9,10,10,11,11,12,12,13,13,14,14],"right_children":[2,4,6,8,10,12,14,16,-1,18,20,22,24,26,28,-1,-1,-1,-1,-1,-1,-1,-1,-1,-1,-1,-1,-1,-1],"split_conditions":[7E0,5E0,8E0,8.6E2,2E0,7.62E2,1.866E3,1.164E3,-1.2373655E-2,1.6E1,1.355E3,7.875E3,1.473E3,1.408E3,1.288E3,-3.0778192E-2,-1.6059501E-2,-1.6026463E-2,-8.406009E-3,-5.761362E-3,2.5852646E-3,-3.8807414E-4,7.399256E-3,6.0686544E-3,1.6612945E-2,8.929151E-3,1.9725401E-2,2.1981718E-2,3.417359E-2],"split_indices":[3,3,3,15,32,12,20,20,0,12,20,1,20,15,17,0,0,0,0,0,0,0,0,0,0,0,0,0,0],"split_type":[0,0,0,0,0,0,0,0,0,0,0,0,0,0,0,0,0,0,0,0,0,0,0,0,0,0,0,0,0],"sum_hessian":[1.166E3,7.38E2,4.28E2,1.12E2,6.26E2,2.48E2,1.8E2,6.9E1,4.3E1,2.69E2,3.57E2,1.94E2,5.4E1,9.7E1,8.3E1,4.5E1,2.4E1,7.6E1,1.93E2,1.54E2,2.03E2,5.8E1,1.36E2,1E1,4.4E1,3.4E1,6.3E1,3.1E1,5.2E1],"tree_param":{"num_deleted":"0","num_feature":"299","num_nodes":"29","size_leaf_vector":"1"}},{"base_weights":[3.03466E-4,-1.8777259E-1,3.245971E-1,-3.1884181E-1,-2.9292023E-2,1.23115405E-1,4.8347753E-1,-4.9171758E-1,-2.1737619E-1,-1.0568457E-1,7.902993E-2,-2.324825E-3,2.3599587E-1,2.5084567E-1,5.729885E-1,-1.6469002E-2,-3.0335812E-2,-1.3531599E-2,-6.199582E-3,-5.9982883E-3,1.6651321E-3,1.7941555E-3,1.342793E-2,-5.2125314E-3,1.787528E-3,6.2710075E-3,1.2706624E-2,3.301235E-3,1.2870127E-2,2.0452967E-2,3.14048E-2],"categories":[],"categories_nodes":[],"categories_segments":[],"categories_sizes":[],"default_left":[0,0,0,0,0,0,0,0,0,0,0,0,0,0,0,0,0,0,0,0,0,0,0,0,0,0,0,0,0,0,0],"id":2,"left_children":[1,3,5,7,9,11,13,15,17,19,21,23,25,27,29,-1,-1,-1,-1,-1,-1,-1,-1,-1,-1,-1,-1,-1,-1,-1,-1],"loss_changes":[7.079038E1,1.5185793E1,1.3435688E1,6.713543E0,2.7952833E0,2.7380188E0,4.520241E0,2.657341E0,1.6845818E0,1.0137603E0,1.1384313E0,5.0715595E-1,4.004035E-1,5.10283E-1,1.6661301E0,0E0,0E0,0E0,0E0,0E0,0E0,0E0,0E0,0E0,0E0,0E0,0E0,0E0,0E0,0E0,0E0],"parents":[2147483647,0,0,1,1,2,2,3,3,4,4,5,5,6,6,7,7,8,8,9,9,10,10,11,11,12,12,13,13,14,14],"right_children":[2,4,6,8,10,12,14,16,18,20,22,24,26,28,30,-1,-1,-1,-1,-1,-1,-1,-1,-1,-1,-1,-1,-1,-1,-1,-1],"split_conditions":[3E0,1.35E3,1.627E3,1.38E2,3.9E2,1.253E3,1.085E3,1E0,9.32E2,1.873E3,2.153E3,1.114E3,1.416E3,1.756E3,4E0,-1.6469002E-2,-3.0335812E-2,-1.3531599E-2,-6.199582E-3,-5.9982883E-3,1.6651321E-3,1.7941555E-3,1.342793E-2,-5.2125314E-3,1.787528E-3,6.2710075E-3,1.2706624E-2,3.301235E-3,1.2870127E-2,2.0452967E-2,3.14048E-2],"split_indices":[8,20,20,12,12,17,17,231,17,20,20,20,20,20,27,0,0,0,0,0,0,0,0,0,0,0,0,0,0,0,0],"split_type":[0,0,0,0,0,0,0,0,0,0,0,0,0,0,0,0,0,0,0,0,0,0,0,0,0,0,0,0,0,0,0],"sum_hessian":[1.156E3,7.32E2,4.24E2,3.99E2,3.33E2,1.89E2,2.35E2,1.44E2,2.55E2,1.96E2,1.37E2,9E1,9.9E1,6.8E1,1.67E2,1.01E2,4.3E1,1.04E2,1.51E2,1.59E2,3.7E1,1.21E2,1.6E1,2.4E1,6.6E1,4.4E1,5.5E1,1.7E1,5.1E1,1.11E2,5.6E1],"tree_param":{"num_deleted":"0","num_feature":"299","num_nodes":"31","size_leaf_vector":"1"}},{"base_weights":[-8.1167575E-3,-1.901383E-1,3.1383687E-1,-4.822936E-1,-1.3089766E-1,1.748582E-1,4.9218076E-1,-5.860308E-1,-3.0026993E-1,-2.1786413E-1,-1.7172197E-2,5.362845E-2,2.4338809E-1,4.0035075E-1,3.1243283E-2,-2.7244858E-2,-1.5960695E-2,-1.5041309E-2,-6.638972E-3,-1.3007547E-2,-6.093418E-3,-2.9638195E-3,4.5110267E-3,-2.185096E-3,5.371516E-3,6.1293393E-3,1.4101331E-2,1.2964141E-2,2.263374E-2],"categories":[],"categories_nodes":[],"categories_segments":[],"categories_sizes":[],"default_left":[0,0,0,0,0,0,0,0,0,0,0,0,0,0,0,0,0,0,0,0,0,0,0,0,0,0,0,0,0],"id":3,"left_children":[1,3,5,7,9,11,13,15,17,19,21,23,25,27,-1,-1,-1,-1,-1,-1,-1,-1,-1,-1,-1,-1,-1,-1,-1],"loss_changes":[7.1444695E1,1.3269875E1,1.0637638E1,1.9611759E0,6.4023733E0,2.0205498E0,3.3969421E0,2.1940231E-1,2.0474005E-1,2.2418556E0,1.8330177E0,7.3264277E-1,1.2106266E0,1.337368E0,0E0,0E0,0E0,0E0,0E0,0E0,0E0,0E0,0E0,0E0,0E0,0E0,0E0,0E0,0E0],"parents":[2147483647,0,0,1,1,2,2,3,3,4,4,5,5,6,6,7,7,8,8,9,9,10,10,11,11,12,12,13,13],"right_children":[2,4,6,8,10,12,14,16,18,20,22,24,26,28,-1,-1,-1,-1,-1,-1,-1,-1,-1,-1,-1,-1,-1,-1,-1],"split_conditions":[7E0,5E0,8E0,8E2,1.362E3,1.478E3,9E0,1.164E3,1.097E3,4E2,3E0,1.149E3,1.024E3,1.955E3,3.1243283E-2,-2.7244858E-2,-1.5960695E-2,-1.5041309E-2,-6.638972E-3,-1.3007547E-2,-6.093418E-3,-2.9638195E-3,4.5110267E-3,-2.185096E-3,5.371516E-3,6.1293393E-3,1.4101331E-2,1.2964141E-2,2.263374E-2],"split_indices":[3,3,3,15,20,20,3,20,17,12,27,15,15,20,0,0,0,0,0,0,0,0,0,0,0,0,0,0,0],"split_type":[0,0,0,0,0,0,0,0,0,0,0,0,0,0,0,0,0,0,0,0,0,0,0,0,0,0,0,0,0],"sum_hessian":[1.215E3,7.77E2,4.38E2,1.28E2,6.49E2,2.49E2,1.89E2,7.8E1,5E1,3.66E2,2.83E2,9.2E1,1.57E2,1.41E2,4.8E1,5.9E1,1.9E1,3.4E1,1.6E1,1.67E2,1.99E2,2E2,8.3E1,3.7E1,5.5E1,7.6E1,8.1E1,8.5E1,5.6E1],"tree_param":{"num_deleted":"0","num_feature":"299","num_nodes":"29","size_leaf_vector":"1"}},{"base_weights":[-5.0097774E-3,-1.6749693E-1,2.9157135E-1,-3.5386392E-1,-7.3678695E-2,1.724627E-1,5.6853783E-1,-2.798198E-1,-7.5337416E-1,-1.7383519E-1,9.440388E-3,3.2474663E-2,2.4645796E-1,1.3181427E-2,6.3948566E-1,-1.7376633E-2,-8.399495E-3,-2.5012022E-2,-4.8494015E-2,-5.9221014E-3,-1.6284566E-2,-1.769678E-3,7.715834E-3,-2.0979454E-3,8.61242E-3,5.071004E-3,1.4060707E-2,1.9480728E-2,3.0955276E-2],"categories":[],"categories_nodes":[],"categories_segments":[],"categories_sizes":[],"default_left":[0,0,0,0,0,0,0,0,0,0,0,0,0,0,0,0,0,0,0,0,0,0,0,0,0,0,0,0,0],"id":4,"left_children":[1,3,5,7,9,11,13,15,17,19,21,23,25,-1,27,-1,-1,-1,-1,-1,-1,-1,-1,-1,-1,-1,-1,-1,-1],"loss_changes":[5.6820187E1,1.3215223E1,1.3454178E1,6.927305E0,4.271719E0,3.0047264E0,1.7439804E0,2.0505924E0,7.835598E-1,1.5195465E0,2.4664824E0,1.4882599E0,1.8785295E0,0E0,6.033287E-1,0E0,0E0,0E0,0E0,0E0,0E0,0E0,0E0,0E0,0E0,0E0,0E0,0E0,0E0],"parents":[2147483647,0,0,1,1,2,2,3,3,4,4,5,5,6,6,7,7,8,8,9,9,10,10,11,11,12,12,14,14],"right_children":[2,4,6,8,10,12,14,16,18,20,22,24,26,-1,28,-1,-1,-1,-1,-1,-1,-1,-1,-1,-1,-1,-1,-1,-1],"split_conditions":[3E0,1.096E3,3E0,1E0,1E0,1.057E3,1.716E3,8.94E2,1E0,1E0,1.789E3,1.712E3,1.484E3,1.3181427E-2,1.414E3,-1.7376633E-2,-8.399495E-3,-2.5012022E-2,-4.8494015E-2,-5.9221014E-3,-1.6284566E-2,-1.769678E-3,7.715834E-3,-2.0979454E-3,8.61242E-3,5.071004E-3,1.4060707E-2,1.9480728E-2,3.0955276E-2],"split_indices":[8,20,32,231,29,17,20,17,293,231,20,20,20,0,17,0,0,0,0,0,0,0,0,0,0,0,0,0,0],"split_type":[0,0,0,0,0,0,0,0,0,0,0,0,0,0,0,0,0,0,0,0,0,0,0,0,0,0,0,0,0],"sum_hessian":[1.175E3,7.6E2,4.15E2,2.52E2,5.08E2,2.93E2,1.22E2,2.16E2,3.6E1,2.3E2,2.78E2,1.03E2,1.9E2,2.9E1,9.3E1,8.2E1,1.34E2,2.9E1,7E0,2E2,3E1,2.15E2,6.3E1,7E1,3.3E1,7.7E1,1.13E2,3.4E1,5.9E1],"tree_param":{"num_deleted":"0","num_feature":"299","num_nodes":"29","size_leaf_vector":"1"}},{"base_weights":[9.937917E-3,-1.6923115E-1,2.9422975E-1,-4.5247734E-1,-1.1727775E-1,1.5666072E-1,4.6209282E-1,-5.1592404E-1,-7.263158E-3,-2.2107115E-1,-3.0867115E-2,6.989788E-2,2.2820769E-1,3.6020812E-1,2.5272349E-2,-2.7378526E-2,-1.6325815E-2,-1.2540465E-2,-6.925775E-3,4.7607318E-4,-8.911216E-3,-3.0606793E-4,5.6821657E-3,7.5592236E-3,1.2916435E-2,2.6395381E-3,1.6336516E-2],"categories":[],"categories_nodes":[],"categories_segments":[],"categories_sizes":[],"default_left":[0,0,0,0,0,0,0,0,0,0,0,0,0,0,0,0,0,0,0,0,0,0,0,0,0,0,0],"id":5,"left_children":[1,3,5,7,9,11,13,15,-1,17,19,21,23,25,-1,-1,-1,-1,-1,-1,-1,-1,-1,-1,-1,-1,-1],"loss_changes":[6.074827E1,1.0571493E1,1.0413246E1,1.7338676E0,5.524393E0,1.5237756E0,2.1154633E0,8.3893204E-1,0E0,1.037529E0,2.5794296E0,6.005911E-1,3.5112143E-1,6.7409515E-1,0E0,0E0,0E0,0E0,0E0,0E0,0E0,0E0,0E0,0E0,0E0,0E0,0E0],"parents":[2147483647,0,0,1,1,2,2,3,3,4,4,5,5,6,6,7,7,9,9,10,10,11,11,12,12,13,13],"right_children":[2,4,6,8,10,12,14,16,-1,18,20,22,24,26,-1,-1,-1,-1,-1,-1,-1,-1,-1,-1,-1,-1,-1],"split_conditions":[7E0,5E0,8E0,1.155E3,2E0,5.1E2,4E0,1.947E3,-7.263158E-3,6.1E1,1E0,9.76E2,1.59E2,9.96E2,2.5272349E-2,-2.7378526E-2,-1.6325815E-2,-1.2540465E-2,-6.925775E-3,4.7607318E-4,-8.911216E-3,-3.0606793E-4,5.6821657E-3,7.5592236E-3,1.2916435E-2,2.6395381E-3,1.6336516E-2],"split_indices":[3,3,3,17,32,33,10,31,0,0,67,17,36,17,0,0,0,0,0,0,0,0,0,0,0,0,0],"split_type":[0,0,0,0,0,0,0,0,0,0,0,0,0,0,0,0,0,0,0,0,0,0,0,0,0,0,0],"sum_hessian":[1.188E3,7.29E2,4.59E2,1.1E2,6.19E2,2.55E2,2.04E2,8.8E1,2.2E1,2.79E2,3.4E2,1.18E2,1.37E2,1.19E2,8.5E1,4.1E1,4.7E1,1.21E2,1.58E2,2.76E2,6.4E1,5.3E1,6.5E1,8.6E1,5.1E1,9E0,1.1E2],"tree_param":{"num_deleted":"0","num_feature":"299","num_nodes":"27","size_leaf_vector":"1"}},{"base_weights":[-8.460222E-3,-1.9943272E-1,1.8650106E-1,-4.7666538E-1,-1.576463E-1,1.1168025E-1,4.6165264E-1,-6.118605E-1,-2.2596699E-1,-2.4749076E-1,-7.56827E-2,-2.9151777E-3,1.8822882E-1,3.427672E-1,2.6708508E-2,-2.8865185E-2,-1.23998625E-2,-1.347999E-2,-5.4654037E-3,-1.5101034E-2,-8.308972E-3,-4.6173106E-3,5.9739803E-3,-5.035567E-3,3.0509608E-3,3.5611463E-3,1.1371727E-2,4.3747355E-3,1.5466826E-2],"categories":[],"categories_nodes":[],"categories_segments":[],"categories_sizes":[],"default_left":[0,0,0,0,0,0,0,0,0,0,0,0,0,0,0,0,0,0,0,0,0,0,0,0,0,0,0,0,0],"id":6,"left_children":[1,3,5,7,9,11,13,15,17,19,21,23,25,27,-1,-1,-1,-1,-1,-1,-1,-1,-1,-1,-1,-1,-1,-1,-1],"loss_changes":[4.4805695E1,6.800787E0,1.2067612E1,2.241415E0,3.8370085E0,4.158033E0,1.8487339E0,4.448185E-1,1.287173E-1,1.197959E0,1.9873605E0,1.6444459E0,2.213295E0,2.1251297E-1,0E0,0E0,0E0,0E0,0E0,0E0,0E0,0E0,0E0,0E0,0E0,0E0,0E0,0E0,0E0],"parents":[2147483647,0,0,1,1,2,2,3,3,4,4,5,5,6,6,7,7,8,8,9,9,10,10,11,11,12,12,13,13],"right_children":[2,4,6,8,10,12,14,16,18,20,22,24,26,28,-1,-1,-1,-1,-1,-1,-1,-1,-1,-1,-1,-1,-1,-1,-1],"split_conditions":[3E0,2E0,3E0,7E0,6.9E1,3E0,4E0,3.51E2,1.966E3,3E0,7.55E2,2E0,1E0,1E0,2.6708508E-2,-2.8865185E-2,-1.23998625E-2,-1.347999E-2,-5.4654037E-3,-1.5101034E-2,-8.308972E-3,-4.6173106E-3,5.9739803E-3,-5.035567E-3,3.0509608E-3,3.5611463E-3,1.1371727E-2,4.3747355E-3,1.5466826E-2],"split_indices":[10,35,32,28,0,8,27,12,6,25,18,23,29,134,0,0,0,0,0,0,0,0,0,0,0,0,0,0,0],"split_type":[0,0,0,0,0,0,0,0,0,0,0,0,0,0,0,0,0,0,0,0,0,0,0,0,0,0,0,0,0],"sum_hessian":[1.199E3,6.06E2,5.93E2,7.6E1,5.3E2,4.69E2,1.24E2,4.7E1,2.9E1,2.5E2,2.8E2,1.88E2,2.81E2,7.6E1,4.8E1,3.7E1,1E1,1.2E1,1.7E1,7.9E1,1.71E2,2.45E2,3.5E1,7.4E1,1.14E2,1.22E2,1.59E2,7E0,6.9E1],"tree_param":{"num_deleted":"0","num_feature":"299","num_nodes":"29","size_leaf_vector":"1"}},{"base_weights":[5.539912E-3,-1.596805E-1,2.698151E-1,-4.3369457E-1,-1.1209322E-1,1.6016363E-1,4.125344E-1,-3.3583704E-2,-3.4215313E-1,-1.7757922E-1,-2.9800865E-3,4.9165774E-2,2.1271521E-1,2.1529257E-1,4.8847264E-1,-1.579864E-2,-4.033661E-3,-1.0920107E-2,-4.474846E-3,-4.0307967E-3,2.6252333E-3,-1.1811934E-3,4.634704E-3,5.8347587E-3,1.1915722E-2,4.0864074E-3,1.2072071E-2,1.679648E-2,2.5233096E-2],"categories":[],"categories_nodes":[],"categories_segments":[],"categories_sizes":[],"default_left":[0,0,0,0,0,0,0,0,0,0,0,0,0,0,0,0,0,0,0,0,0,0,0,0,0,0,0,0,0],"id":7,"left_children":[1,3,5,7,9,11,13,-1,15,17,19,21,23,25,27,-1,-1,-1,-1,-1,-1,-1,-1,-1,-1,-1,-1,-1,-1],"loss_changes":[5.19886E1,9.371828E0,6.95319E0,2.71632E0,4.457374E0,1.4790602E0,2.6342926E0,0E0,4.6409702E-1,2.1130934E0,1.4148242E0,4.1730198E-1,7.541485E-1,3.671322E-1,7.310028E-1,0E0,0E0,0E0,0E0,0E0,0E0,0E0,0E0,0E0,0E0,0E0,0E0,0E0,0E0],"parents":[2147483647,0,0,1,1,2,2,3,3,4,4,5,5,6,6,8,8,9,9,10,10,11,11,12,12,13,13,14,14],"right_children":[2,4,6,8,10,12,14,-1,16,18,20,22,24,26,28,-1,-1,-1,-1,-1,-1,-1,-1,-1,-1,-1,-1,-1,-1],"split_conditions":[7E0,5E0,8E0,8.64E2,1.422E3,1.494E3,1.608E3,-3.3583704E-2,1.298E3,1E0,1E0,1.19E3,1.024E3,1.286E3,1.2144E4,-1.579864E-2,-4.033661E-3,-1.0920107E-2,-4.474846E-3,-4.0307967E-3,2.6252333E-3,-1.1811934E-3,4.634704E-3,5.8347587E-3,1.1915722E-2,4.0864074E-3,1.2072071E-2,1.679648E-2,2.5233096E-2],"split_indices":[3,3,3,20,20,20,20,0,17,247,29,15,15,15,1,0,0,0,0,0,0,0,0,0,0,0,0,0,0],"split_type":[0,0,0,0,0,0,0,0,0,0,0,0,0,0,0,0,0,0,0,0,0,0,0,0,0,0,0,0,0],"sum_hessian":[1.186E3,7.3E2,4.56E2,1.05E2,6.25E2,2.61E2,1.95E2,1.8E1,8.7E1,3.89E2,2.36E2,8.6E1,1.75E2,5.7E1,1.38E2,7.7E1,1E1,1.85E2,2.04E2,9.8E1,1.38E2,3.7E1,4.9E1,8.5E1,9E1,2.3E1,3.4E1,7.7E1,6.1E1],"tree_param":{"num_deleted":"0","num_feature":"299","num_nodes":"29","size_leaf_vector":"1"}},{"base_weights":[4.8308223E-3,-1.6508666E-1,2.0097491E-1,-2.5341275E-1,-1.9698713E-2,1.0039931E-1,4.5644137E-1,-2.0051576E-1,-4.891444E-1,-1.9692737E-1,2.0691695E-2,-1.3362657E-1,1.4731392E-1,3.8567358E-1,2.7482279E-2,-1.0089083E-2,-4.07355E-3,-2.8346574E-2,-1.4583483E-2,-1.1656824E-2,-5.1494096E-3,-1.0875225E-3,5.1616468E-3,-8.858369E-3,1.1398228E-3,3.775035E-3,1.13874E-2,1.0232007E-2,1.8087663E-2],"categories":[],"categories_nodes":[],"categories_segments":[],"categories_sizes":[],"default_left":[0,0,0,0,0,0,0,0,0,0,0,0,0,0,0,0,0,0,0,0,0,0,0,0,0,0,0,0,0],"id":8,"left_children":[1,3,5,7,9,11,13,15,17,19,21,23,25,27,-1,-1,-1,-1,-1,-1,-1,-1,-1,-1,-1,-1,-1,-1,-1],"loss_changes":[3.8910675E1,7.982731E0,1.3759853E1,4.538555E0,1.7434607E0,4.3506308E0,1.330101E0,1.1024961E0,1.157999E0,1.3974679E-1,9.2292905E-1,8.136928E-1,2.2078981E0,3.2623863E-1,0E0,0E0,0E0,0E0,0E0,0E0,0E0,0E0,0E0,0E0,0E0,0E0,0E0,0E0,0E0],"parents":[2147483647,0,0,1,1,2,2,3,3,4,4,5,5,6,6,7,7,8,8,9,9,10,10,11,11,12,12,13,13],"right_children":[2,4,6,8,10,12,14,16,18,20,22,24,26,28,-1,-1,-1,-1,-1,-1,-1,-1,-1,-1,-1,-1,-1,-1,-1],"split_conditions":[3E0,1E0,3E0,1E0,7.175E3,2E0,1.856E3,2E0,6E0,6E0,3E0,2E0,1.365E3,8.6E1,2.7482279E-2,-1.0089083E-2,-4.07355E-3,-2.8346574E-2,-1.4583483E-2,-1.1656824E-2,-5.1494096E-3,-1.0875225E-3,5.1616468E-3,-8.858369E-3,1.1398228E-3,3.775035E-3,1.13874E-2,1.0232007E-2,1.8087663E-2],"split_indices":[27,29,32,231,1,32,17,23,28,28,10,30,17,7,0,0,0,0,0,0,0,0,0,0,0,0,0,0,0],"split_type":[0,0,0,0,0,0,0,0,0,0,0,0,0,0,0,0,0,0,0,0,0,0,0,0,0,0,0,0,0],"sum_hessian":[1.163E3,6.23E2,5.4E2,3.86E2,2.37E2,3.9E2,1.5E2,3.19E2,6.7E1,4.3E1,1.94E2,6.4E1,3.26E2,1.14E2,3.6E1,2.36E2,8.3E1,2.7E1,4E1,1.8E1,2.5E1,1.33E2,6.1E1,4.4E1,2E1,2.21E2,1.05E2,2.7E1,8.7E1],"tree_param":{"num_deleted":"0","num_feature":"299","num_nodes":"29","size_leaf_vector":"1"}},{"base_weights":[-1.6904803E-3,-1.4585763E-1,2.1042801E-1,-2.4917346E-1,1.8099612E-3,1.3155963E-1,4.2152643E-1,-1.957408E-1,-5.021999E-1,-6.672123E-2,1.4002079E-1,4.8925437E-2,1.984624E-1,3.1835783E-1,2.258917E-2,-7.4631036E-3,-1.8073356E-2,-2.914479E-2,-1.2593195E-2,-4.2972066E-3,3.6942554E-3,5.655245E-4,9.900792E-3,8.0597814E-4,7.5368416E-3,6.764661E-3,1.3124482E-2,9.3948655E-3,1.6483013E-2],"categories":[],"categories_nodes":[],"categories_segments":[],"categories_sizes":[],"default_left":[0,0,0,0,0,0,0,0,0,0,0,0,0,0,0,0,0,0,0,0,0,0,0,0,0,0,0,0,0],"id":9,"left_children":[1,3,5,7,9,11,13,15,17,19,21,23,25,27,-1,-1,-1,-1,-1,-1,-1,-1,-1,-1,-1,-1,-1,-1,-1],"loss_changes":[3.5476734E1,1.0577409E1,7.620018E0,5.201643E0,2.7403944E0,1.855689E0,9.108658E-1,1.4064875E0,2.0120144E0,1.0125043E0,1.076798E0,5.7350713E-1,6.6173315E-1,2.0205879E-1,0E0,0E0,0E0,0E0,0E0,0E0,0E0,0E0,0E0,0E0,0E0,0E0,0E0,0E0,0E0],"parents":[2147483647,0,0,1,1,2,2,3,3,4,4,5,5,6,6,7,7,8,8,9,9,10,10,11,11,12,12,13,13],"right_children":[2,4,6,8,10,12,14,16,18,20,22,24,26,28,-1,-1,-1,-1,-1,-1,-1,-1,-1,-1,-1,-1,-1,-1,-1],"split_conditions":[1.981E3,1.094E3,6.68E2,1E0,1.2216E4,4.95E2,1.198E4,1E0,7.47E2,6.79E2,6E0,1.338E3,1.505E3,1E0,2.258917E-2,-7.4631036E-3,-1.8073356E-2,-2.914479E-2,-1.2593195E-2,-4.2972066E-3,3.6942554E-3,5.655245E-4,9.900792E-3,8.0597814E-4,7.5368416E-3,6.764661E-3,1.3124482E-2,9.3948655E-3,1.6483013E-2],"split_indices":[5,17,33,231,1,33,1,46,15,18,4,17,15,21,0,0,0,0,0,0,0,0,0,0,0,0,0,0,0],"split_type":[0,0,0,0,0,0,0,0,0,0,0,0,0,0,0,0,0,0,0,0,0,0,0,0,0,0,0,0,0],"sum_hessian":[1.156E3,6.89E2,4.67E2,4.05E2,2.84E2,3.43E2,1.24E2,3.38E2,6.7E1,1.9E2,9.4E1,1.56E2,1.87E2,6.8E1,5.6E1,3.13E2,2.5E1,3.3E1,3.4E1,1.57E2,3.3E1,4.1E1,5.3E1,1.29E2,2.7E1,1.41E2,4.6E1,3.2E1,3.6E1],"tree_param":{"num_deleted":"0","num_feature":"299","num_nodes":"29","size_leaf_vector":"1"}},{"base_weights":[-4.037934E-3,-1.4652216E-1,2.2239028E-1,-2.97093E-1,-4.41656E-2,5.204541E-2,3.202679E-1,-5.455249E-1,-2.2993274E-1,-1.5523176E-1,6.659158E-3,-8.035364E-2,1.3966458E-1,2.4246211E-1,4.7857153E-1,-2.5811102E-2,-6.9897952E-3,-1.6385097E-2,-7.836584E-3,-7.874858E-3,2.0752344E-3,-1.5052098E-3,6.250096E-3,-1.0741565E-2,-1.1936991E-3,7.39431E-3,1.4916826E-4,7.996683E-3,1.4570303E-2,1.4485909E-2,2.3654066E-2],"categories":[],"categories_nodes":[],"categories_segments":[],"categories_sizes":[],"default_left":[0,0,0,0,0,0,0,0,0,0,0,0,0,0,0,0,0,0,0,0,0,0,0,0,0,0,0,0,0,0,0],"id":10,"left_children":[1,3,5,7,9,11,13,15,17,19,21,23,25,27,29,-1,-1,-1,-1,-1,-1,-1,-1,-1,-1,-1,-1,-1,-1,-1,-1],"loss_changes":[3.804041E1,1.108904E1,7.5055466E0,4.5024624E0,2.472071E0,1.9947133E0,3.2044315E0,1.015316E0,1.4510088E0,8.42283E-1,1.7705408E0,5.5977714E-1,4.4219518E-1,8.7391853E-1,4.364605E-1,0E0,0E0,0E0,0E0,0E0,0E0,0E0,0E0,0E0,0E0,0E0,0E0,0E0,0E0,0E0,0E0],"parents":[2147483647,0,0,1,1,2,2,3,3,4,4,5,5,6,6,7,7,8,8,9,9,10,10,11,11,12,12,13,13,14,14],"right_children":[2,4,6,8,10,12,14,16,18,20,22,24,26,28,30,-1,-1,-1,-1,-1,-1,-1,-1,-1,-1,-1,-1,-1,-1,-1,-1],"split_conditions":[3E0,1.144E3,1.576E3,1E0,1.962E3,1.274E3,4E0,1.959E3,1E0,1E0,1.2099E4,1.964E3,1.67E2,2.039E3,1.838E3,-2.5811102E-2,-6.9897952E-3,-1.6385097E-2,-7.836584E-3,-7.874858E-3,2.0752344E-3,-1.5052098E-3,6.250096E-3,-1.0741565E-2,-1.1936991E-3,7.39431E-3,1.4916826E-4,7.996683E-3,1.4570303E-2,1.4485909E-2,2.3654066E-2],"split_indices":[8,20,20,232,6,20,10,31,66,95,1,31,18,20,20,0,0,0,0,0,0,0,0,0,0,0,0,0,0,0,0],"split_type":[0,0,0,0,0,0,0,0,0,0,0,0,0,0,0,0,0,0,0,0,0,0,0,0,0,0,0,0,0,0,0],"sum_hessian":[1.175E3,7.22E2,4.53E2,2.9E2,4.32E2,1.67E2,2.86E2,5.8E1,2.32E2,1.35E2,2.97E2,6.6E1,1.01E2,1.96E2,9E1,4.9E1,9E0,5E1,1.82E2,1.19E2,1.6E1,2.29E2,6.8E1,1.3E1,5.3E1,8E1,2.1E1,1.3E2,6.6E1,3.6E1,5.4E1],"tree_param":{"num_deleted":"0","num_feature":"299","num_nodes":"31","size_leaf_vector":"1"}},{"base_weights":[-5.492218E-3,-1.4531778E-1,2.3834316E-1,-4.3509072E-1,-9.333286E-2,1.5508707E-1,4.1752887E-1,-3.988563E-2,-3.6789703E-1,-1.7690651E-1,-2.4914118E-2,5.5305354E-2,2.1929272E-1,2.4010034E-1,4.83176E-1,-1.8572092E-2,-7.4557285E-3,-1.0872813E-2,-4.7001913E-3,-4.5418153E-3,1.5020913E-3,-1.3342419E-3,4.8398706E-3,5.5820593E-3,1.2461808E-2,2.365338E-3,1.2400283E-2,3.8988104E-3,2.1807665E-2],"categories":[],"categories_nodes":[],"categories_segments":[],"categories_sizes":[],"default_left":[0,0,0,0,0,0,0,0,0,0,0,0,0,0,0,0,0,0,0,0,0,0,0,0,0,0,0,0,0],"id":11,"left_children":[1,3,5,7,9,11,13,-1,15,17,19,21,23,25,27,-1,-1,-1,-1,-1,-1,-1,-1,-1,-1,-1,-1,-1,-1],"loss_changes":[4.129029E1,1.1446064E1,6.3675003E0,2.9665718E0,3.7167926E0,1.8937912E0,1.2641792E0,0E0,1.1181307E0,1.4159098E0,1.792959E0,6.340771E-1,1.0408459E0,3.088076E-1,8.430309E-1,0E0,0E0,0E0,0E0,0E0,0E0,0E0,0E0,0E0,0E0,0E0,0E0,0E0,0E0],"parents":[2147483647,0,0,1,1,2,2,3,3,4,4,5,5,6,6,8,8,9,9,10,10,11,11,12,12,13,13,14,14],"right_children":[2,4,6,8,10,12,14,-1,16,18,20,22,24,26,28,-1,-1,-1,-1,-1,-1,-1,-1,-1,-1,-1,-1,-1,-1],"split_conditions":[7E0,5E0,3E0,3E0,2E0,1.504E3,1.72E3,-3.988563E-2,9.12E2,8.96E2,6E0,1.223E3,1.029E3,1.419E3,1.994E3,-1.8572092E-2,-7.4557285E-3,-1.0872813E-2,-4.7001913E-3,-4.5418153E-3,1.5020913E-3,-1.3342419E-3,4.8398706E-3,5.5820593E-3,1.2461808E-2,2.365338E-3,1.2400283E-2,3.8988104E-3,2.1807665E-2],"split_indices":[3,3,32,3,32,20,20,0,15,15,3,15,15,15,6,0,0,0,0,0,0,0,0,0,0,0,0,0,0],"split_type":[0,0,0,0,0,0,0,0,0,0,0,0,0,0,0,0,0,0,0,0,0,0,0,0,0,0,0,0,0],"sum_hessian":[1.207E3,7.68E2,4.39E2,1.14E2,6.54E2,3.03E2,1.36E2,1E1,1.04E2,2.92E2,3.62E2,1.21E2,1.82E2,4E1,9.6E1,7.5E1,2.9E1,1.32E2,1.6E2,1.54E2,2.08E2,4.8E1,7.3E1,8.5E1,9.7E1,1E1,3E1,7E0,8.9E1],"tree_param":{"num_deleted":"0","num_feature":"299","num_nodes":"29","size_leaf_vector":"1"}},{"base_weights":[-5.6372513E-3,-1.4105813E-1,2.3422706E-1,-3.6532813E-1,-1.0079025E-1,1.8336342E-1,2.3593402E-2,-6.024127E-1,-2.8175074E-1,-1.8072946E-1,-3.0293645E-2,1.3708125E-1,1.4645262E-2,-3.158743E-2,-1.5199033E-2,-1.4753908E-2,-6.446407E-3,-1.0536236E-2,-5.410166E-3,1.6609307E-3,-4.302674E-3,4.3503153E-3,1.164827E-2],"categories":[],"categories_nodes":[],"categories_segments":[],"categories_sizes":[],"default_left":[0,0,0,0,0,0,0,0,0,0,0,0,0,0,0,0,0,0,0,0,0,0,0],"id":12,"left_children":[1,3,5,7,9,11,-1,13,15,17,19,21,-1,-1,-1,-1,-1,-1,-1,-1,-1,-1,-1],"loss_changes":[3.8200954E1,6.6532173E0,6.5296326E0,1.7595911E0,3.5745835E0,2.5521688E0,0E0,2.0098877E-1,5.5273724E-1,9.487791E-1,1.6879401E0,1.2806754E0,0E0,0E0,0E0,0E0,0E0,0E0,0E0,0E0,0E0,0E0,0E0],"parents":[2147483647,0,0,1,1,2,2,3,3,4,4,5,5,7,7,8,8,9,9,10,10,11,11],"right_children":[2,4,6,8,10,12,-1,14,16,18,20,22,-1,-1,-1,-1,-1,-1,-1,-1,-1,-1,-1],"split_conditions":[7E0,5E0,9E0,8.48E2,2E0,2.088E3,2.3593402E-2,1E0,1.2E3,6.1E1,1E0,1.56E3,1.4645262E-2,-3.158743E-2,-1.5199033E-2,-1.4753908E-2,-6.446407E-3,-1.0536236E-2,-5.410166E-3,1.6609307E-3,-4.302674E-3,4.3503153E-3,1.164827E-2],"split_indices":[3,3,3,20,32,20,0,66,20,0,256,17,0,0,0,0,0,0,0,0,0,0,0],"split_type":[0,0,0,0,0,0,0,0,0,0,0,0,0,0,0,0,0,0,0,0,0,0,0],"sum_hessian":[1.172E3,7.5E2,4.22E2,1.11E2,6.39E2,3.67E2,5.5E1,2.5E1,8.6E1,2.97E2,3.42E2,2.88E2,7.9E1,1.3E1,1.2E1,5.5E1,3.1E1,1.3E2,1.67E2,1.72E2,1.7E2,2.32E2,5.6E1],"tree_param":{"num_deleted":"0","num_feature":"299","num_nodes":"23","size_leaf_vector":"1"}},{"base_weights":[4.62579E-4,-1.2457243E-1,2.2098787E-1,-2.0140362E-1,-1.0303362E-2,1.6995713E-1,1.9754779E-2,-3.3594766E-1,-1.4586851E-1,-8.2848914E-2,7.37521E-2,1.2473511E-1,3.288306E-1,-1.9330405E-2,-1.0299808E-2,-1.7969014E-2,-5.565481E-3,-7.7345744E-3,-1.2126154E-3,1.7015776E-3,7.1617817E-3,3.6699108E-3,9.667656E-3,1.47627415E-2,4.8312643E-3],"categories":[],"categories_nodes":[],"categories_segments":[],"categories_sizes":[],"default_left":[0,0,0,0,0,0,0,0,0,0,0,0,0,0,0,0,0,0,0,0,0,0,0,0,0],"id":13,"left_children":[1,3,5,7,9,11,-1,13,15,17,19,21,23,-1,-1,-1,-1,-1,-1,-1,-1,-1,-1,-1,-1],"loss_changes":[3.261408E1,6.589875E0,5.008333E0,3.1954594E0,1.8815727E0,2.4189787E0,0E0,1.0994062E0,1.2095823E0,8.4927595E-1,4.1155678E-1,1.0308776E0,1.268177E-1,0E0,0E0,0E0,0E0,0E0,0E0,0E0,0E0,0E0,0E0,0E0,0E0],"parents":[2147483647,0,0,1,1,2,2,3,3,4,4,5,5,7,7,8,8,9,9,10,10,11,11,12,12],"right_children":[2,4,6,8,10,12,-1,14,16,18,20,22,24,-1,-1,-1,-1,-1,-1,-1,-1,-1,-1,-1,-1],"split_conditions":[7E0,6E0,4E0,1E0,1.478E3,2.122E3,1.9754779E-2,1.114E3,4E0,1E0,6.21E2,7.67E2,1E0,-1.9330405E-2,-1.0299808E-2,-1.7969014E-2,-5.565481E-3,-7.7345744E-3,-1.2126154E-3,1.7015776E-3,7.1617817E-3,3.6699108E-3,9.667656E-3,1.47627415E-2,4.8312643E-3],"split_indices":[3,3,27,66,20,20,0,20,4,247,12,12,175,0,0,0,0,0,0,0,0,0,0,0,0],"split_type":[0,0,0,0,0,0,0,0,0,0,0,0,0,0,0,0,0,0,0,0,0,0,0,0,0],"sum_hessian":[1.178E3,7.52E2,4.26E2,4.48E2,3.04E2,3.55E2,7.1E1,1.27E2,3.21E2,1.64E2,1.4E2,2.8E2,7.5E1,5.3E1,7.4E1,1.4E1,3.07E2,5.6E1,1.08E2,1.06E2,3.4E1,2.06E2,7.4E1,6.8E1,7E0],"tree_param":{"num_deleted":"0","num_feature":"299","num_nodes":"25","size_leaf_vector":"1"}},{"base_weights":[-0E0,-1.1365079E-1,1.9835018E-1,-3.7892717E-1,-7.586876E-2,8.145932E-2,3.3896342E-1,-2.8982656E-2,-2.7948326E-1,-1.5576653E-1,9.925974E-3,-1.5113052E-2,1.8341208E-1,2.6547894E-1,2.1277735E-2,-1.4383034E-2,-5.5202357E-3,-9.580816E-3,-2.3467003E-3,-1.1042898E-3,8.368744E-3,6.340351E-4,-7.9446575E-3,4.7218776E-3,1.0493872E-2,8.917706E-3,1.6827585E-2],"categories":[],"categories_nodes":[],"categories_segments":[],"categories_sizes":[],"default_left":[0,0,0,0,0,0,0,0,0,0,0,0,0,0,0,0,0,0,0,0,0,0,0,0,0,0,0],"id":14,"left_children":[1,3,5,7,9,11,13,-1,15,17,19,21,23,25,-1,-1,-1,-1,-1,-1,-1,-1,-1,-1,-1,-1,-1],"loss_changes":[2.6496992E1,7.3681946E0,6.9240685E0,2.200904E0,4.526784E0,2.3627188E0,1.8625488E0,0E0,4.702897E-1,2.284605E0,2.1437926E0,6.5664923E-1,4.2065644E-1,7.44853E-1,0E0,0E0,0E0,0E0,0E0,0E0,0E0,0E0,0E0,0E0,0E0,0E0,0E0],"parents":[2147483647,0,0,1,1,2,2,3,3,4,4,5,5,6,6,8,8,9,9,10,10,11,11,12,12,13,13],"right_children":[2,4,6,8,10,12,14,-1,16,18,20,22,24,26,-1,-1,-1,-1,-1,-1,-1,-1,-1,-1,-1,-1,-1],"split_conditions":[3E0,1E0,1.74E3,8.33E2,1.32E3,1.268E3,1.04E3,-2.8982656E-2,2.06E2,9.88E2,2.028E3,1E0,1.494E3,2.327E3,2.1277735E-2,-1.4383034E-2,-5.5202357E-3,-9.580816E-3,-2.3467003E-3,-1.1042898E-3,8.368744E-3,6.340351E-4,-7.9446575E-3,4.7218776E-3,1.0493872E-2,8.917706E-3,1.6827585E-2],"split_indices":[8,232,20,20,20,15,12,0,12,15,20,67,15,20,0,0,0,0,0,0,0,0,0,0,0,0,0],"split_type":[0,0,0,0,0,0,0,0,0,0,0,0,0,0,0,0,0,0,0,0,0,0,0,0,0,0,0],"sum_hessian":[1.171E3,7.45E2,4.26E2,9E1,6.55E2,2.35E2,1.91E2,1.9E1,7.1E1,3.39E2,3.16E2,1.21E2,1.14E2,1.35E2,5.6E1,4.9E1,2.2E1,2E2,1.39E2,2.66E2,5E1,1.04E2,1.7E1,5.6E1,5.8E1,9.8E1,3.7E1],"tree_param":{"num_deleted":"0","num_feature":"299","num_nodes":"27","size_leaf_vector":"1"}},{"base_weights":[-3.5161697E-3,-1.1691129E-1,1.801771E-1,-1.9591816E-1,1.246432E-2,8.9749664E-2,3.2051426E-1,-3.629213E-1,-1.5418439E-1,-4.6849903E-2,1.5569176E-1,3.2207772E-2,2.1420516E-1,9.326804E-3,4.3848705E-1,-1.8867169E-2,-8.16412E-3,-1.1596211E-2,-5.3905947E-3,-5.276662E-3,2.4296466E-4,1.035263E-3,1.0207535E-2,-2.2260805E-3,2.7336895E-3,5.2211266E-3,1.1369398E-2,1.4652738E-2,2.4189342E-2],"categories":[],"categories_nodes":[],"categories_segments":[],"categories_sizes":[],"default_left":[0,0,0,0,0,0,0,0,0,0,0,0,0,0,0,0,0,0,0,0,0,0,0,0,0,0,0,0,0],"id":15,"left_children":[1,3,5,7,9,11,13,15,17,19,21,23,25,-1,27,-1,-1,-1,-1,-1,-1,-1,-1,-1,-1,-1,-1,-1,-1],"loss_changes":[2.474611E1,7.5433817E0,5.6360865E0,2.9984722E0,2.410053E0,1.9529703E0,1.8387432E0,9.3388367E-1,1.0944548E0,8.166599E-1,8.6059546E-1,5.270538E-1,2.9394817E-1,0E0,4.2630196E-1,0E0,0E0,0E0,0E0,0E0,0E0,0E0,0E0,0E0,0E0,0E0,0E0,0E0,0E0],"parents":[2147483647,0,0,1,1,2,2,3,3,4,4,5,5,6,6,7,7,8,8,9,9,10,10,11,11,12,12,14,14],"right_children":[2,4,6,8,10,12,14,16,18,20,22,24,26,-1,28,-1,-1,-1,-1,-1,-1,-1,-1,-1,-1,-1,-1,-1,-1],"split_conditions":[1.986E3,1E0,1.74E3,2E0,1.74E3,1.408E3,1.307E3,1.2E3,6.48E2,9.116E3,1.0825E4,1E0,3.72E2,9.326804E-3,2.439E3,-1.8867169E-2,-8.16412E-3,-1.1596211E-2,-5.3905947E-3,-5.276662E-3,2.4296466E-4,1.035263E-3,1.0207535E-2,-2.2260805E-3,2.7336895E-3,5.2211266E-3,1.1369398E-2,1.4652738E-2,2.4189342E-2],"split_indices":[5,30,20,35,20,15,17,20,15,1,1,247,12,0,20,0,0,0,0,0,0,0,0,0,0,0,0,0,0],"split_type":[0,0,0,0,0,0,0,0,0,0,0,0,0,0,0,0,0,0,0,0,0,0,0,0,0,0,0,0,0],"sum_hessian":[1.184E3,7.33E2,4.51E2,4.55E2,2.78E2,2.77E2,1.74E2,8.7E1,3.68E2,1.97E2,8.1E1,1.92E2,8.5E1,9.7E1,7.7E1,5.7E1,3E1,6.7E1,3.01E2,8E1,1.17E2,3.3E1,4.8E1,5.1E1,1.41E2,3.4E1,5.1E1,4.9E1,2.8E1],"tree_param":{"num_deleted":"0","num_feature":"299","num_nodes":"29","size_leaf_vector":"1"}},{"base_weights":[1.8194221E-3,-1.09814025E-1,1.8995969E-1,-3.376339E-1,-6.883421E-2,1.3139018E-1,3.8498732E-1,-3.6444616E-2,-2.796289E-1,-1.2678303E-1,1.0648738E-2,6.995526E-2,2.2636606E-1,1.3104305E-2,2.15799E-2,-1.3542844E-2,-4.0509272E-3,-7.735295E-3,-2.2211983E-3,-3.295125E-3,2.9162713E-3,3.6055016E-4,4.9619824E-3,4.684221E-4,1.0705104E-2],"categories":[],"categories_nodes":[],"categories_segments":[],"categories_sizes":[],"default_left":[0,0,0,0,0,0,0,0,0,0,0,0,0,0,0,0,0,0,0,0,0,0,0,0,0],"id":16,"left_children":[1,3,5,7,9,11,13,-1,15,17,19,21,23,-1,-1,-1,-1,-1,-1,-1,-1,-1,-1,-1,-1],"loss_changes":[2.509491E1,6.8919754E0,4.909075E0,2.7114906E0,2.9571495E0,1.9476814E0,5.10314E-1,0E0,6.001024E-1,1.4467883E0,1.3725176E0,5.885004E-1,6.4986277E-1,0E0,0E0,0E0,0E0,0E0,0E0,0E0,0E0,0E0,0E0,0E0,0E0],"parents":[2147483647,0,0,1,1,2,2,3,3,4,4,5,5,6,6,8,8,9,9,10,10,11,11,12,12],"right_children":[2,4,6,8,10,12,14,-1,16,18,20,22,24,-1,-1,-1,-1,-1,-1,-1,-1,-1,-1,-1,-1],"split_conditions":[7E0,5E0,4E0,3E0,1.378E3,1.795E3,2.237E3,-3.6444616E-2,5.28E2,4.93E2,6E0,4.97E2,1.979E3,1.3104305E-2,2.15799E-2,-1.3542844E-2,-4.0509272E-3,-7.735295E-3,-2.2211983E-3,-3.295125E-3,2.9162713E-3,3.6055016E-4,4.9619824E-3,4.684221E-4,1.0705104E-2],"split_indices":[3,3,10,3,20,20,20,0,12,12,3,33,6,0,0,0,0,0,0,0,0,0,0,0,0],"split_type":[0,0,0,0,0,0,0,0,0,0,0,0,0,0,0,0,0,0,0,0,0,0,0,0,0],"sum_hessian":[1.19E3,7.47E2,4.43E2,1.11E2,6.36E2,3.44E2,9.9E1,8E0,1.03E2,3.68E2,2.68E2,2.12E2,1.32E2,6.5E1,3.4E1,8.4E1,1.9E1,2.11E2,1.57E2,1.05E2,1.63E2,9.3E1,1.19E2,1.4E1,1.18E2],"tree_param":{"num_deleted":"0","num_feature":"299","num_nodes":"25","size_leaf_vector":"1"}},{"base_weights":[-8.234333E-3,-1.178255E-1,1.8345082E-1,-3.2356656E-1,-7.909939E-2,8.953298E-2,2.9573113E-1,-3.6769573E-2,-2.708549E-1,-1.226794E-1,-1.095695E-2,-4.79147E-2,1.1566953E-1,2.4024284E-1,1.9307282E-2,-1.4870297E-2,-7.1292347E-3,-6.8910155E-3,-2.6152197E-3,-4.3997625E-3,1.3237629E-3,-5.351594E-3,6.1300053E-4,3.0840714E-3,7.4331155E-3,1.4674718E-3,1.1146802E-2],"categories":[],"categories_nodes":[],"categories_segments":[],"categories_sizes":[],"default_left":[0,0,0,0,0,0,0,0,0,0,0,0,0,0,0,0,0,0,0,0,0,0,0,0,0,0,0],"id":17,"left_children":[1,3,5,7,9,11,13,-1,15,17,19,21,23,25,-1,-1,-1,-1,-1,-1,-1,-1,-1,-1,-1,-1,-1],"loss_changes":[2.4452896E1,5.7983456E0,4.355734E0,2.6293993E0,1.8426001E0,8.6200464E-1,1.32518E0,0E0,6.8098545E-1,8.5080385E-1,9.7141385E-1,2.0138425E-1,4.429493E-1,5.536823E-1,0E0,0E0,0E0,0E0,0E0,0E0,0E0,0E0,0E0,0E0,0E0,0E0,0E0],"parents":[2147483647,0,0,1,1,2,2,3,3,4,4,5,5,6,6,8,8,9,9,10,10,11,11,12,12,13,13],"right_children":[2,4,6,8,10,12,14,-1,16,18,20,22,24,26,-1,-1,-1,-1,-1,-1,-1,-1,-1,-1,-1,-1,-1],"split_conditions":[7E0,5E0,8E0,3E0,1E0,6.6E3,1.838E3,-3.6769573E-2,8.94E2,1E0,8.626E3,1E0,1E0,1.99E3,1.9307282E-2,-1.4870297E-2,-7.1292347E-3,-6.8910155E-3,-2.6152197E-3,-4.3997625E-3,1.3237629E-3,-5.351594E-3,6.1300053E-4,3.0840714E-3,7.4331155E-3,1.4674718E-3,1.1146802E-2],"split_indices":[3,3,3,3,30,1,17,0,17,21,1,213,21,31,0,0,0,0,0,0,0,0,0,0,0,0,0],"split_type":[0,0,0,0,0,0,0,0,0,0,0,0,0,0,0,0,0,0,0,0,0,0,0,0,0,0,0],"sum_hessian":[1.16E3,7.39E2,4.21E2,1.14E2,6.25E2,2.32E2,1.89E2,7E0,1.07E2,3.79E2,2.46E2,3.6E1,1.96E2,1.44E2,4.5E1,5.8E1,4.9E1,2.3E2,1.49E2,7.7E1,1.69E2,1.6E1,2E1,1.16E2,8E1,1.4E1,1.3E2],"tree_param":{"num_deleted":"0","num_feature":"299","num_nodes":"27","size_leaf_vector":"1"}},{"base_weights":[2.6817966E-4,-1.0239975E-1,1.7649159E-1,-7.514612E-2,-3.367551E-1,1.2227757E-1,3.4963194E-1,-1.3127872E-1,2.5209197E-6,-2.5906328E-2,-2.5001097E-1,-8.814986E-3,1.559241E-1,3.000999E-1,2.128304E-2,-1.1066048E-2,-4.324088E-3,-1.734774E-3,5.8857435E-3,-1.3417611E-2,-3.6625196E-3,-7.7812904E-3,1.8053737E-3,3.4432295E-3,8.186548E-3,3.8855493E-3,1.3471639E-2],"categories":[],"categories_nodes":[],"categories_segments":[],"categories_sizes":[],"default_left":[0,0,0,0,0,0,0,0,0,0,0,0,0,0,0,0,0,0,0,0,0,0,0,0,0,0,0],"id":18,"left_children":[1,3,5,7,9,11,13,15,17,-1,19,21,23,25,-1,-1,-1,-1,-1,-1,-1,-1,-1,-1,-1,-1,-1],"loss_changes":[2.1817509E1,4.754087E0,4.016034E0,2.9069893E0,1.3831663E0,1.5310073E0,3.3526325E-1,1.4102254E0,1.6654332E0,0E0,5.512085E-1,6.628965E-1,6.6175747E-1,1.4609861E-1,0E0,0E0,0E0,0E0,0E0,0E0,0E0,0E0,0E0,0E0,0E0,0E0,0E0],"parents":[2147483647,0,0,1,1,2,2,3,3,4,4,5,5,6,6,7,7,8,8,10,10,11,11,12,12,13,13],"right_children":[2,4,6,8,10,12,14,16,18,-1,20,22,24,26,-1,-1,-1,-1,-1,-1,-1,-1,-1,-1,-1,-1,-1],"split_conditions":[3E0,1E0,4E0,1E0,5E0,8.51E2,1.4828E4,6.6E2,1.2568E4,-2.5906328E-2,6E0,2E0,1E0,4.8E2,2.128304E-2,-1.1066048E-2,-4.324088E-3,-1.734774E-3,5.8857435E-3,-1.3417611E-2,-3.6625196E-3,-7.7812904E-3,1.8053737E-3,3.4432295E-3,8.186548E-3,3.8855493E-3,1.3471639E-2],"split_indices":[8,231,10,29,28,15,1,15,1,0,4,23,29,33,0,0,0,0,0,0,0,0,0,0,0,0,0],"split_type":[0,0,0,0,0,0,0,0,0,0,0,0,0,0,0,0,0,0,0,0,0,0,0,0,0,0,0],"sum_hessian":[1.201E3,7.59E2,4.42E2,6.83E2,7.6E1,3.4E2,1.02E2,3.91E2,2.92E2,1.5E1,6.1E1,6.9E1,2.71E2,8.2E1,2E1,7.1E1,3.2E2,2.26E2,6.6E1,4.2E1,1.9E1,1.5E1,5.4E1,9E1,1.81E2,7E0,7.5E1],"tree_param":{"num_deleted":"0","num_feature":"299","num_nodes":"27","size_leaf_vector":"1"}},{"base_weights":[-3.8691895E-4,-1.0473767E-1,1.6186552E-1,-1.8057431E-1,-5.5613316E-4,1.0326599E-1,3.4648088E-1,-4.3509156E-1,-1.5192376E-1,-5.2103452E-2,1.482768E-1,6.3361235E-2,2.233474E-1,1.1111569E-2,2.0460237E-2,-2.286888E-2,-8.885809E-3,-1.0937675E-2,-5.158991E-3,-1.3500942E-2,-1.3859884E-3,2.2594775E-3,1.0351293E-2,-2.0272364E-3,3.6094761E-3,5.28651E-3,1.1216825E-2],"categories":[],"categories_nodes":[],"categories_segments":[],"categories_sizes":[],"default_left":[0,0,0,0,0,0,0,0,0,0,0,0,0,0,0,0,0,0,0,0,0,0,0,0,0,0,0],"id":19,"left_children":[1,3,5,7,9,11,13,15,17,19,21,23,25,-1,-1,-1,-1,-1,-1,-1,-1,-1,-1,-1,-1,-1,-1],"loss_changes":[1.9876228E1,5.6272807E0,4.8323145E0,2.7939672E0,2.3383431E0,1.6202562E0,8.829651E-1,5.716038E-1,1.1046047E0,1.118285E0,6.337005E-1,6.371386E-1,2.140503E-1,0E0,0E0,0E0,0E0,0E0,0E0,0E0,0E0,0E0,0E0,0E0,0E0,0E0,0E0],"parents":[2147483647,0,0,1,1,2,2,3,3,4,4,5,5,6,6,7,7,8,8,9,9,10,10,11,11,12,12],"right_children":[2,4,6,8,10,12,14,16,18,20,22,24,26,-1,-1,-1,-1,-1,-1,-1,-1,-1,-1,-1,-1,-1,-1],"split_conditions":[1.981E3,0E0,1.961E3,8.1E2,1.779E3,1.494E3,1.498E3,7E0,1.951E3,2E0,7E0,1.218E3,1.42E2,1.1111569E-2,2.0460237E-2,-2.286888E-2,-8.885809E-3,-1.0937675E-2,-5.158991E-3,-1.3500942E-2,-1.3859884E-3,2.2594775E-3,1.0351293E-2,-2.0272364E-3,3.6094761E-3,5.28651E-3,1.1216825E-2],"split_indices":[5,30,20,20,20,15,15,4,6,10,4,20,7,0,0,0,0,0,0,0,0,0,0,0,0,0,0],"split_type":[0,0,0,0,0,0,0,0,0,0,0,0,0,0,0,0,0,0,0,0,0,0,0,0,0,0,0],"sum_hessian":[1.17E3,7.13E2,4.57E2,4.11E2,3.02E2,3.5E2,1.07E2,3.8E1,3.73E2,2.26E2,7.6E1,2.66E2,8.4E1,6.9E1,3.8E1,2.4E1,1.4E1,8.2E1,2.91E2,1.3E1,2.13E2,4E1,3.6E1,4.1E1,2.25E2,2.7E1,5.7E1],"tree_param":{"num_deleted":"0","num_feature":"299","num_nodes":"27","size_leaf_vector":"1"}},{"base_weights":[2.3660387E-3,-9.5047E-2,1.6623515E-1,-2.8655484E-1,-6.009107E-2,9.17493E-2,2.569086E-1,-4.122812E-1,-2.1101236E-1,-1.0665296E-1,2.2881383E-2,-3.2985476E-3,1.1816538E-1,2.1716815E-1,1.6725041E-2,-1.995414E-2,-7.4620517E-3,-1.0374478E-2,-2.3845902E-3,-7.173E-3,-2.1152773E-3,-1.3640855E-3,3.4141305E-3,-5.9871715E-3,1.7030365E-3,4.322074E-3,1.1258041E-2,7.0609143E-3,1.1727865E-2],"categories":[],"categories_nodes":[],"categories_segments":[],"categories_sizes":[],"default_left":[0,0,0,0,0,0,0,0,0,0,0,0,0,0,0,0,0,0,0,0,0,0,0,0,0,0,0,0,0],"id":20,"left_children":[1,3,5,7,9,11,13,15,17,19,21,23,25,27,-1,-1,-1,-1,-1,-1,-1,-1,-1,-1,-1,-1,-1,-1,-1],"loss_changes":[1.8707243E1,4.8332095E0,2.8568974E0,7.9623604E-1,2.4274228E0,6.2854433E-1,7.766323E-1,2.4509001E-1,2.999053E-1,1.3543892E0,7.135108E-1,3.4400344E-1,3.7340355E-1,3.090415E-1,0E0,0E0,0E0,0E0,0E0,0E0,0E0,0E0,0E0,0E0,0E0,0E0,0E0,0E0,0E0],"parents":[2147483647,0,0,1,1,2,2,3,3,4,4,5,5,6,6,7,7,8,8,9,9,10,10,11,11,12,12,13,13],"right_children":[2,4,6,8,10,12,14,16,18,20,22,24,26,28,-1,-1,-1,-1,-1,-1,-1,-1,-1,-1,-1,-1,-1,-1,-1],"split_conditions":[7E0,5E0,8E0,2E0,2E0,7.558E3,2.4E2,4E0,5.28E2,6.9E1,4.54E2,3.9E2,1.656E4,6.85E2,1.6725041E-2,-1.995414E-2,-7.4620517E-3,-1.0374478E-2,-2.3845902E-3,-7.173E-3,-2.1152773E-3,-1.3640855E-3,3.4141305E-3,-5.9871715E-3,1.7030365E-3,4.322074E-3,1.1258041E-2,7.0609143E-3,1.1727865E-2],"split_indices":[3,3,3,35,23,1,36,16,12,0,12,33,1,12,0,0,0,0,0,0,0,0,0,0,0,0,0,0,0],"split_type":[0,0,0,0,0,0,0,0,0,0,0,0,0,0,0,0,0,0,0,0,0,0,0,0,0,0,0,0,0],"sum_hessian":[1.167E3,7.32E2,4.35E2,1.1E2,6.22E2,2.42E2,1.93E2,3.7E1,7.3E1,3.99E2,2.23E2,5.2E1,1.9E2,1.54E2,3.9E1,2.8E1,9E0,5.9E1,1.4E1,1.9E2,2.09E2,1.13E2,1.1E2,1.2E1,4E1,1.74E2,1.6E1,8.6E1,6.8E1],"tree_param":{"num_deleted":"0","num_feature":"299","num_nodes":"29","size_leaf_vector":"1"}},{"base_weights":[-1.7642943E-3,-9.486882E-2,1.5880254E-1,-2.656023E-1,-6.437061E-2,1.2001562E-1,3.395209E-1,-3.50705E-1,-1.4737585E-1,-1.1107146E-1,1.3242012E-2,8.405002E-2,2.1538752E-1,9.878258E-3,1.7453086E-2,-1.6686682E-2,-7.4297097E-3,-1.2179758E-2,-4.51674E-3,-7.581708E-3,-2.962597E-3,2.1328155E-3,-5.503834E-3,-1.0128752E-3,4.2447443E-3,1.15465606E-4,9.851685E-3],"categories":[],"categories_nodes":[],"categories_segments":[],"categories_sizes":[],"default_left":[0,0,0,0,0,0,0,0,0,0,0,0,0,0,0,0,0,0,0,0,0,0,0,0,0,0,0],"id":21,"left_children":[1,3,5,7,9,11,13,15,17,19,21,23,25,-1,-1,-1,-1,-1,-1,-1,-1,-1,-1,-1,-1,-1,-1],"loss_changes":[1.7981897E1,3.8894634E0,2.945074E0,9.726505E-1,2.372288E0,1.1818838E0,2.7920818E-1,2.2705603E-1,1.8430638E-1,1.0682163E0,1.2774279E0,4.5758367E-1,2.795534E-1,0E0,0E0,0E0,0E0,0E0,0E0,0E0,0E0,0E0,0E0,0E0,0E0,0E0,0E0],"parents":[2147483647,0,0,1,1,2,2,3,3,4,4,5,5,6,6,7,7,8,8,9,9,10,10,11,11,12,12],"right_children":[2,4,6,8,10,12,14,16,18,20,22,24,26,-1,-1,-1,-1,-1,-1,-1,-1,-1,-1,-1,-1,-1,-1],"split_conditions":[7E0,5E0,4E0,8.8E2,2E0,6.62E2,1.097E3,7E0,1E0,6.2E1,2E0,7.92E2,1.992E3,9.878258E-3,1.7453086E-2,-1.6686682E-2,-7.4297097E-3,-1.2179758E-2,-4.51674E-3,-7.581708E-3,-2.962597E-3,2.1328155E-3,-5.503834E-3,-1.0128752E-3,4.2447443E-3,1.15465606E-4,9.851685E-3],"split_indices":[3,3,27,17,23,33,12,4,297,0,26,17,6,0,0,0,0,0,0,0,0,0,0,0,0,0,0],"split_type":[0,0,0,0,0,0,0,0,0,0,0,0,0,0,0,0,0,0,0,0,0,0,0,0,0,0,0],"sum_hessian":[1.199E3,7.6E2,4.39E2,1.12E2,6.48E2,3.65E2,7.4E1,6.2E1,5E1,4.05E2,2.43E2,2.69E2,9.6E1,3.3E1,4.1E1,4.8E1,1.4E1,8E0,4.2E1,1.53E2,2.52E2,1.95E2,4.8E1,3.2E1,2.37E2,7E0,8.9E1],"tree_param":{"num_deleted":"0","num_feature":"299","num_nodes":"27","size_leaf_vector":"1"}},{"base_weights":[-1.0664108E-3,-1.080776E-1,1.0662503E-1,-1.6037542E-1,-1.1039364E-2,4.798325E-2,2.4972273E-1,-1.8799158E-2,-1.4176248E-1,-5.5006668E-2,1.23581626E-1,-1.8004652E-2,1.2862253E-1,3.1815767E-1,1.6311112E-1,-5.1661646E-3,-1.3978098E-2,-1.8011685E-3,-9.120498E-3,2.1466375E-3,9.920872E-3,-2.5910516E-3,2.385618E-3,3.2253535E-3,7.183024E-3,7.875963E-3,1.4949275E-2,-0E0,7.924491E-3],"categories":[],"categories_nodes":[],"categories_segments":[],"categories_sizes":[],"default_left":[0,0,0,0,0,0,0,0,0,0,0,0,0,0,0,0,0,0,0,0,0,0,0,0,0,0,0,0,0],"id":22,"left_children":[1,3,5,7,9,11,13,-1,15,17,19,21,23,25,27,-1,-1,-1,-1,-1,-1,-1,-1,-1,-1,-1,-1,-1,-1],"loss_changes":[1.3960232E1,3.0608196E0,4.997618E0,1.8371162E0,1.285717E0,2.3135424E0,8.5791016E-1,0E0,1.307486E0,2.852195E-1,3.615473E-1,7.5562286E-1,3.4941912E-1,1.8622303E-1,2.8969193E-1,0E0,0E0,0E0,0E0,0E0,0E0,0E0,0E0,0E0,0E0,0E0,0E0,0E0,0E0],"parents":[2147483647,0,0,1,1,2,2,3,3,4,4,5,5,6,6,8,8,9,9,10,10,11,11,12,12,13,13,14,14],"right_children":[2,4,6,8,10,12,14,-1,16,18,20,22,24,26,28,-1,-1,-1,-1,-1,-1,-1,-1,-1,-1,-1,-1,-1,-1],"split_conditions":[3E0,1E0,1.824E3,4E0,1.779E3,1.248E3,1E0,-1.8799158E-2,1E0,1E0,7E0,1E0,1E0,1.193E3,1.98E3,-5.1661646E-3,-1.3978098E-2,-1.8011685E-3,-9.120498E-3,2.1466375E-3,9.920872E-3,-2.5910516E-3,2.385618E-3,3.2253535E-3,7.183024E-3,7.875963E-3,1.4949275E-2,-0E0,7.924491E-3],"split_indices":[10,30,20,4,20,17,209,0,46,117,4,50,21,17,31,0,0,0,0,0,0,0,0,0,0,0,0,0,0],"split_type":[0,0,0,0,0,0,0,0,0,0,0,0,0,0,0,0,0,0,0,0,0,0,0,0,0,0,0,0,0],"sum_hessian":[1.207E3,6.06E2,6.01E2,3.92E2,2.14E2,4.29E2,1.72E2,2.1E1,3.71E2,1.63E2,5.1E1,2.36E2,1.93E2,9.2E1,8E1,3.37E2,3.4E1,1.54E2,9E0,3.3E1,1.8E1,1.51E2,8.5E1,8.6E1,1.07E2,2.1E1,7.1E1,1E1,7E1],"tree_param":{"num_deleted":"0","num_feature":"299","num_nodes":"29","size_leaf_vector":"1"}},{"base_weights":[3.8433166E-3,-1.355208E-1,8.509596E-2,-1.835746E-2,-1.1713883E-1,4.612544E-2,2.64848E-1,-2.0616789E-1,-8.226988E-2,-1.6564954E-2,1.00465216E-1,9.028056E-3,1.5558818E-2,-1.4566145E-2,-7.1017193E-3,-4.405265E-3,3.862498E-4,-4.5299674E-3,8.250283E-4,3.150176E-3,9.3708355E-3],"categories":[],"categories_nodes":[],"categories_segments":[],"categories_sizes":[],"default_left":[0,0,0,0,0,0,0,0,0,0,0,0,0,0,0,0,0,0,0,0,0],"id":23,"left_children":[1,3,5,-1,7,9,11,13,15,17,19,-1,-1,-1,-1,-1,-1,-1,-1,-1,-1],"loss_changes":[1.37905E1,2.2390947E0,5.328961E0,0E0,1.2462153E0,2.1815124E0,4.8376846E-1,4.4450235E-1,5.9992933E-1,9.637284E-1,1.0163326E0,0E0,0E0,0E0,0E0,0E0,0E0,0E0,0E0,0E0,0E0],"parents":[2147483647,0,0,1,1,2,2,4,4,5,5,6,6,7,7,8,8,9,9,10,10],"right_children":[2,4,6,-1,8,10,12,14,16,18,20,-1,-1,-1,-1,-1,-1,-1,-1,-1,-1],"split_conditions":[6E0,4E0,3E0,-1.835746E-2,1E0,1.488E3,2.263E3,9.36E2,1.276E4,1E0,1.344E4,9.028056E-3,1.5558818E-2,-1.4566145E-2,-7.1017193E-3,-4.405265E-3,3.862498E-4,-4.5299674E-3,8.250283E-4,3.150176E-3,9.3708355E-3],"split_indices":[3,3,32,0,66,20,20,20,1,247,1,0,0,0,0,0,0,0,0,0,0],"split_type":[0,0,0,0,0,0,0,0,0,0,0,0,0,0,0,0,0,0,0,0,0],"sum_hessian":[1.214E3,4.46E2,7.68E2,2.3E1,4.23E2,6.34E2,1.34E2,1.15E2,3.08E2,2.94E2,3.4E2,9.2E1,4.2E1,2.2E1,9.3E1,2.52E2,5.6E1,8.4E1,2.1E2,2.81E2,5.9E1],"tree_param":{"num_deleted":"0","num_feature":"299","num_nodes":"21","size_leaf_vector":"1"}},{"base_weights":[-1.1244927E-3,-8.294605E-2,1.4295462E-1,-2.389179E-1,-5.335955E-2,7.200203E-2,2.2522213E-1,-3.5622743E-1,-7.519479E-3,-1.1591388E-1,-1.304599E-3,-1.3131647E-2,9.8346554E-2,1.5816462E-1,1.3777049E-2,-1.7841443E-2,-6.0483073E-3,-6.126413E-3,-4.9071084E-4,-1.9416878E-3,2.076351E-3,-2.9405188E-3,1.5910905E-3,3.049962E-3,7.0565217E-3,3.8186307E-3,8.561814E-3],"categories":[],"categories_nodes":[],"categories_segments":[],"categories_sizes":[],"default_left":[0,0,0,0,0,0,0,0,0,0,0,0,0,0,0,0,0,0,0,0,0,0,0,0,0,0,0],"id":24,"left_children":[1,3,5,7,9,11,13,15,-1,17,19,21,23,25,-1,-1,-1,-1,-1,-1,-1,-1,-1,-1,-1,-1,-1],"loss_changes":[1.3719014E1,3.364554E0,2.3852968E0,6.6402197E-1,2.0303092E0,5.2990913E-1,1.0814533E0,2.9884672E-1,0E0,7.863157E-1,7.6481694E-1,1.6397022E-1,2.63551E-1,2.687292E-1,0E0,0E0,0E0,0E0,0E0,0E0,0E0,0E0,0E0,0E0,0E0,0E0,0E0],"parents":[2147483647,0,0,1,1,2,2,3,3,4,4,5,5,6,6,7,7,9,9,10,10,11,11,12,12,13,13],"right_children":[2,4,6,8,10,12,14,16,-1,18,20,22,24,26,-1,-1,-1,-1,-1,-1,-1,-1,-1,-1,-1,-1,-1],"split_conditions":[7E0,5E0,8E0,1E0,2E0,7.5E3,1.2144E4,7E0,-7.519479E-3,1.079E3,2.1E1,1.057E3,9E2,1E0,1.3777049E-2,-1.7841443E-2,-6.0483073E-3,-6.126413E-3,-4.9071084E-4,-1.9416878E-3,2.076351E-3,-2.9405188E-3,1.5910905E-3,3.049962E-3,7.0565217E-3,3.8186307E-3,8.561814E-3],"split_indices":[3,3,3,259,32,1,1,28,0,15,37,17,18,21,0,0,0,0,0,0,0,0,0,0,0,0,0],"split_type":[0,0,0,0,0,0,0,0,0,0,0,0,0,0,0,0,0,0,0,0,0,0,0,0,0,0,0],"sum_hessian":[1.16E3,7.41E2,4.19E2,1.15E2,6.26E2,2.28E2,1.91E2,3.6E1,7.9E1,2.82E2,3.44E2,5.3E1,1.75E2,1.17E2,7.4E1,2.6E1,1E1,2.22E2,6E1,1.84E2,1.6E2,2.6E1,2.7E1,1.29E2,4.6E1,4.8E1,6.9E1],"tree_param":{"num_deleted":"0","num_feature":"299","num_nodes":"27","size_leaf_vector":"1"}},{"base_weights":[9.925268E-4,-9.904924E-2,9.956329E-2,-1.494125E-1,-1.2882456E-2,3.8816266E-2,2.0821509E-1,-2.8549004E-1,-1.1494997E-1,-5.9452992E-2,1.4813942E-1,-1.9405785E-3,1.5928851E-1,4.2494917E-3,2.6053992E-1,-1.836193E-2,-8.414225E-3,-8.526121E-3,-3.6199512E-3,-4.7787465E-3,-1.1747277E-3,7.7793756E-3,7.0191635E-4,-3.793171E-3,6.487541E-4,3.647405E-3,8.012457E-3,9.947496E-3,1.8735731E-2],"categories":[],"categories_nodes":[],"categories_segments":[],"categories_sizes":[],"default_left":[0,0,0,0,0,0,0,0,0,0,0,0,0,0,0,0,0,0,0,0,0,0,0,0,0,0,0,0,0],"id":25,"left_children":[1,3,5,7,9,11,13,15,17,19,21,23,25,-1,27,-1,-1,-1,-1,-1,-1,-1,-1,-1,-1,-1,-1,-1,-1],"loss_changes":[1.1639916E1,2.5146618E0,3.8793344E0,1.6040525E0,1.6516098E0,1.9119526E0,1.1067448E0,6.573372E-1,6.900606E-1,2.6341456E-1,1.8653488E-1,4.411717E-1,1.3390708E-1,0E0,3.9461517E-1,0E0,0E0,0E0,0E0,0E0,0E0,0E0,0E0,0E0,0E0,0E0,0E0,0E0,0E0],"parents":[2147483647,0,0,1,1,2,2,3,3,4,4,5,5,6,6,7,7,8,8,9,9,10,10,11,11,12,12,14,14],"right_children":[2,4,6,8,10,12,14,16,18,20,22,24,26,-1,28,-1,-1,-1,-1,-1,-1,-1,-1,-1,-1,-1,-1,-1,-1],"split_conditions":[3E0,1E0,1.74E3,6.11E2,1.795E3,1.419E3,1.055E3,9.88E2,1.951E3,9.116E3,1E0,2E0,3.47E2,4.2494917E-3,1.345E3,-1.836193E-2,-8.414225E-3,-8.526121E-3,-3.6199512E-3,-4.7787465E-3,-1.1747277E-3,7.7793756E-3,7.0191635E-4,-3.793171E-3,6.487541E-4,3.647405E-3,8.012457E-3,9.947496E-3,1.8735731E-2],"split_indices":[10,29,20,15,20,15,15,20,6,1,169,32,12,0,18,0,0,0,0,0,0,0,0,0,0,0,0,0,0],"split_type":[0,0,0,0,0,0,0,0,0,0,0,0,0,0,0,0,0,0,0,0,0,0,0,0,0,0,0,0,0],"sum_hessian":[1.176E3,5.83E2,5.93E2,3.66E2,2.17E2,3.83E2,2.1E2,7E1,2.96E2,1.7E2,4.7E1,2.87E2,9.6E1,7.1E1,1.39E2,2.3E1,4.7E1,7.4E1,2.22E2,6.1E1,1.09E2,3.6E1,1.1E1,4.7E1,2.4E2,3E1,6.6E1,1.25E2,1.4E1],"tree_param":{"num_deleted":"0","num_feature":"299","num_nodes":"29","size_leaf_vector":"1"}},{"base_weights":[1.6046929E-3,-1.2801357E-1,8.1730105E-2,-9.882119E-2,-3.302226E-1,3.0412216E-2,2.1519466E-1,-1.5584952E-1,-5.389169E-2,-4.1627824E-1,-6.126146E-3,-2.8056694E-2,7.775853E-2,1.7773528E-1,3.4820876E-1,-1.0403194E-2,-5.7795197E-3,-8.499418E-3,-1.4518572E-3,-2.1927405E-2,-9.427845E-3,-3.0949214E-3,8.17669E-4,-0E0,4.182243E-3,5.7241283E-3,1.092536E-2,1.6387137E-2,5.221461E-3],"categories":[],"categories_nodes":[],"categories_segments":[],"categories_sizes":[],"default_left":[0,0,0,0,0,0,0,0,0,0,0,0,0,0,0,0,0,0,0,0,0,0,0,0,0,0,0,0,0],"id":26,"left_children":[1,3,5,7,9,11,13,15,17,19,-1,21,23,25,27,-1,-1,-1,-1,-1,-1,-1,-1,-1,-1,-1,-1,-1,-1],"loss_changes":[1.222211E1,2.52571E0,4.941916E0,9.701252E-1,6.8694115E-1,1.476017E0,8.0039024E-1,1.9236422E-1,6.092046E-1,3.4229994E-1,0E0,5.05149E-1,4.6839273E-1,4.291544E-1,1.5783596E-1,0E0,0E0,0E0,0E0,0E0,0E0,0E0,0E0,0E0,0E0,0E0,0E0,0E0,0E0],"parents":[2147483647,0,0,1,1,2,2,3,3,4,4,5,5,6,6,7,7,8,8,9,9,11,11,12,12,13,13,14,14],"right_children":[2,4,6,8,10,12,14,16,18,20,-1,22,24,26,28,-1,-1,-1,-1,-1,-1,-1,-1,-1,-1,-1,-1,-1,-1],"split_conditions":[6E0,1E0,8E0,9.51E2,8.17E2,1.488E3,1.811E3,6.72E2,2E0,1.931E3,-6.126146E-3,1.124E3,7.81E2,4E0,1.41E2,-1.0403194E-2,-5.7795197E-3,-8.499418E-3,-1.4518572E-3,-2.1927405E-2,-9.427845E-3,-3.0949214E-3,8.17669E-4,-0E0,4.182243E-3,5.7241283E-3,1.092536E-2,1.6387137E-2,5.221461E-3],"split_indices":[3,46,3,17,15,20,17,17,10,31,0,17,15,27,37,0,0,0,0,0,0,0,0,0,0,0,0,0,0],"split_type":[0,0,0,0,0,0,0,0,0,0,0,0,0,0,0,0,0,0,0,0,0,0,0,0,0,0,0,0,0],"sum_hessian":[1.173E3,4.47E2,7.26E2,3.94E2,5.3E1,5.27E2,1.99E2,1.7E2,2.24E2,3.4E1,1.9E1,2.35E2,2.92E2,1.6E2,3.9E1,2.7E1,1.43E2,2.4E1,2E2,2E1,1.4E1,1.22E2,1.13E2,5.9E1,2.33E2,1.07E2,5.3E1,3.2E1,7E0],"tree_param":{"num_deleted":"0","num_feature":"299","num_nodes":"29","size_leaf_vector":"1"}},{"base_weights":[2.7660627E-3,-6.883701E-2,1.3141179E-1,-4.5713905E-2,-2.706736E-1,8.4932305E-2,2.4275295E-1,-9.790551E-2,1.2505195E-2,-3.5203233E-1,-1.00581616E-1,1.3322963E-2,1.296707E-1,7.845784E-3,1.2281349E-2,-5.0221463E-3,1.6672774E-3,-1.6083871E-3,2.427162E-3,-9.854424E-3,-2.041255E-2,-6.198293E-3,-0E0,-1.4346406E-3,2.3127687E-3,3.1576925E-3,7.362418E-3],"categories":[],"categories_nodes":[],"categories_segments":[],"categories_sizes":[],"default_left":[0,0,0,0,0,0,0,0,0,0,0,0,0,0,0,0,0,0,0,0,0,0,0,0,0,0,0],"id":27,"left_children":[1,3,5,7,9,11,13,15,17,19,21,23,25,-1,-1,-1,-1,-1,-1,-1,-1,-1,-1,-1,-1,-1,-1],"loss_changes":[1.1202879E1,3.5739553E0,2.1654344E0,2.150187E0,9.60927E-1,9.749932E-1,1.5708828E-1,1.0119941E0,7.452443E-1,4.6434546E-1,1.28362E-1,2.4165867E-1,3.9158773E-1,0E0,0E0,0E0,0E0,0E0,0E0,0E0,0E0,0E0,0E0,0E0,0E0,0E0,0E0],"parents":[2147483647,0,0,1,1,2,2,3,3,4,4,5,5,6,6,7,7,8,8,9,9,10,10,11,11,12,12],"right_children":[2,4,6,8,10,12,14,16,18,20,22,24,26,-1,-1,-1,-1,-1,-1,-1,-1,-1,-1,-1,-1,-1,-1],"split_conditions":[3E0,1E0,6.89E2,9.59E3,6E0,1E0,1.1765E4,1.985E3,1E0,2.009E3,8.75E3,4.97E2,1E0,7.845784E-3,1.2281349E-2,-5.0221463E-3,1.6672774E-3,-1.6083871E-3,2.427162E-3,-9.854424E-3,-2.041255E-2,-6.198293E-3,-0E0,-1.4346406E-3,2.3127687E-3,3.1576925E-3,7.362418E-3],"split_indices":[8,231,33,1,4,30,1,5,30,44,1,33,21,0,0,0,0,0,0,0,0,0,0,0,0,0,0],"split_type":[0,0,0,0,0,0,0,0,0,0,0,0,0,0,0,0,0,0,0,0,0,0,0,0,0,0,0],"sum_hessian":[1.211E3,7.78E2,4.33E2,7.01E2,7.7E1,3.09E2,1.24E2,3.7E2,3.31E2,5E1,2.7E1,1.21E2,1.88E2,5.9E1,6.5E1,3.25E2,4.5E1,1.54E2,1.77E2,2.9E1,2.1E1,1.8E1,9E0,5.5E1,6.6E1,8.5E1,1.03E2],"tree_param":{"num_deleted":"0","num_feature":"299","num_nodes":"27","size_leaf_vector":"1"}},{"base_weights":[4.9032536E-3,-9.4278716E-2,9.231921E-2,-6.924011E-2,-3.3881283E-1,5.8141187E-2,2.5589776E-1,-1.340151E-1,-1.9202206E-2,-2.8910225E-2,-2.3927915E-1,-6.0761324E-3,1.07108414E-1,3.209776E-1,1.7179896E-1,-7.851131E-3,-3.8812326E-3,-2.1798771E-3,1.271605E-3,-1.2042944E-2,-3.7222963E-3,-8.413169E-3,6.1621144E-4,3.3976694E-3,8.131228E-3,9.498889E-3,1.75985E-2,4.1776397E-3,9.849423E-3],"categories":[],"categories_nodes":[],"categories_segments":[],"categories_sizes":[],"default_left":[0,0,0,0,0,0,0,0,0,0,0,0,0,0,0,0,0,0,0,0,0,0,0,0,0,0,0,0,0],"id":28,"left_children":[1,3,5,7,9,11,13,15,17,-1,19,21,23,25,27,-1,-1,-1,-1,-1,-1,-1,-1,-1,-1,-1,-1,-1,-1],"loss_changes":[1.0415801E1,3.3390384E0,3.5011392E0,1.6382451E0,1.2468185E0,1.6877382E0,4.1449642E-1,4.0487504E-1,4.6135816E-1,0E0,1.7714667E-1,9.315079E-1,6.2923837E-1,2.4023533E-1,1.3958788E-1,0E0,0E0,0E0,0E0,0E0,0E0,0E0,0E0,0E0,0E0,0E0,0E0,0E0,0E0],"parents":[2147483647,0,0,1,1,2,2,3,3,4,4,5,5,6,6,7,7,8,8,10,10,11,11,12,12,13,13,14,14],"right_children":[2,4,6,8,10,12,14,16,18,-1,20,22,24,26,28,-1,-1,-1,-1,-1,-1,-1,-1,-1,-1,-1,-1,-1,-1],"split_conditions":[1.416E3,1E0,2.224E3,9.88E2,1E0,1.981E3,2.008E3,2.94E2,1.978E3,-2.8910225E-2,1.0237E4,5E0,1.64E3,7.06E2,3E0,-7.851131E-3,-3.8812326E-3,-2.1798771E-3,1.271605E-3,-1.2042944E-2,-3.7222963E-3,-8.413169E-3,6.1621144E-4,3.3976694E-3,8.131228E-3,9.498889E-3,1.75985E-2,4.1776397E-3,9.849423E-3],"split_indices":[20,257,20,17,297,5,44,33,5,0,1,4,17,33,32,0,0,0,0,0,0,0,0,0,0,0,0,0,0],"split_type":[0,0,0,0,0,0,0,0,0,0,0,0,0,0,0,0,0,0,0,0,0,0,0,0,0,0,0,0,0],"sum_hessian":[1.197E3,5.6E2,6.37E2,5.11E2,4.9E1,5.3E2,1.07E2,2.2E2,2.91E2,8E0,4.1E1,2.29E2,3.01E2,5.6E1,5.1E1,9.8E1,1.22E2,1.78E2,1.13E2,3E1,1.1E1,2.1E1,2.08E2,2.3E2,7.1E1,3.1E1,2.5E1,2.6E1,2.5E1],"tree_param":{"num_deleted":"0","num_feature":"299","num_nodes":"29","size_leaf_vector":"1"}},{"base_weights":[4.284624E-3,-6.8614736E-2,1.2037573E-1,-4.5879307E-1,-5.337522E-2,8.014164E-2,2.2723737E-1,-2.6413355E-2,-1.2008025E-2,-9.082493E-2,6.2744506E-3,5.6847353E-2,1.7006473E-1,7.919794E-3,1.3528021E-2,-6.4518396E-3,-2.4087846E-3,-1.8788069E-3,2.1334705E-3,-9.528284E-4,3.4267823E-3,3.950693E-3,9.520719E-3],"categories":[],"categories_nodes":[],"categories_segments":[],"categories_sizes":[],"default_left":[0,0,0,0,0,0,0,0,0,0,0,0,0,0,0,0,0,0,0,0,0,0,0],"id":29,"left_children":[1,3,5,7,9,11,13,-1,-1,15,17,19,21,-1,-1,-1,-1,-1,-1,-1,-1,-1,-1],"loss_changes":[1.019867E1,4.2767076E0,1.9212079E0,2.75167E-1,1.6073797E0,6.6681767E-1,2.7757215E-1,0E0,0E0,8.665452E-1,6.097266E-1,5.1915956E-1,1.9311535E-1,0E0,0E0,0E0,0E0,0E0,0E0,0E0,0E0,0E0,0E0],"parents":[2147483647,0,0,1,1,2,2,3,3,4,4,5,5,6,6,9,9,10,10,11,11,12,12],"right_children":[2,4,6,8,10,12,14,-1,-1,16,18,20,22,-1,-1,-1,-1,-1,-1,-1,-1,-1,-1],"split_conditions":[7E0,4E0,9.62E2,3E0,1E0,1.2144E4,1.838E3,-2.6413355E-2,-1.2008025E-2,2.7E1,4E2,1.986E3,1.04E2,7.919794E-3,1.3528021E-2,-6.4518396E-3,-2.4087846E-3,-1.8788069E-3,2.1334705E-3,-9.528284E-4,3.4267823E-3,3.950693E-3,9.520719E-3],"split_indices":[3,3,12,3,30,1,15,0,0,12,12,5,36,0,0,0,0,0,0,0,0,0,0],"split_type":[0,0,0,0,0,0,0,0,0,0,0,0,0,0,0,0,0,0,0,0,0,0,0],"sum_hessian":[1.2E3,7.37E2,4.63E2,2.5E1,7.12E2,3.4E2,1.23E2,1E1,1.5E1,4.38E2,2.74E2,2.74E2,6.6E1,8.9E1,3.4E1,1.56E2,2.82E2,1.26E2,1.48E2,6.1E1,2.13E2,3E1,3.6E1],"tree_param":{"num_deleted":"0","num_feature":"299","num_nodes":"23","size_leaf_vector":"1"}},{"base_weights":[-9.4432195E-5,-1.1400838E-1,6.815755E-2,-2.6483092E-1,-8.836579E-2,2.3723785E-2,1.9151399E-1,-2.0347187E-1,-2.1584705E-2,-1.6547331E-1,-5.7722222E-2,-9.360743E-2,5.0626162E-2,1.3438903E-1,2.9509607E-1,-1.3152006E-2,-6.1956514E-3,-9.161733E-3,-1.76782E-3,-3.2233528E-3,1.4652292E-3,-6.9829803E-3,-2.2676124E-3,1.6796194E-3,8.519288E-3,4.056167E-3,8.266293E-3,1.41953165E-2,3.3144327E-3],"categories":[],"categories_nodes":[],"categories_segments":[],"categories_sizes":[],"default_left":[0,0,0,0,0,0,0,0,0,0,0,0,0,0,0,0,0,0,0,0,0,0,0,0,0,0,0,0,0],"id":30,"left_children":[1,3,5,7,9,11,13,15,-1,17,19,21,23,25,27,-1,-1,-1,-1,-1,-1,-1,-1,-1,-1,-1,-1,-1,-1],"loss_changes":[9.416261E0,1.6605434E0,4.1075163E0,6.2962055E-1,8.77445E-1,1.7699513E0,1.0373869E0,1.8172956E-1,0E0,6.078081E-1,4.7286326E-1,2.4809313E-1,7.244785E-1,2.3347616E-1,4.361682E-1,0E0,0E0,0E0,0E0,0E0,0E0,0E0,0E0,0E0,0E0,0E0,0E0,0E0,0E0],"parents":[2147483647,0,0,1,1,2,2,3,3,4,4,5,5,6,6,7,7,9,9,10,10,11,11,12,12,13,13,14,14],"right_children":[2,4,6,8,10,12,14,16,-1,18,20,22,24,26,28,-1,-1,-1,-1,-1,-1,-1,-1,-1,-1,-1,-1,-1,-1],"split_conditions":[6E0,2E0,8E0,1E0,1E0,6.762E3,9E0,5E0,-2.1584705E-2,1E0,1.2853E4,3.84E2,1.04E3,7.73E2,2.008E3,-1.3152006E-2,-6.1956514E-3,-9.161733E-3,-1.76782E-3,-3.2233528E-3,1.4652292E-3,-6.9829803E-3,-2.2676124E-3,1.6796194E-3,8.519288E-3,4.056167E-3,8.266293E-3,1.41953165E-2,3.3144327E-3],"split_indices":[3,11,3,293,66,1,3,4,0,49,1,33,18,12,5,0,0,0,0,0,0,0,0,0,0,0,0,0,0],"split_type":[0,0,0,0,0,0,0,0,0,0,0,0,0,0,0,0,0,0,0,0,0,0,0,0,0,0,0,0,0],"sum_hessian":[1.206E3,4.52E2,7.54E2,6.2E1,3.9E2,5.57E2,1.97E2,5.3E1,9E0,1.07E2,2.83E2,1.02E2,4.55E2,1.31E2,6.6E1,1.5E1,3.8E1,7.5E1,3.2E1,2.39E2,4.4E1,3.4E1,6.8E1,4.26E2,2.9E1,8.3E1,4.8E1,5.5E1,1.1E1],"tree_param":{"num_deleted":"0","num_feature":"299","num_nodes":"29","size_leaf_vector":"1"}},{"base_weights":[5.8376957E-3,-8.339857E-2,8.829529E-2,-2.4183409E-1,-5.7433367E-2,4.0034216E-2,2.0171422E-1,-3.0799562E-1,-3.5690777E-3,-1.1184528E-1,-1.2480243E-2,-1.163042E-2,4.8877377E-2,1.5934592E-1,1.3014416E-2,-1.5095846E-2,-6.1822585E-3,-6.824742E-3,-3.4036713E-3,-1.4928129E-3,1.9797825E-3,1.026014E-3,6.918774E-3,5.155625E-3,9.366342E-3],"categories":[],"categories_nodes":[],"categories_segments":[],"categories_sizes":[],"default_left":[0,0,0,0,0,0,0,0,0,0,0,0,0,0,0,0,0,0,0,0,0,0,0,0,0],"id":31,"left_children":[1,3,5,7,9,11,13,15,-1,17,19,-1,21,23,-1,-1,-1,-1,-1,-1,-1,-1,-1,-1,-1],"loss_changes":[8.884708E0,2.3142843E0,3.3901453E0,7.345557E-1,1.2070426E0,1.2256972E0,6.434736E-1,2.2991705E-1,0E0,2.8851986E-1,3.6835456E-1,0E0,1.1876208E0,2.1668863E-1,0E0,0E0,0E0,0E0,0E0,0E0,0E0,0E0,0E0,0E0,0E0],"parents":[2147483647,0,0,1,1,2,2,3,3,4,4,5,5,6,6,7,7,9,9,10,10,12,12,13,13],"right_children":[2,4,6,8,10,12,14,16,-1,18,20,-1,22,24,-1,-1,-1,-1,-1,-1,-1,-1,-1,-1,-1],"split_conditions":[1.416E3,2E0,7.67E2,9.042E3,9.88E2,4E0,2.224E3,7E0,-3.5690777E-3,1.3E2,1.995E3,-1.163042E-2,2.122E3,2.005E3,1.3014416E-2,-1.5095846E-2,-6.1822585E-3,-6.824742E-3,-3.4036713E-3,-1.4928129E-3,1.9797825E-3,1.026014E-3,6.918774E-3,5.155625E-3,9.366342E-3],"split_indices":[20,35,12,1,17,4,20,4,0,12,5,0,20,5,0,0,0,0,0,0,0,0,0,0,0],"split_type":[0,0,0,0,0,0,0,0,0,0,0,0,0,0,0,0,0,0,0,0,0,0,0,0,0],"sum_hessian":[1.203E3,5.77E2,6.26E2,7.8E1,4.99E2,4.42E2,1.84E2,5.3E1,2.5E1,2.23E2,2.76E2,1E1,4.32E2,1.35E2,4.9E1,3.9E1,1.4E1,8.5E1,1.38E2,2.02E2,7.4E1,3.57E2,7.5E1,8.7E1,4.8E1],"tree_param":{"num_deleted":"0","num_feature":"299","num_nodes":"25","size_leaf_vector":"1"}},{"base_weights":[7.618483E-4,-8.2755685E-2,6.322375E-2,-2.397518E-1,-5.893787E-2,3.0088602E-2,1.8475802E-1,-1.7362598E-1,-1.9102313E-2,-7.798253E-2,9.682531E-2,4.9784664E-2,-3.6514266E-3,5.693351E-3,1.2605995E-2,-8.625796E-3,-1.3095783E-3,-5.3879553E-3,-1.3996981E-3,1.041853E-2,2.2390133E-3,3.4961384E-4,3.498541E-3],"categories":[],"categories_nodes":[],"categories_segments":[],"categories_sizes":[],"default_left":[0,0,0,0,0,0,0,0,0,0,0,0,0,0,0,0,0,0,0,0,0,0,0],"id":32,"left_children":[1,3,5,7,9,11,13,15,-1,17,19,21,-1,-1,-1,-1,-1,-1,-1,-1,-1,-1,-1],"loss_changes":[6.2646914E0,1.8501284E0,2.7319124E0,6.5654135E-1,1.3465879E0,1.2419868E0,6.9025564E-1,1.738317E-1,0E0,8.437667E-1,2.555695E-1,6.089245E-1,0E0,0E0,0E0,0E0,0E0,0E0,0E0,0E0,0E0,0E0,0E0],"parents":[2147483647,0,0,1,1,2,2,3,3,4,4,5,5,6,6,7,7,9,9,10,10,11,11],"right_children":[2,4,6,8,10,12,14,16,-1,18,20,22,-1,-1,-1,-1,-1,-1,-1,-1,-1,-1,-1],"split_conditions":[1.984E3,2E0,3E0,1E0,2E0,1E0,3.51E2,3.29E2,-1.9102313E-2,6.9E1,1E0,1E0,-3.6514266E-3,5.693351E-3,1.2605995E-2,-8.625796E-3,-1.3095783E-3,-5.3879553E-3,-1.3996981E-3,1.041853E-2,2.2390133E-3,3.4961384E-4,3.498541E-3],"split_indices":[6,35,32,293,29,67,7,12,0,0,86,29,0,0,0,0,0,0,0,0,0,0,0],"split_type":[0,0,0,0,0,0,0,0,0,0,0,0,0,0,0,0,0,0,0,0,0,0,0],"sum_hessian":[1.197E3,5.11E2,6.86E2,6.4E1,4.47E2,5.42E2,1.44E2,5.2E1,1.2E1,4E2,4.7E1,4.65E2,7.7E1,1.02E2,4.2E1,4.2E1,1E1,1.91E2,2.09E2,8E0,3.9E1,2.05E2,2.6E2],"tree_param":{"num_deleted":"0","num_feature":"299","num_nodes":"23","size_leaf_vector":"1"}},{"base_weights":[-0E0,-7.5939424E-2,9.106059E-2,-2.4617562E-1,-5.3942688E-2,1.8410632E-2,1.4689554E-1,-2.6699784E-1,-8.2175655E-4,-8.0271445E-2,2.8746875E-2,-7.339288E-3,3.476105E-2,1.0796997E-1,2.3490019E-1,-1.2445963E-2,-3.2966805E-3,-7.548881E-3,-2.5997865E-3,-0E0,3.3045446E-3,-3.3355418E-3,2.3100101E-3,2.4324813E-4,5.989205E-3,6.557483E-3,1.2199658E-2],"categories":[],"categories_nodes":[],"categories_segments":[],"categories_sizes":[],"default_left":[0,0,0,0,0,0,0,0,0,0,0,0,0,0,0,0,0,0,0,0,0,0,0,0,0,0,0],"id":33,"left_children":[1,3,5,7,9,11,13,15,-1,17,19,-1,21,23,25,-1,-1,-1,-1,-1,-1,-1,-1,-1,-1,-1,-1],"loss_changes":[8.465185E0,2.434964E0,2.2291975E0,3.0775166E-1,1.3073732E0,7.571192E-1,9.7387886E-1,2.1373415E-1,0E0,7.9660964E-1,2.0407233E-1,0E0,5.007472E-1,7.0725274E-1,2.3096704E-1,0E0,0E0,0E0,0E0,0E0,0E0,0E0,0E0,0E0,0E0,0E0,0E0],"parents":[2147483647,0,0,1,1,2,2,3,3,4,4,5,5,6,6,7,7,9,9,10,10,12,12,13,13,14,14],"right_children":[2,4,6,8,10,12,14,16,-1,18,20,-1,22,24,26,-1,-1,-1,-1,-1,-1,-1,-1,-1,-1,-1,-1],"split_conditions":[1.488E3,1E0,1.029E3,1.23E2,1.2E3,5E0,1.3262E4,3E0,-8.2175655E-4,5E0,8.28E2,-7.339288E-3,1E0,1.99E3,1.995E3,-1.2445963E-2,-3.2966805E-3,-7.548881E-3,-2.5997865E-3,-0E0,3.3045446E-3,-3.3355418E-3,2.3100101E-3,2.4324813E-4,5.989205E-3,6.557483E-3,1.2199658E-2],"split_indices":[20,259,15,36,15,4,1,9,0,3,12,0,134,6,20,0,0,0,0,0,0,0,0,0,0,0,0],"split_type":[0,0,0,0,0,0,0,0,0,0,0,0,0,0,0,0,0,0,0,0,0,0,0,0,0,0,0],"sum_hessian":[1.22E3,6.66E2,5.54E2,7.3E1,5.93E2,2.43E2,3.11E2,6.6E1,7E0,4.51E2,1.42E2,1.7E1,2.26E2,2.2E2,9.1E1,5.7E1,9E0,7.2E1,3.79E2,9E1,5.2E1,3.1E1,1.95E2,5.4E1,1.66E2,3.9E1,5.2E1],"tree_param":{"num_deleted":"0","num_feature":"299","num_nodes":"27","size_leaf_vector":"1"}},{"base_weights":[-5.252898E-3,-6.748323E-2,7.0649646E-2,-2.0259255E-1,-4.484031E-2,5.216002E-2,2.1465763E-1,-2.426556E-1,-0E0,-7.415377E-2,2.5220685E-2,2.8028619E-2,1.3250463E-1,1.0471828E-2,1.1270371E-3,-1.327544E-2,-6.5252217E-3,-5.1773246E-3,-2.0571114E-3,1.9561325E-4,5.578728E-3,-2.4898034E-3,1.8362907E-3,6.14565E-3,-0E0],"categories":[],"categories_nodes":[],"categories_segments":[],"categories_sizes":[],"default_left":[0,0,0,0,0,0,0,0,0,0,0,0,0,0,0,0,0,0,0,0,0,0,0,0,0],"id":34,"left_children":[1,3,5,7,9,11,13,15,-1,17,19,21,23,-1,-1,-1,-1,-1,-1,-1,-1,-1,-1,-1,-1],"loss_changes":[5.5987163E0,1.9439213E0,1.3613214E0,7.611635E-1,1.1648796E0,8.9472747E-1,2.8687143E-1,3.0832386E-1,0E0,4.5224333E-1,3.4243E-1,4.787635E-1,1.4692092E-1,0E0,0E0,0E0,0E0,0E0,0E0,0E0,0E0,0E0,0E0,0E0,0E0],"parents":[2147483647,0,0,1,1,2,2,3,3,4,4,5,5,6,6,7,7,9,9,10,10,11,11,12,12],"right_children":[2,4,6,8,10,12,14,16,-1,18,20,22,24,-1,-1,-1,-1,-1,-1,-1,-1,-1,-1,-1,-1],"split_conditions":[3E0,1E0,2.327E3,1.024E3,1.498E3,1.56E3,8.59E2,2E0,-0E0,7.558E3,2E0,1.118E3,1.721E3,1.0471828E-2,1.1270371E-3,-1.327544E-2,-6.5252217E-3,-5.1773246E-3,-2.0571114E-3,1.9561325E-4,5.578728E-3,-2.4898034E-3,1.8362907E-3,6.14565E-3,-0E0],"split_indices":[27,259,20,15,20,17,33,35,0,1,29,20,14,0,0,0,0,0,0,0,0,0,0,0,0],"split_type":[0,0,0,0,0,0,0,0,0,0,0,0,0,0,0,0,0,0,0,0,0,0,0,0,0],"sum_hessian":[1.181E3,6.5E2,5.31E2,9E1,5.6E2,4.74E2,5.7E1,7.5E1,1.5E1,3.96E2,1.64E2,3.68E2,1.06E2,4.8E1,9E0,3.9E1,3.6E1,1.37E2,2.59E2,1.4E2,2.4E1,5.2E1,3.16E2,9.7E1,9E0],"tree_param":{"num_deleted":"0","num_feature":"299","num_nodes":"25","size_leaf_vector":"1"}},{"base_weights":[3.61141E-3,-6.0582485E-2,7.522817E-2,-1.3843834E-1,-3.3259634E-2,4.948795E-2,1.9144139E-1,-1.745394E-1,-4.02286E-2,-9.242597E-2,-1.1510997E-2,1.1930914E-2,9.190271E-2,1.2729391E-1,1.0178327E-2,-1.2846029E-2,-5.9762616E-3,-4.9905805E-3,5.9453066E-4,-5.230323E-3,1.7267449E-3,-1.12093294E-4,-5.464034E-3,-0E0,3.4748889E-3,2.9944791E-3,6.203612E-3,-0E0,7.1118646E-3],"categories":[],"categories_nodes":[],"categories_segments":[],"categories_sizes":[],"default_left":[0,0,0,0,0,0,0,0,0,0,0,0,0,0,0,0,0,0,0,0,0,0,0,0,0,0,0,0,0],"id":35,"left_children":[1,3,5,7,9,11,13,15,17,19,21,23,25,27,-1,-1,-1,-1,-1,-1,-1,-1,-1,-1,-1,-1,-1,-1,-1],"loss_changes":[5.6168466E0,1.336334E0,1.6782422E0,5.430279E-1,6.0236377E-1,7.445524E-1,1.9489312E-1,3.7474895E-1,2.1587822E-1,5.247673E-1,3.4965456E-1,2.1525964E-1,2.0901549E-1,2.3041332E-1,0E0,0E0,0E0,0E0,0E0,0E0,0E0,0E0,0E0,0E0,0E0,0E0,0E0,0E0,0E0],"parents":[2147483647,0,0,1,1,2,2,3,3,4,4,5,5,6,6,7,7,8,8,9,9,10,10,11,11,12,12,13,13],"right_children":[2,4,6,8,10,12,14,16,18,20,22,24,26,28,-1,-1,-1,-1,-1,-1,-1,-1,-1,-1,-1,-1,-1,-1,-1],"split_conditions":[3E0,1E0,4E0,1.993E3,1.959E3,9.765E3,1.167E4,1.914E3,1.939E3,1E0,1E0,8.67E2,4E0,1E0,1.0178327E-2,-1.2846029E-2,-5.9762616E-3,-4.9905805E-3,5.9453066E-4,-5.230323E-3,1.7267449E-3,-1.12093294E-4,-5.464034E-3,-0E0,3.4748889E-3,2.9944791E-3,6.203612E-3,-0E0,7.1118646E-3],"split_indices":[27,66,10,6,6,1,1,31,31,24,293,18,25,213,0,0,0,0,0,0,0,0,0,0,0,0,0,0,0],"split_type":[0,0,0,0,0,0,0,0,0,0,0,0,0,0,0,0,0,0,0,0,0,0,0,0,0,0,0,0,0],"sum_hessian":[1.217E3,6.41E2,5.76E2,1.63E2,4.78E2,4.75E2,1.01E2,1.17E2,4.6E1,1.25E2,3.53E2,2.55E2,2.2E2,4.7E1,5.4E1,2.1E1,9.6E1,1.9E1,2.7E1,1.03E2,2.2E1,3.31E2,2.2E1,2.19E2,3.6E1,1.61E2,5.9E1,1.2E1,3.5E1],"tree_param":{"num_deleted":"0","num_feature":"299","num_nodes":"29","size_leaf_vector":"1"}},{"base_weights":[7.7721017E-4,-6.602095E-2,7.730624E-2,-2.760116E-2,-5.7108156E-2,3.759251E-2,1.5812841E-1,-1.0395688E-1,-1.1371571E-2,-1.0178744E-2,9.038544E-2,1.1792684E-1,2.5271744E-1,-6.2660817E-3,-1.8149125E-3,-1.3024907E-3,3.157098E-3,-2.3604454E-3,1.7748828E-3,2.587423E-3,8.049866E-3,2.713054E-3,6.1191525E-3,1.215053E-2,3.9058018E-3],"categories":[],"categories_nodes":[],"categories_segments":[],"categories_sizes":[],"default_left":[0,0,0,0,0,0,0,0,0,0,0,0,0,0,0,0,0,0,0,0,0,0,0,0,0],"id":36,"left_children":[1,3,5,-1,7,9,11,13,15,17,19,21,23,-1,-1,-1,-1,-1,-1,-1,-1,-1,-1,-1,-1],"loss_changes":[6.0814705E0,3.103469E0,1.7441468E0,0E0,1.3266315E0,9.609335E-1,5.767727E-1,7.6837087E-1,5.210239E-1,4.67377E-1,4.7042823E-1,1.3477564E-1,1.5404344E-1,0E0,0E0,0E0,0E0,0E0,0E0,0E0,0E0,0E0,0E0,0E0,0E0],"parents":[2147483647,0,0,1,1,2,2,4,4,5,5,6,6,7,7,8,8,9,9,10,10,11,11,12,12],"right_children":[2,4,6,-1,8,10,12,14,16,18,20,22,24,-1,-1,-1,-1,-1,-1,-1,-1,-1,-1,-1,-1],"split_conditions":[1.488E3,3E0,8E0,-2.760116E-2,2E0,3.24E2,9E0,3.7E2,8.56E2,3E0,2E0,3.72E2,2.008E3,-6.2660817E-3,-1.8149125E-3,-1.3024907E-3,3.157098E-3,-2.3604454E-3,1.7748828E-3,2.587423E-3,8.049866E-3,2.713054E-3,6.1191525E-3,1.215053E-2,3.9058018E-3],"split_indices":[20,3,3,0,32,12,3,12,12,27,29,12,5,0,0,0,0,0,0,0,0,0,0,0,0],"split_type":[0,0,0,0,0,0,0,0,0,0,0,0,0,0,0,0,0,0,0,0,0,0,0,0,0],"sum_hessian":[1.185E3,6.32E2,5.53E2,7E0,6.25E2,3.74E2,1.79E2,3.06E2,3.19E2,1.96E2,1.78E2,1.3E2,4.9E1,1.78E2,1.28E2,2.63E2,5.6E1,1.06E2,9E1,1.4E2,3.8E1,4.5E1,8.5E1,3.9E1,1E1],"tree_param":{"num_deleted":"0","num_feature":"299","num_nodes":"25","size_leaf_vector":"1"}},{"base_weights":[-6.009138E-3,-7.010236E-2,6.8189844E-2,-4.340529E-1,-5.5457957E-2,3.029483E-2,1.4885366E-1,-2.3713488E-2,-9.939425E-3,-9.4448276E-2,-6.324779E-3,-1.5775796E-2,7.766139E-2,1.5859494E-1,-2.1861095E-3,-5.408709E-3,-2.30416E-3,-4.267166E-3,1.3936528E-4,-3.4409668E-3,1.2161398E-3,2.5486264E-3,7.189952E-3,5.2991454E-3,1.1400619E-2],"categories":[],"categories_nodes":[],"categories_segments":[],"categories_sizes":[],"default_left":[0,0,0,0,0,0,0,0,0,0,0,0,0,0,0,0,0,0,0,0,0,0,0,0,0],"id":37,"left_children":[1,3,5,7,9,11,13,-1,-1,15,17,19,21,23,-1,-1,-1,-1,-1,-1,-1,-1,-1,-1,-1],"loss_changes":[5.685057E0,3.3079503E0,1.6583345E0,2.0517826E-1,1.1739885E0,8.4018195E-1,3.7257862E-1,0E0,0E0,4.0884972E-1,2.6195824E-1,5.6360996E-1,2.5860524E-1,5.0855446E-1,0E0,0E0,0E0,0E0,0E0,0E0,0E0,0E0,0E0,0E0,0E0],"parents":[2147483647,0,0,1,1,2,2,3,3,4,4,5,5,6,6,9,9,10,10,11,11,12,12,13,13],"right_children":[2,4,6,8,10,12,14,-1,-1,16,18,20,22,24,-1,-1,-1,-1,-1,-1,-1,-1,-1,-1,-1],"split_conditions":[1.488E3,4E0,8E0,3E0,9.75E2,2.82E2,1.21E2,-2.3713488E-2,-9.939425E-3,1.974E3,1.953E3,1.986E3,2.153E3,1.83E3,-2.1861095E-3,-5.408709E-3,-2.30416E-3,-4.267166E-3,1.3936528E-4,-3.4409668E-3,1.2161398E-3,2.5486264E-3,7.189952E-3,5.2991454E-3,1.1400619E-2],"split_indices":[20,3,3,3,15,12,0,0,0,6,5,6,20,17,0,0,0,0,0,0,0,0,0,0,0],"split_type":[0,0,0,0,0,0,0,0,0,0,0,0,0,0,0,0,0,0,0,0,0,0,0,0,0],"sum_hessian":[1.191E3,6.4E2,5.51E2,2.2E1,6.18E2,3.78E2,1.73E2,1.1E1,1.1E1,3.42E2,2.76E2,1.91E2,1.87E2,1.66E2,7E0,1.87E2,1.55E2,2.5E1,2.51E2,7.8E1,1.13E2,1.6E2,2.7E1,1.3E2,3.6E1],"tree_param":{"num_deleted":"0","num_feature":"299","num_nodes":"25","size_leaf_vector":"1"}},{"base_weights":[1.1559793E-3,-8.426188E-2,5.2125677E-2,-2.0231595E-2,-7.269321E-2,1.7113911E-2,1.2904593E-1,-5.843922E-2,-8.848926E-3,-2.5375746E-3,2.9397368E-2,9.659475E-2,1.9274499E-1,-6.3754558E-3,-1.8492725E-3,2.5962195E-3,2.9085993E-4,4.505053E-3,-2.4656681E-3,4.9371463E-3,1.0323461E-2],"categories":[],"categories_nodes":[],"categories_segments":[],"categories_sizes":[],"default_left":[0,0,0,0,0,0,0,0,0,0,0,0,0,0,0,0,0,0,0,0,0],"id":38,"left_children":[1,3,5,-1,7,9,11,13,-1,-1,15,17,19,-1,-1,-1,-1,-1,-1,-1,-1],"loss_changes":[5.20466E0,1.8614318E0,1.9969349E0,0E0,7.7380514E-1,4.873865E-1,4.045775E-1,5.102978E-1,0E0,0E0,3.0878633E-1,2.3421109E-1,1.7613673E-1,0E0,0E0,0E0,0E0,0E0,0E0,0E0,0E0],"parents":[2147483647,0,0,1,1,2,2,4,4,5,5,6,6,7,7,10,10,11,11,12,12],"right_children":[2,4,6,-1,8,10,12,14,-1,-1,16,18,20,-1,-1,-1,-1,-1,-1,-1,-1],"split_conditions":[6E0,3E0,1.8E3,-2.0231595E-2,1E0,1.114E3,2.327E3,2E0,-8.848926E-3,-2.5375746E-3,2.008E3,1E0,3E0,-6.3754558E-3,-1.8492725E-3,2.5962195E-3,2.9085993E-4,4.505053E-3,-2.4656681E-3,4.9371463E-3,1.0323461E-2],"split_indices":[3,3,20,0,46,20,20,11,0,0,44,109,32,0,0,0,0,0,0,0,0],"split_type":[0,0,0,0,0,0,0,0,0,0,0,0,0,0,0,0,0,0,0,0,0],"sum_hessian":[1.192E3,4.44E2,7.48E2,1E1,4.34E2,5.17E2,2.31E2,3.96E2,3.8E1,6.9E1,4.48E2,1.58E2,7.3E1,5.3E1,3.43E2,1.84E2,2.64E2,1.51E2,7E0,3.2E1,4.1E1],"tree_param":{"num_deleted":"0","num_feature":"299","num_nodes":"21","size_leaf_vector":"1"}},{"base_weights":[-2.5408145E-3,-8.164863E-2,4.8341174E-2,-1.827781E-1,-5.2273218E-2,1.812153E-2,1.4357778E-1,-2.5776905E-1,-3.4544445E-3,-8.032113E-2,-1.8488878E-2,-1.54741E-1,2.9761484E-2,1.006049E-1,9.738988E-3,-1.401755E-2,-5.7994407E-3,-3.961409E-3,-3.4081223E-4,-3.2011454E-3,-1.3826686E-4,-3.1822664E-3,-1.2583763E-2,7.11349E-4,5.3293467E-3,8.566583E-5,4.863226E-3],"categories":[],"categories_nodes":[],"categories_segments":[],"categories_sizes":[],"default_left":[0,0,0,0,0,0,0,0,0,0,0,0,0,0,0,0,0,0,0,0,0,0,0,0,0,0,0],"id":39,"left_children":[1,3,5,7,9,11,13,15,-1,17,19,21,23,25,-1,-1,-1,-1,-1,-1,-1,-1,-1,-1,-1,-1,-1],"loss_changes":[4.74719E0,1.3222799E0,2.0349598E0,6.934414E-1,3.2739872E-1,1.0951766E0,5.2652454E-1,3.3235478E-1,0E0,1.5884387E-1,1.349566E-1,2.8826815E-1,6.1905634E-1,1.3699782E-1,0E0,0E0,0E0,0E0,0E0,0E0,0E0,0E0,0E0,0E0,0E0,0E0,0E0],"parents":[2147483647,0,0,1,1,2,2,3,3,4,4,5,5,6,6,7,7,9,9,10,10,11,11,12,12,13,13],"right_children":[2,4,6,8,10,12,14,16,-1,18,20,22,24,26,-1,-1,-1,-1,-1,-1,-1,-1,-1,-1,-1,-1,-1],"split_conditions":[1.308E3,1.941E3,8E0,7E0,1E0,5E0,9E0,1.024E3,-3.4544445E-3,1E0,8.83E2,1E0,1.5498E4,2E0,9.738988E-3,-1.401755E-2,-5.7994407E-3,-3.961409E-3,-3.4081223E-4,-3.2011454E-3,-1.3826686E-4,-3.1822664E-3,-1.2583763E-2,7.11349E-4,5.3293467E-3,8.566583E-5,4.863226E-3],"split_indices":[20,5,3,4,21,4,3,20,0,206,17,257,1,30,0,0,0,0,0,0,0,0,0,0,0,0,0],"split_type":[0,0,0,0,0,0,0,0,0,0,0,0,0,0,0,0,0,0,0,0,0,0,0,0,0,0,0],"sum_hessian":[1.174E3,4.6E2,7.14E2,1E2,3.6E2,5.45E2,1.69E2,5.5E1,4.5E1,1.93E2,1.67E2,3.2E1,5.13E2,1.16E2,5.3E1,3.2E1,2.3E1,1.63E2,3E1,3.2E1,1.35E2,2.3E1,9E0,4.54E2,5.9E1,1.5E1,1.01E2],"tree_param":{"num_deleted":"0","num_feature":"299","num_nodes":"27","size_leaf_vector":"1"}},{"base_weights":[6.2871617E-3,-5.570461E-2,5.643552E-2,-1.4678081E-2,-4.7326185E-2,2.6689911E-2,1.4215201E-1,-7.673774E-2,1.1669488E-2,-4.755559E-3,7.574539E-2,1.1993817E-1,1.2546424E-2,-5.308459E-3,-1.4305866E-3,-0E0,6.0014385E-3,-1.0660356E-3,3.033989E-3,1.3148608E-3,4.4728797E-3,-1.6211282E-3,5.574719E-3],"categories":[],"categories_nodes":[],"categories_segments":[],"categories_sizes":[],"default_left":[0,0,0,0,0,0,0,0,0,0,0,0,0,0,0,0,0,0,0,0,0,0,0],"id":40,"left_children":[1,3,5,-1,7,9,11,13,15,17,19,21,-1,-1,-1,-1,-1,-1,-1,-1,-1,-1,-1],"loss_changes":[3.6790106E0,1.1865776E0,1.640774E0,0E0,9.058845E-1,7.6595306E-1,4.3177128E-1,6.804657E-1,2.7531037E-1,4.5440927E-1,2.2620487E-1,2.6799917E-1,0E0,0E0,0E0,0E0,0E0,0E0,0E0,0E0,0E0,0E0,0E0],"parents":[2147483647,0,0,1,1,2,2,4,4,5,5,6,6,7,7,8,8,9,9,10,10,11,11],"right_children":[2,4,6,-1,8,10,12,14,16,18,20,22,-1,-1,-1,-1,-1,-1,-1,-1,-1,-1,-1],"split_conditions":[1.985E3,7.47E2,1.922E3,-1.4678081E-2,1.044E4,1.2E3,1.368E3,6E0,1E0,7.97E2,1E0,1.911E3,1.2546424E-2,-5.308459E-3,-1.4305866E-3,-0E0,6.0014385E-3,-1.0660356E-3,3.033989E-3,1.3148608E-3,4.4728797E-3,-1.6211282E-3,5.574719E-3],"split_indices":[6,20,20,0,1,15,18,4,95,18,21,5,0,0,0,0,0,0,0,0,0,0,0],"split_type":[0,0,0,0,0,0,0,0,0,0,0,0,0,0,0,0,0,0,0,0,0,0,0],"sum_hessian":[1.179E3,5.26E2,6.53E2,1.2E1,5.14E2,4.88E2,1.65E2,3.44E2,1.7E2,2.97E2,1.91E2,1.48E2,1.7E1,1.61E2,1.83E2,1.57E2,1.3E1,2.37E2,6E1,7.8E1,1.13E2,8E0,1.4E2],"tree_param":{"num_deleted":"0","num_feature":"299","num_nodes":"23","size_leaf_vector":"1"}},{"base_weights":[1.8106793E-3,-4.4304185E-2,8.275795E-2,-3.3746716E-1,-3.421861E-2,5.8597807E-2,2.2867163E-1,-1.9761042E-3,-4.4285172E-1,-6.5079913E-3,-2.3088392E-2,3.9394245E-2,6.5076025E-3,2.6422658E-3,2.6556927E-1,-7.1584103E-3,-2.498124E-2,-2.6030832E-3,4.0177102E-4,3.1189504E-3,2.398034E-4,7.814895E-3,1.5782343E-2],"categories":[],"categories_nodes":[],"categories_segments":[],"categories_sizes":[],"default_left":[0,0,0,0,0,0,0,0,0,0,0,0,0,0,0,0,0,0,0,0,0,0,0],"id":41,"left_children":[1,3,5,7,9,11,13,-1,15,-1,17,19,-1,-1,21,-1,-1,-1,-1,-1,-1,-1,-1],"loss_changes":[4.388512E0,2.136755E0,1.4401755E0,6.355579E-1,9.21597E-1,6.272559E-1,2.8708386E-1,0E0,3.588729E-1,0E0,8.246136E-1,3.414073E-1,0E0,0E0,1.8688202E-1,0E0,0E0,0E0,0E0,0E0,0E0,0E0,0E0],"parents":[2147483647,0,0,1,1,2,2,3,3,4,4,5,5,6,6,8,8,10,10,11,11,14,14],"right_children":[2,4,6,8,10,12,14,-1,16,-1,18,20,-1,-1,22,-1,-1,-1,-1,-1,-1,-1,-1],"split_conditions":[7E0,4E0,9E0,2.008E3,2E0,1.097E3,3E0,-1.9761042E-3,7.28E2,-6.5079913E-3,2E0,2.008E3,6.5076025E-3,2.6422658E-3,1E1,-7.1584103E-3,-2.498124E-2,-2.6030832E-3,4.0177102E-4,3.1189504E-3,2.398034E-4,7.814895E-3,1.5782343E-2],"split_indices":[3,3,3,44,10,12,32,0,17,0,32,44,0,0,3,0,0,0,0,0,0,0,0],"split_type":[0,0,0,0,0,0,0,0,0,0,0,0,0,0,0,0,0,0,0,0,0,0,0],"sum_hessian":[1.17E3,7.45E2,4.25E2,2.2E1,7.23E2,3.68E2,5.7E1,7E0,1.5E1,5.9E1,6.64E2,3.09E2,5.9E1,1.2E1,4.5E1,7E0,8E0,3.08E2,3.56E2,1.52E2,1.57E2,2.9E1,1.6E1],"tree_param":{"num_deleted":"0","num_feature":"299","num_nodes":"23","size_leaf_vector":"1"}},{"base_weights":[5.4093013E-3,-3.49722E-2,8.868636E-2,-1.7877875E-1,-1.4786266E-2,6.072258E-2,2.0053147E-1,-1.6249787E-2,