{"learner":{"attributes":{},"feature_names":[],"feature_types":[],"gradient_booster":{"model":{"gbtree_model_param":{"num_parallel_tree":"1","num_trees":"3624"},"iteration_indptr":[0,1,2,3,4,5,6,7,8,9,10,11,12,13,14,15,16,17,18,19,20,21,22,23,24,25,26,27,28,29,30,31,32,33,34,35,36,37,38,39,40,41,42,43,44,45,46,47,48,49,50,51,52,53,54,55,56,57,58,59,60,61,62,63,64,65,66,67,68,69,70,71,72,73,74,75,76,77,78,79,80,81,82,83,84,85,86,87,88,89,90,91,92,93,94,95,96,97,98,99,100,101,102,103,104,105,106,107,108,109,110,111,112,113,114,115,116,117,118,119,120,121,122,123,124,125,126,127,128,129,130,131,132,133,134,135,136,137,138,139,140,141,142,143,144,145,146,147,148,149,150,151,152,153,154,155,156,157,158,159,160,161,162,163,164,165,166,167,168,169,170,171,172,173,174,175,176,177,178,179,180,181,182,183,184,185,186,187,188,189,190,191,192,193,194,195,196,197,198,199,200,201,202,203,204,205,206,207,208,209,210,211,212,213,214,215,216,217,218,219,220,221,222,223,224,225,226,227,228,229,230,231,232,233,234,235,236,237,238,239,240,241,242,243,244,245,246,247,248,249,250,251,252,253,254,255,256,257,258,259,260,261,262,263,264,265,266,267,268,269,270,271,272,273,274,275,276,277,278,279,280,281,282,283,284,285,286,287,288,289,290,291,292,293,294,295,296,297,298,299,300,301,302,303,304,305,306,307,308,309,310,311,312,313,314,315,316,317,318,319,320,321,322,323,324,325,326,327,328,329,330,331,332,333,334,335,336,337,338,339,340,341,342,343,344,345,346,347,348,349,350,351,352,353,354,355,356,357,358,359,360,361,362,363,364,365,366,367,368,369,370,371,372,373,374,375,376,377,378,379,380,381,382,383,384,385,386,387,388,389,390,391,392,393,394,395,396,397,398,399,400,401,402,403,404,405,406,407,408,409,410,411,412,413,414,415,416,417,418,419,420,421,422,423,424,425,426,427,428,429,430,431,432,433,434,435,436,437,438,439,440,441,442,443,444,445,446,447,448,449,450,451,452,453,454,455,456,457,458,459,460,461,462,463,464,465,466,467,468,469,470,471,472,473,474,475,476,477,478,479,480,481,482,483,484,485,486,487,488,489,490,491,492,493,494,495,496,497,498,499,500,501,502,503,504,505,506,507,508,509,510,511,512,513,514,515,516,517,518,519,520,521,522,523,524,525,526,527,528,529,530,531,532,533,534,535,536,537,538,539,540,541,542,543,544,545,546,547,548,549,550,551,552,553,554,555,556,557,558,559,560,561,562,563,564,565,566,567,568,569,570,571,572,573,574,575,576,577,578,579,580,581,582,583,584,585,586,587,588,589,590,591,592,593,594,595,596,597,598,599,600,601,602,603,604,605,606,607,608,609,610,611,612,613,614,615,616,617,618,619,620,621,622,623,624,625,626,627,628,629,630,631,632,633,634,635,636,637,638,639,640,641,642,643,644,645,646,647,648,649,650,651,652,653,654,655,656,657,658,659,660,661,662,663,664,665,666,667,668,669,670,671,672,673,674,675,676,677,678,679,680,681,682,683,684,685,686,687,688,689,690,691,692,693,694,695,696,697,698,699,700,701,702,703,704,705,706,707,708,709,710,711,712,713,714,715,716,717,718,719,720,721,722,723,724,725,726,727,728,729,730,731,732,733,734,735,736,737,738,739,740,741,742,743,744,745,746,747,748,749,750,751,752,753,754,755,756,757,758,759,760,761,762,763,764,765,766,767,768,769,770,771,772,773,774,775,776,777,778,779,780,781,782,783,784,785,786,787,788,789,790,791,792,793,794,795,796,797,798,799,800,801,802,803,804,805,806,807,808,809,810,811,812,813,814,815,816,817,818,819,820,821,822,823,824,825,826,827,828,829,830,831,832,833,834,835,836,837,838,839,840,841,842,843,844,845,846,847,848,849,850,851,852,853,854,855,856,857,858,859,860,861,862,863,864,865,866,867,868,869,870,871,872,873,874,875,876,877,878,879,880,881,882,883,884,885,886,887,888,889,890,891,892,893,894,895,896,897,898,899,900,901,902,903,904,905,906,907,908,909,910,911,912,913,914,915,916,917,918,919,920,921,922,923,924,925,926,927,928,929,930,931,932,933,934,935,936,937,938,939,940,941,942,943,944,945,946,947,948,949,950,951,952,953,954,955,956,957,958,959,960,961,962,963,964,965,966,967,968,969,970,971,972,973,974,975,976,977,978,979,980,981,982,983,984,985,986,987,988,989,990,991,992,993,994,995,996,997,998,999,1000,1001,1002,1003,1004,1005,1006,1007,1008,1009,1010,1011,1012,1013,1014,1015,1016,1017,1018,1019,1020,1021,1022,1023,1024,1025,1026,1027,1028,1029,1030,1031,1032,1033,1034,1035,1036,1037,1038,1039,1040,1041,1042,1043,1044,1045,1046,1047,1048,1049,1050,1051,1052,1053,1054,1055,1056,1057,1058,1059,1060,1061,1062,1063,1064,1065,1066,1067,1068,1069,1070,1071,1072,1073,1074,1075,1076,1077,1078,1079,1080,1081,1082,1083,1084,1085,1086,1087,1088,1089,1090,1091,1092,1093,1094,1095,1096,1097,1098,1099,1100,1101,1102,1103,1104,1105,1106,1107,1108,1109,1110,1111,1112,1113,1114,1115,1116,1117,1118,1119,1120,1121,1122,1123,1124,1125,1126,1127,1128,1129,1130,1131,1132,1133,1134,1135,1136,1137,1138,1139,1140,1141,1142,1143,1144,1145,1146,1147,1148,1149,1150,1151,1152,1153,1154,1155,1156,1157,1158,1159,1160,1161,1162,1163,1164,1165,1166,1167,1168,1169,1170,1171,1172,1173,1174,1175,1176,1177,1178,1179,1180,1181,1182,1183,1184,1185,1186,1187,1188,1189,1190,1191,1192,1193,1194,1195,1196,1197,1198,1199,1200,1201,1202,1203,1204,1205,1206,1207,1208,1209,1210,1211,1212,1213,1214,1215,1216,1217,1218,1219,1220,1221,1222,1223,1224,1225,1226,1227,1228,1229,1230,1231,1232,1233,1234,1235,1236,1237,1238,1239,1240,1241,1242,1243,1244,1245,1246,1247,1248,1249,1250,1251,1252,1253,1254,1255,1256,1257,1258,1259,1260,1261,1262,1263,1264,1265,1266,1267,1268,1269,1270,1271,1272,1273,1274,1275,1276,1277,1278,1279,1280,1281,1282,1283,1284,1285,1286,1287,1288,1289,1290,1291,1292,1293,1294,1295,1296,1297,1298,1299,1300,1301,1302,1303,1304,1305,1306,1307,1308,1309,1310,1311,1312,1313,1314,1315,1316,1317,1318,1319,1320,1321,1322,1323,1324,1325,1326,1327,1328,1329,1330,1331,1332,1333,1334,1335,1336,1337,1338,1339,1340,1341,1342,1343,1344,1345,1346,1347,1348,1349,1350,1351,1352,1353,1354,1355,1356,1357,1358,1359,1360,1361,1362,1363,1364,1365,1366,1367,1368,1369,1370,1371,1372,1373,1374,1375,1376,1377,1378,1379,1380,1381,1382,1383,1384,1385,1386,1387,1388,1389,1390,1391,1392,1393,1394,1395,1396,1397,1398,1399,1400,1401,1402,1403,1404,1405,1406,1407,1408,1409,1410,1411,1412,1413,1414,1415,1416,1417,1418,1419,1420,1421,1422,1423,1424,1425,1426,1427,1428,1429,1430,1431,1432,1433,1434,1435,1436,1437,1438,1439,1440,1441,1442,1443,1444,1445,1446,1447,1448,1449,1450,1451,1452,1453,1454,1455,1456,1457,1458,1459,1460,1461,1462,1463,1464,1465,1466,1467,1468,1469,1470,1471,1472,1473,1474,1475,1476,1477,1478,1479,1480,1481,1482,1483,1484,1485,1486,1487,1488,1489,1490,1491,1492,1493,1494,1495,1496,1497,1498,1499,1500,1501,1502,1503,1504,1505,1506,1507,1508,1509,1510,1511,1512,1513,1514,1515,1516,1517,1518,1519,1520,1521,1522,1523,1524,1525,1526,1527,1528,1529,1530,1531,1532,1533,1534,1535,1536,1537,1538,1539,1540,1541,1542,1543,1544,1545,1546,1547,1548,1549,1550,1551,1552,1553,1554,1555,1556,1557,1558,1559,1560,1561,1562,1563,1564,1565,1566,1567,1568,1569,1570,1571,1572,1573,1574,1575,1576,1577,1578,1579,1580,1581,1582,1583,1584,1585,1586,1587,1588,1589,1590,1591,1592,1593,1594,1595,1596,1597,1598,1599,1600,1601,1602,1603,1604,1605,1606,1607,1608,1609,1610,1611,1612,1613,1614,1615,1616,1617,1618,1619,1620,1621,1622,1623,1624,1625,1626,1627,1628,1629,1630,1631,1632,1633,1634,1635,1636,1637,1638,1639,1640,1641,1642,1643,1644,1645,1646,1647,1648,1649,1650,1651,1652,1653,1654,1655,1656,1657,1658,1659,1660,1661,1662,1663,1664,1665,1666,1667,1668,1669,1670,1671,1672,1673,1674,1675,1676,1677,1678,1679,1680,1681,1682,1683,1684,1685,1686,1687,1688,1689,1690,1691,1692,1693,1694,1695,1696,1697,1698,1699,1700,1701,1702,1703,1704,1705,1706,1707,1708,1709,1710,1711,1712,1713,1714,1715,1716,1717,1718,1719,1720,1721,1722,1723,1724,1725,1726,1727,1728,1729,1730,1731,1732,1733,1734,1735,1736,1737,1738,1739,1740,1741,1742,1743,1744,1745,1746,1747,1748,1749,1750,1751,1752,1753,1754,1755,1756,1757,1758,1759,1760,1761,1762,1763,1764,1765,1766,1767,1768,1769,1770,1771,1772,1773,1774,1775,1776,1777,1778,1779,1780,1781,1782,1783,1784,1785,1786,1787,1788,1789,1790,1791,1792,1793,1794,1795,1796,1797,1798,1799,1800,1801,1802,1803,1804,1805,1806,1807,1808,1809,1810,1811,1812,1813,1814,1815,1816,1817,1818,1819,1820,1821,1822,1823,1824,1825,1826,1827,1828,1829,1830,1831,1832,1833,1834,1835,1836,1837,1838,1839,1840,1841,1842,1843,1844,1845,1846,1847,1848,1849,1850,1851,1852,1853,1854,1855,1856,1857,1858,1859,1860,1861,1862,1863,1864,1865,1866,1867,1868,1869,1870,1871,1872,1873,1874,1875,1876,1877,1878,1879,1880,1881,1882,1883,1884,1885,1886,1887,1888,1889,1890,1891,1892,1893,1894,1895,1896,1897,1898,1899,1900,1901,1902,1903,1904,1905,1906,1907,1908,1909,1910,1911,1912,1913,1914,1915,1916,1917,1918,1919,1920,1921,1922,1923,1924,1925,1926,1927,1928,1929,1930,1931,1932,1933,1934,1935,1936,1937,1938,1939,1940,1941,1942,1943,1944,1945,1946,1947,1948,1949,1950,1951,1952,1953,1954,1955,1956,1957,1958,1959,1960,1961,1962,1963,1964,1965,1966,1967,1968,1969,1970,1971,1972,1973,1974,1975,1976,1977,1978,1979,1980,1981,1982,1983,1984,1985,1986,1987,1988,1989,1990,1991,1992,1993,1994,1995,1996,1997,1998,1999,2000,2001,2002,2003,2004,2005,2006,2007,2008,2009,2010,2011,2012,2013,2014,2015,2016,2017,2018,2019,2020,2021,2022,2023,2024,2025,2026,2027,2028,2029,2030,2031,2032,2033,2034,2035,2036,2037,2038,2039,2040,2041,2042,2043,2044,2045,2046,2047,2048,2049,2050,2051,2052,2053,2054,2055,2056,2057,2058,2059,2060,2061,2062,2063,2064,2065,2066,2067,2068,2069,2070,2071,2072,2073,2074,2075,2076,2077,2078,2079,2080,2081,2082,2083,2084,2085,2086,2087,2088,2089,2090,2091,2092,2093,2094,2095,2096,2097,2098,2099,2100,2101,2102,2103,2104,2105,2106,2107,2108,2109,2110,2111,2112,2113,2114,2115,2116,2117,2118,2119,2120,2121,2122,2123,2124,2125,2126,2127,2128,2129,2130,2131,2132,2133,2134,2135,2136,2137,2138,2139,2140,2141,2142,2143,2144,2145,2146,2147,2148,2149,2150,2151,2152,2153,2154,2155,2156,2157,2158,2159,2160,2161,2162,2163,2164,2165,2166,2167,2168,2169,2170,2171,2172,2173,2174,2175,2176,2177,2178,2179,2180,2181,2182,2183,2184,2185,2186,2187,2188,2189,2190,2191,2192,2193,2194,2195,2196,2197,2198,2199,2200,2201,2202,2203,2204,2205,2206,2207,2208,2209,2210,2211,2212,2213,2214,2215,2216,2217,2218,2219,2220,2221,2222,2223,2224,2225,2226,2227,2228,2229,2230,2231,2232,2233,2234,2235,2236,2237,2238,2239,2240,2241,2242,2243,2244,2245,2246,2247,2248,2249,2250,2251,2252,2253,2254,2255,2256,2257,2258,2259,2260,2261,2262,2263,2264,2265,2266,2267,2268,2269,2270,2271,2272,2273,2274,2275,2276,2277,2278,2279,2280,2281,2282,2283,2284,2285,2286,2287,2288,2289,2290,2291,2292,2293,2294,2295,2296,2297,2298,2299,2300,2301,2302,2303,2304,2305,2306,2307,2308,2309,2310,2311,2312,2313,2314,2315,2316,2317,2318,2319,2320,2321,2322,2323,2324,2325,2326,2327,2328,2329,2330,2331,2332,2333,2334,2335,2336,2337,2338,2339,2340,2341,2342,2343,2344,2345,2346,2347,2348,2349,2350,2351,2352,2353,2354,2355,2356,2357,2358,2359,2360,2361,2362,2363,2364,2365,2366,2367,2368,2369,2370,2371,2372,2373,2374,2375,2376,2377,2378,2379,2380,2381,2382,2383,2384,2385,2386,2387,2388,2389,2390,2391,2392,2393,2394,2395,2396,2397,2398,2399,2400,2401,2402,2403,2404,2405,2406,2407,2408,2409,2410,2411,2412,2413,2414,2415,2416,2417,2418,2419,2420,2421,2422,2423,2424,2425,2426,2427,2428,2429,2430,2431,2432,2433,2434,2435,2436,2437,2438,2439,2440,2441,2442,2443,2444,2445,2446,2447,2448,2449,2450,2451,2452,2453,2454,2455,2456,2457,2458,2459,2460,2461,2462,2463,2464,2465,2466,2467,2468,2469,2470,2471,2472,2473,2474,2475,2476,2477,2478,2479,2480,2481,2482,2483,2484,2485,2486,2487,2488,2489,2490,2491,2492,2493,2494,2495,2496,2497,2498,2499,2500,2501,2502,2503,2504,2505,2506,2507,2508,2509,2510,2511,2512,2513,2514,2515,2516,2517,2518,2519,2520,2521,2522,2523,2524,2525,2526,2527,2528,2529,2530,2531,2532,2533,2534,2535,2536,2537,2538,2539,2540,2541,2542,2543,2544,2545,2546,2547,2548,2549,2550,2551,2552,2553,2554,2555,2556,2557,2558,2559,2560,2561,2562,2563,2564,2565,2566,2567,2568,2569,2570,2571,2572,2573,2574,2575,2576,2577,2578,2579,2580,2581,2582,2583,2584,2585,2586,2587,2588,2589,2590,2591,2592,2593,2594,2595,2596,2597,2598,2599,2600,2601,2602,2603,2604,2605,2606,2607,2608,2609,2610,2611,2612,2613,2614,2615,2616,2617,2618,2619,2620,2621,2622,2623,2624,2625,2626,2627,2628,2629,2630,2631,2632,2633,2634,2635,2636,2637,2638,2639,2640,2641,2642,2643,2644,2645,2646,2647,2648,2649,2650,2651,2652,2653,2654,2655,2656,2657,2658,2659,2660,2661,2662,2663,2664,2665,2666,2667,2668,2669,2670,2671,2672,2673,2674,2675,2676,2677,2678,2679,2680,2681,2682,2683,2684,2685,2686,2687,2688,2689,2690,2691,2692,2693,2694,2695,2696,2697,2698,2699,2700,2701,2702,2703,2704,2705,2706,2707,2708,2709,2710,2711,2712,2713,2714,2715,2716,2717,2718,2719,2720,2721,2722,2723,2724,2725,2726,2727,2728,2729,2730,2731,2732,2733,2734,2735,2736,2737,2738,2739,2740,2741,2742,2743,2744,2745,2746,2747,2748,2749,2750,2751,2752,2753,2754,2755,2756,2757,2758,2759,2760,2761,2762,2763,2764,2765,2766,2767,2768,2769,2770,2771,2772,2773,2774,2775,2776,2777,2778,2779,2780,2781,2782,2783,2784,2785,2786,2787,2788,2789,2790,2791,2792,2793,2794,2795,2796,2797,2798,2799,2800,2801,2802,2803,2804,2805,2806,2807,2808,2809,2810,2811,2812,2813,2814,2815,2816,2817,2818,2819,2820,2821,2822,2823,2824,2825,2826,2827,2828,2829,2830,2831,2832,2833,2834,2835,2836,2837,2838,2839,2840,2841,2842,2843,2844,2845,2846,2847,2848,2849,2850,2851,2852,2853,2854,2855,2856,2857,2858,2859,2860,2861,2862,2863,2864,2865,2866,2867,2868,2869,2870,2871,2872,2873,2874,2875,2876,2877,2878,2879,2880,2881,2882,2883,2884,2885,2886,2887,2888,2889,2890,2891,2892,2893,2894,2895,2896,2897,2898,2899,2900,2901,2902,2903,2904,2905,2906,2907,2908,2909,2910,2911,2912,2913,2914,2915,2916,2917,2918,2919,2920,2921,2922,2923,2924,2925,2926,2927,2928,2929,2930,2931,2932,2933,2934,2935,2936,2937,2938,2939,2940,2941,2942,2943,2944,2945,2946,2947,2948,2949,2950,2951,2952,2953,2954,2955,2956,2957,2958,2959,2960,2961,2962,2963,2964,2965,2966,2967,2968,2969,2970,2971,2972,2973,2974,2975,2976,2977,2978,2979,2980,2981,2982,2983,2984,2985,2986,2987,2988,2989,2990,2991,2992,2993,2994,2995,2996,2997,2998,2999,3000,3001,3002,3003,3004,3005,3006,3007,3008,3009,3010,3011,3012,3013,3014,3015,3016,3017,3018,3019,3020,3021,3022,3023,3024,3025,3026,3027,3028,3029,3030,3031,3032,3033,3034,3035,3036,3037,3038,3039,3040,3041,3042,3043,3044,3045,3046,3047,3048,3049,3050,3051,3052,3053,3054,3055,3056,3057,3058,3059,3060,3061,3062,3063,3064,3065,3066,3067,3068,3069,3070,3071,3072,3073,3074,3075,3076,3077,3078,3079,3080,3081,3082,3083,3084,3085,3086,3087,3088,3089,3090,3091,3092,3093,3094,3095,3096,3097,3098,3099,3100,3101,3102,3103,3104,3105,3106,3107,3108,3109,3110,3111,3112,3113,3114,3115,3116,3117,3118,3119,3120,3121,3122,3123,3124,3125,3126,3127,3128,3129,3130,3131,3132,3133,3134,3135,3136,3137,3138,3139,3140,3141,3142,3143,3144,3145,3146,3147,3148,3149,3150,3151,3152,3153,3154,3155,3156,3157,3158,3159,3160,3161,3162,3163,3164,3165,3166,3167,3168,3169,3170,3171,3172,3173,3174,3175,3176,3177,3178,3179,3180,3181,3182,3183,3184,3185,3186,3187,3188,3189,3190,3191,3192,3193,3194,3195,3196,3197,3198,3199,3200,3201,3202,3203,3204,3205,3206,3207,3208,3209,3210,3211,3212,3213,3214,3215,3216,3217,3218,3219,3220,3221,3222,3223,3224,3225,3226,3227,3228,3229,3230,3231,3232,3233,3234,3235,3236,3237,3238,3239,3240,3241,3242,3243,3244,3245,3246,3247,3248,3249,3250,3251,3252,3253,3254,3255,3256,3257,3258,3259,3260,3261,3262,3263,3264,3265,3266,3267,3268,3269,3270,3271,3272,3273,3274,3275,3276,3277,3278,3279,3280,3281,3282,3283,3284,3285,3286,3287,3288,3289,3290,3291,3292,3293,3294,3295,3296,3297,3298,3299,3300,3301,3302,3303,3304,3305,3306,3307,3308,3309,3310,3311,3312,3313,3314,3315,3316,3317,3318,3319,3320,3321,3322,3323,3324,3325,3326,3327,3328,3329,3330,3331,3332,3333,3334,3335,3336,3337,3338,3339,3340,3341,3342,3343,3344,3345,3346,3347,3348,3349,3350,3351,3352,3353,3354,3355,3356,3357,3358,3359,3360,3361,3362,3363,3364,3365,3366,3367,3368,3369,3370,3371,3372,3373,3374,3375,3376,3377,3378,3379,3380,3381,3382,3383,3384,3385,3386,3387,3388,3389,3390,3391,3392,3393,3394,3395,3396,3397,3398,3399,3400,3401,3402,3403,3404,3405,3406,3407,3408,3409,3410,3411,3412,3413,3414,3415,3416,3417,3418,3419,3420,3421,3422,3423,3424,3425,3426,3427,3428,3429,3430,3431,3432,3433,3434,3435,3436,3437,3438,3439,3440,3441,3442,3443,3444,3445,3446,3447,3448,3449,3450,3451,3452,3453,3454,3455,3456,3457,3458,3459,3460,3461,3462,3463,3464,3465,3466,3467,3468,3469,3470,3471,3472,3473,3474,3475,3476,3477,3478,3479,3480,3481,3482,3483,3484,3485,3486,3487,3488,3489,3490,3491,3492,3493,3494,3495,3496,3497,3498,3499,3500,3501,3502,3503,3504,3505,3506,3507,3508,3509,3510,3511,3512,3513,3514,3515,3516,3517,3518,3519,3520,3521,3522,3523,3524,3525,3526,3527,3528,3529,3530,3531,3532,3533,3534,3535,3536,3537,3538,3539,3540,3541,3542,3543,3544,3545,3546,3547,3548,3549,3550,3551,3552,3553,3554,3555,3556,3557,3558,3559,3560,3561,3562,3563,3564,3565,3566,3567,3568,3569,3570,3571,3572,3573,3574,3575,3576,3577,3578,3579,3580,3581,3582,3583,3584,3585,3586,3587,3588,3589,3590,3591,3592,3593,3594,3595,3596,3597,3598,3599,3600,3601,3602,3603,3604,3605,3606,3607,3608,3609,3610,3611,3612,3613,3614,3615,3616,3617,3618,3619,3620,3621,3622,3623,3624],"tree_info":[0,0,0,0,0,0,0,0,0,0,0,0,0,0,0,0,0,0,0,0,0,0,0,0,0,0,0,0,0,0,0,0,0,0,0,0,0,0,0,0,0,0,0,0,0,0,0,0,0,0,0,0,0,0,0,0,0,0,0,0,0,0,0,0,0,0,0,0,0,0,0,0,0,0,0,0,0,0,0,0,0,0,0,0,0,0,0,0,0,0,0,0,0,0,0,0,0,0,0,0,0,0,0,0,0,0,0,0,0,0,0,0,0,0,0,0,0,0,0,0,0,0,0,0,0,0,0,0,0,0,0,0,0,0,0,0,0,0,0,0,0,0,0,0,0,0,0,0,0,0,0,0,0,0,0,0,0,0,0,0,0,0,0,0,0,0,0,0,0,0,0,0,0,0,0,0,0,0,0,0,0,0,0,0,0,0,0,0,0,0,0,0,0,0,0,0,0,0,0,0,0,0,0,0,0,0,0,0,0,0,0,0,0,0,0,0,0,0,0,0,0,0,0,0,0,0,0,0,0,0,0,0,0,0,0,0,0,0,0,0,0,0,0,0,0,0,0,0,0,0,0,0,0,0,0,0,0,0,0,0,0,0,0,0,0,0,0,0,0,0,0,0,0,0,0,0,0,0,0,0,0,0,0,0,0,0,0,0,0,0,0,0,0,0,0,0,0,0,0,0,0,0,0,0,0,0,0,0,0,0,0,0,0,0,0,0,0,0,0,0,0,0,0,0,0,0,0,0,0,0,0,0,0,0,0,0,0,0,0,0,0,0,0,0,0,0,0,0,0,0,0,0,0,0,0,0,0,0,0,0,0,0,0,0,0,0,0,0,0,0,0,0,0,0,0,0,0,0,0,0,0,0,0,0,0,0,0,0,0,0,0,0,0,0,0,0,0,0,0,0,0,0,0,0,0,0,0,0,0,0,0,0,0,0,0,0,0,0,0,0,0,0,0,0,0,0,0,0,0,0,0,0,0,0,0,0,0,0,0,0,0,0,0,0,0,0,0,0,0,0,0,0,0,0,0,0,0,0,0,0,0,0,0,0,0,0,0,0,0,0,0,0,0,0,0,0,0,0,0,0,0,0,0,0,0,0,0,0,0,0,0,0,0,0,0,0,0,0,0,0,0,0,0,0,0,0,0,0,0,0,0,0,0,0,0,0,0,0,0,0,0,0,0,0,0,0,0,0,0,0,0,0,0,0,0,0,0,0,0,0,0,0,0,0,0,0,0,0,0,0,0,0,0,0,0,0,0,0,0,0,0,0,0,0,0,0,0,0,0,0,0,0,0,0,0,0,0,0,0,0,0,0,0,0,0,0,0,0,0,0,0,0,0,0,0,0,0,0,0,0,0,0,0,0,0,0,0,0,0,0,0,0,0,0,0,0,0,0,0,0,0,0,0,0,0,0,0,0,0,0,0,0,0,0,0,0,0,0,0,0,0,0,0,0,0,0,0,0,0,0,0,0,0,0,0,0,0,0,0,0,0,0,0,0,0,0,0,0,0,0,0,0,0,0,0,0,0,0,0,0,0,0,0,0,0,0,0,0,0,0,0,0,0,0,0,0,0,0,0,0,0,0,0,0,0,0,0,0,0,0,0,0,0,0,0,0,0,0,0,0,0,0,0,0,0,0,0,0,0,0,0,0,0,0,0,0,0,0,0,0,0,0,0,0,0,0,0,0,0,0,0,0,0,0,0,0,0,0,0,0,0,0,0,0,0,0,0,0,0,0,0,0,0,0,0,0,0,0,0,0,0,0,0,0,0,0,0,0,0,0,0,0,0,0,0,0,0,0,0,0,0,0,0,0,0,0,0,0,0,0,0,0,0,0,0,0,0,0,0,0,0,0,0,0,0,0,0,0,0,0,0,0,0,0,0,0,0,0,0,0,0,0,0,0,0,0,0,0,0,0,0,0,0,0,0,0,0,0,0,0,0,0,0,0,0,0,0,0,0,0,0,0,0,0,0,0,0,0,0,0,0,0,0,0,0,0,0,0,0,0,0,0,0,0,0,0,0,0,0,0,0,0,0,0,0,0,0,0,0,0,0,0,0,0,0,0,0,0,0,0,0,0,0,0,0,0,0,0,0,0,0,0,0,0,0,0,0,0,0,0,0,0,0,0,0,0,0,0,0,0,0,0,0,0,0,0,0,0,0,0,0,0,0,0,0,0,0,0,0,0,0,0,0,0,0,0,0,0,0,0,0,0,0,0,0,0,0,0,0,0,0,0,0,0,0,0,0,0,0,0,0,0,0,0,0,0,0,0,0,0,0,0,0,0,0,0,0,0,0,0,0,0,0,0,0,0,0,0,0,0,0,0,0,0,0,0,0,0,0,0,0,0,0,0,0,0,0,0,0,0,0,0,0,0,0,0,0,0,0,0,0,0,0,0,0,0,0,0,0,0,0,0,0,0,0,0,0,0,0,0,0,0,0,0,0,0,0,0,0,0,0,0,0,0,0,0,0,0,0,0,0,0,0,0,0,0,0,0,0,0,0,0,0,0,0,0,0,0,0,0,0,0,0,0,0,0,0,0,0,0,0,0,0,0,0,0,0,0,0,0,0,0,0,0,0,0,0,0,0,0,0,0,0,0,0,0,0,0,0,0,0,0,0,0,0,0,0,0,0,0,0,0,0,0,0,0,0,0,0,0,0,0,0,0,0,0,0,0,0,0,0,0,0,0,0,0,0,0,0,0,0,0,0,0,0,0,0,0,0,0,0,0,0,0,0,0,0,0,0,0,0,0,0,0,0,0,0,0,0,0,0,0,0,0,0,0,0,0,0,0,0,0,0,0,0,0,0,0,0,0,0,0,0,0,0,0,0,0,0,0,0,0,0,0,0,0,0,0,0,0,0,0,0,0,0,0,0,0,0,0,0,0,0,0,0,0,0,0,0,0,0,0,0,0,0,0,0,0,0,0,0,0,0,0,0,0,0,0,0,0,0,0,0,0,0,0,0,0,0,0,0,0,0,0,0,0,0,0,0,0,0,0,0,0,0,0,0,0,0,0,0,0,0,0,0,0,0,0,0,0,0,0,0,0,0,0,0,0,0,0,0,0,0,0,0,0,0,0,0,0,0,0,0,0,0,0,0,0,0,0,0,0,0,0,0,0,0,0,0,0,0,0,0,0,0,0,0,0,0,0,0,0,0,0,0,0,0,0,0,0,0,0,0,0,0,0,0,0,0,0,0,0,0,0,0,0,0,0,0,0,0,0,0,0,0,0,0,0,0,0,0,0,0,0,0,0,0,0,0,0,0,0,0,0,0,0,0,0,0,0,0,0,0,0,0,0,0,0,0,0,0,0,0,0,0,0,0,0,0,0,0,0,0,0,0,0,0,0,0,0,0,0,0,0,0,0,0,0,0,0,0,0,0,0,0,0,0,0,0,0,0,0,0,0,0,0,0,0,0,0,0,0,0,0,0,0,0,0,0,0,0,0,0,0,0,0,0,0,0,0,0,0,0,0,0,0,0,0,0,0,0,0,0,0,0,0,0,0,0,0,0,0,0,0,0,0,0,0,0,0,0,0,0,0,0,0,0,0,0,0,0,0,0,0,0,0,0,0,0,0,0,0,0,0,0,0,0,0,0,0,0,0,0,0,0,0,0,0,0,0,0,0,0,0,0,0,0,0,0,0,0,0,0,0,0,0,0,0,0,0,0,0,0,0,0,0,0,0,0,0,0,0,0,0,0,0,0,0,0,0,0,0,0,0,0,0,0,0,0,0,0,0,0,0,0,0,0,0,0,0,0,0,0,0,0,0,0,0,0,0,0,0,0,0,0,0,0,0,0,0,0,0,0,0,0,0,0,0,0,0,0,0,0,0,0,0,0,0,0,0,0,0,0,0,0,0,0,0,0,0,0,0,0,0,0,0,0,0,0,0,0,0,0,0,0,0,0,0,0,0,0,0,0,0,0,0,0,0,0,0,0,0,0,0,0,0,0,0,0,0,0,0,0,0,0,0,0,0,0,0,0,0,0,0,0,0,0,0,0,0,0,0,0,0,0,0,0,0,0,0,0,0,0,0,0,0,0,0,0,0,0,0,0,0,0,0,0,0,0,0,0,0,0,0,0,0,0,0,0,0,0,0,0,0,0,0,0,0,0,0,0,0,0,0,0,0,0,0,0,0,0,0,0,0,0,0,0,0,0,0,0,0,0,0,0,0,0,0,0,0,0,0,0,0,0,0,0,0,0,0,0,0,0,0,0,0,0,0,0,0,0,0,0,0,0,0,0,0,0,0,0,0,0,0,0,0,0,0,0,0,0,0,0,0,0,0,0,0,0,0,0,0,0,0,0,0,0,0,0,0,0,0,0,0,0,0,0,0,0,0,0,0,0,0,0,0,0,0,0,0,0,0,0,0,0,0,0,0,0,0,0,0,0,0,0,0,0,0,0,0,0,0,0,0,0,0,0,0,0,0,0,0,0,0,0,0,0,0,0,0,0,0,0,0,0,0,0,0,0,0,0,0,0,0,0,0,0,0,0,0,0,0,0,0,0,0,0,0,0,0,0,0,0,0,0,0,0,0,0,0,0,0,0,0,0,0,0,0,0,0,0,0,0,0,0,0,0,0,0,0,0,0,0,0,0,0,0,0,0,0,0,0,0,0,0,0,0,0,0,0,0,0,0,0,0,0,0,0,0,0,0,0,0,0,0,0,0,0,0,0,0,0,0,0,0,0,0,0,0,0,0,0,0,0,0,0,0,0,0,0,0,0,0,0,0,0,0,0,0,0,0,0,0,0,0,0,0,0,0,0,0,0,0,0,0,0,0,0,0,0,0,0,0,0,0,0,0,0,0,0,0,0,0,0,0,0,0,0,0,0,0,0,0,0,0,0,0,0,0,0,0,0,0,0,0,0,0,0,0,0,0,0,0,0,0,0,0,0,0,0,0,0,0,0,0,0,0,0,0,0,0,0,0,0,0,0,0,0,0,0,0,0,0,0,0,0,0,0,0,0,0,0,0,0,0,0,0,0,0,0,0,0,0,0,0,0,0,0,0,0,0,0,0,0,0,0,0,0,0,0,0,0,0,0,0,0,0,0,0,0,0,0,0,0,0,0,0,0,0,0,0,0,0,0,0,0,0,0,0,0,0,0,0,0,0,0,0,0,0,0,0,0,0,0,0,0,0,0,0,0,0,0,0,0,0,0,0,0,0,0,0,0,0,0,0,0,0,0,0,0,0,0,0,0,0,0,0,0,0,0,0,0,0,0,0,0,0,0,0,0,0,0,0,0,0,0,0,0,0,0,0,0,0,0,0,0,0,0,0,0,0,0,0,0,0,0,0,0,0,0,0,0,0,0,0,0,0,0,0,0,0,0,0,0,0,0,0,0,0,0,0,0,0,0,0,0,0,0,0,0,0,0,0,0,0,0,0,0,0,0,0,0,0,0,0,0,0,0,0,0,0,0,0,0,0,0,0,0,0,0,0,0,0,0,0,0,0,0,0,0,0,0,0,0,0,0,0,0,0,0,0,0,0,0,0,0,0,0,0,0,0,0,0,0,0,0,0,0,0,0,0,0,0,0,0,0,0,0,0,0,0,0,0,0,0,0,0,0,0,0,0,0,0,0,0,0,0,0,0,0,0,0,0,0,0,0,0,0,0,0,0,0,0,0,0,0,0,0,0,0,0,0,0,0,0,0,0,0,0,0,0,0,0,0,0,0,0,0,0,0,0,0,0,0,0,0,0,0,0,0,0,0,0,0,0,0,0,0,0,0,0,0,0,0,0,0,0,0,0,0,0,0,0,0,0,0,0,0,0,0,0,0,0,0,0,0,0,0,0,0,0,0,0,0,0,0,0,0,0,0,0,0,0,0,0,0,0,0,0,0,0,0,0,0,0,0,0,0,0,0,0,0,0,0,0,0,0,0,0,0,0,0,0,0,0,0,0,0,0,0,0,0,0,0,0,0,0,0,0,0,0,0,0,0,0,0,0,0,0,0,0,0,0,0,0,0,0,0,0,0,0,0,0,0,0,0,0,0,0,0,0,0,0,0,0,0,0,0,0,0,0,0,0,0,0,0,0,0,0,0,0,0,0,0,0,0,0,0,0,0,0,0,0,0,0,0,0,0,0,0,0,0,0,0,0,0,0,0,0,0,0,0,0,0,0,0,0,0,0,0,0,0,0,0,0,0,0,0,0,0,0,0,0,0,0,0,0,0,0,0,0,0,0,0,0,0,0,0,0,0,0,0,0,0,0,0,0,0,0,0,0,0,0,0,0,0,0,0,0,0,0,0,0,0,0,0,0,0,0,0,0,0,0,0,0,0,0,0,0,0,0,0,0,0,0,0,0,0,0,0,0,0,0,0,0,0,0,0,0,0,0,0,0,0,0,0,0,0,0,0,0,0,0,0,0,0,0,0,0,0,0,0,0,0,0,0,0,0,0,0,0,0,0,0,0,0,0,0,0,0,0,0,0,0,0,0,0,0,0,0,0,0,0,0,0,0,0,0,0,0,0,0,0,0,0,0,0,0,0,0,0,0,0,0,0,0,0,0,0,0,0,0,0,0,0,0,0,0,0,0,0,0,0,0,0,0,0,0,0,0,0,0,0,0,0,0,0,0,0,0,0,0,0,0,0,0,0,0,0,0,0,0,0,0,0,0,0,0,0,0,0,0,0,0,0,0,0,0,0,0,0,0,0,0,0,0,0,0,0,0,0,0,0,0,0,0,0,0,0,0,0,0,0,0,0,0,0,0,0,0,0,0,0,0,0,0,0,0,0,0,0,0,0,0,0,0,0,0,0,0,0,0,0,0,0,0,0,0,0,0,0,0,0,0,0,0,0,0,0,0,0,0,0,0,0,0,0,0,0,0,0,0,0,0,0,0,0,0,0,0,0,0,0,0,0,0,0,0,0,0,0,0,0,0,0,0,0,0,0,0,0,0,0,0,0,0,0,0,0,0,0,0,0,0,0,0,0,0,0,0,0,0,0,0,0,0,0,0,0,0,0,0,0,0,0,0,0,0,0,0,0,0,0,0,0,0,0,0,0,0,0,0,0,0,0,0,0,0,0,0,0,0,0,0,0,0,0,0,0,0,0,0,0,0,0,0,0,0,0,0,0,0,0,0,0,0,0,0,0,0,0,0,0,0,0,0,0,0,0,0,0,0,0,0,0,0,0,0,0,0,0,0,0,0,0,0,0,0,0,0,0,0,0,0,0,0,0,0,0,0,0,0,0,0,0,0,0,0,0,0,0,0,0,0,0,0,0,0,0,0,0,0,0,0,0,0,0,0,0,0,0,0,0,0,0,0,0,0,0,0,0,0,0,0,0,0,0,0,0,0,0,0,0,0,0,0,0,0,0,0,0,0,0,0,0,0,0,0,0,0,0,0,0,0,0,0,0,0,0,0,0,0,0,0,0,0,0,0,0,0,0,0,0,0,0,0,0,0,0,0,0,0,0,0,0,0,0,0,0,0,0,0,0,0,0,0,0,0,0,0,0,0,0,0,0,0,0,0,0,0,0,0,0,0,0,0,0,0,0,0,0,0,0,0,0,0,0,0,0,0,0,0,0,0,0,0,0,0,0,0,0,0,0,0,0,0,0,0,0,0,0,0,0,0,0,0,0,0,0,0,0,0,0,0,0,0,0,0,0,0,0,0,0,0,0,0,0,0,0,0,0,0,0,0,0,0,0,0,0,0,0,0,0,0,0,0,0,0,0,0,0,0,0,0,0,0,0,0,0,0,0,0,0,0,0,0,0,0,0,0,0,0,0,0,0,0,0,0,0,0,0,0,0,0,0,0,0,0,0,0,0,0,0,0,0,0,0,0,0,0,0,0,0,0,0,0,0,0,0,0,0,0,0,0,0,0,0,0,0,0,0,0,0,0,0,0,0,0,0,0,0,0,0,0,0,0,0,0,0,0,0,0,0,0,0,0,0,0,0,0,0,0,0,0,0,0,0,0,0,0,0,0,0,0,0,0,0,0,0,0,0,0,0,0,0,0,0,0,0,0,0,0,0,0,0,0,0,0,0,0,0,0,0,0,0,0,0,0,0,0,0,0,0,0,0,0,0,0,0,0,0,0,0,0,0,0,0,0,0,0,0,0,0,0,0,0,0,0,0,0,0,0,0,0,0,0,0,0,0,0,0,0,0,0,0,0,0,0,0,0,0,0,0,0],"trees":[{"base_weights":[-1.00986654E-4,-2.008719E-1,3.184225E-1,-3.3504513E-1,-1.572049E-2,1.9639283E-1,6.2878E-1,-7.9623634E-1,-2.957259E-1,-1.10514976E-1,2.5663996E-1,6.5221526E-2,2.9689535E-1,5.054616E-1,8.2525533E-1,-2.7771853E-2,-4.87802E-2,-2.2007704E-2,-1.2159892E-2,-1.0787638E-2,-1.0529411E-3,7.0050084E-3,1.9797081E-2,-2.8227177E-3,8.482079E-3,8.456065E-3,2.0309733E-2,1.9265497E-2,3.147495E-2,1.7508177E-2,4.0991027E-2],"categories":[],"categories_nodes":[],"categories_segments":[],"categories_sizes":[],"default_left":[0,0,0,0,0,0,0,0,0,0,0,0,0,0,0,0,0,0,0,0,0,0,0,0,0,0,0,0,0,0,0],"id":0,"left_children":[1,3,5,7,9,11,13,15,17,19,21,23,25,27,29,-1,-1,-1,-1,-1,-1,-1,-1,-1,-1,-1,-1,-1,-1,-1,-1],"loss_changes":[1.0315883E2,2.456285E1,2.350076E1,1.0203522E1,1.0765529E1,5.8836613E0,3.934929E0,1.6852074E0,3.59523E0,3.0947742E0,1.7810168E0,2.6940475E0,3.758852E0,1.4989605E0,5.269737E-1,0E0,0E0,0E0,0E0,0E0,0E0,0E0,0E0,0E0,0E0,0E0,0E0,0E0,0E0,0E0,0E0],"parents":[2147483647,0,0,1,1,2,2,3,3,4,4,5,5,6,6,7,7,8,8,9,9,10,10,11,11,12,12,13,13,14,14],"right_children":[2,4,6,8,10,12,14,16,18,20,22,24,26,28,30,-1,-1,-1,-1,-1,-1,-1,-1,-1,-1,-1,-1,-1,-1,-1,-1],"split_conditions":[1.985E3,1E0,6.62E2,8.1E2,1.779E3,1.494E3,4E0,1E0,1.953E3,4E2,1.498E3,1.2E3,1.038E3,1.977E3,3E0,-2.7771853E-2,-4.87802E-2,-2.2007704E-2,-1.2159892E-2,-1.0787638E-2,-1.0529411E-3,7.0050084E-3,1.9797081E-2,-2.8227177E-3,8.482079E-3,8.456065E-3,2.0309733E-2,1.9265497E-2,3.147495E-2,1.7508177E-2,4.0991027E-2],"split_indices":[5,29,33,20,20,20,27,231,6,33,17,17,17,20,32,0,0,0,0,0,0,0,0,0,0,0,0,0,0,0,0],"split_type":[0,0,0,0,0,0,0,0,0,0,0,0,0,0,0,0,0,0,0,0,0,0,0,0,0,0,0,0,0,0,0],"sum_hessian":[1.612E3,9.89E2,6.23E2,5.73E2,4.16E2,4.48E2,1.75E2,4.4E1,5.29E2,3.09E2,1.07E2,1.95E2,2.53E2,1.09E2,6.6E1,2.3E1,2.1E1,1.11E2,4.18E2,1.35E2,1.74E2,6.3E1,4.4E1,9.2E1,1.03E2,1.29E2,1.24E2,6.5E1,4.4E1,4E0,6.2E1],"tree_param":{"num_deleted":"0","num_feature":"299","num_nodes":"31","size_leaf_vector":"1"}},{"base_weights":[-5.83708E-4,-1.9159085E-1,3.3616912E-1,-5.392391E-1,-1.2970737E-1,1.7597687E-1,5.4310364E-1,-9.1741556E-1,-4.3868956E-1,-2.2219656E-1,1.2857732E-3,3.6746584E-2,2.3798282E-1,4.035853E-1,7.127133E-1,-6.0113423E-2,-3.7191194E-2,-2.4431864E-2,-1.3819839E-2,-1.862482E-2,-8.459766E-3,-7.44435E-3,2.565756E-3,-4.467425E-3,4.5835827E-3,4.792833E-3,1.4502427E-2,1.1730432E-2,2.3654744E-2,2.9335698E-2,4.2428274E-2],"categories":[],"categories_nodes":[],"categories_segments":[],"categories_sizes":[],"default_left":[0,0,0,0,0,0,0,0,0,0,0,0,0,0,0,0,0,0,0,0,0,0,0,0,0,0,0,0,0,0,0],"id":1,"left_children":[1,3,5,7,9,11,13,15,17,19,21,23,25,27,29,-1,-1,-1,-1,-1,-1,-1,-1,-1,-1,-1,-1,-1,-1,-1,-1],"loss_changes":[1.0266404E2,2.1837353E1,1.9052559E1,5.528599E0,1.0498694E1,2.8001986E0,5.7231293E0,8.358383E-1,1.1424274E0,3.8212776E0,2.9008675E0,7.727977E-1,1.9275408E0,1.8403339E0,1.564312E0,0E0,0E0,0E0,0E0,0E0,0E0,0E0,0E0,0E0,0E0,0E0,0E0,0E0,0E0,0E0,0E0],"parents":[2147483647,0,0,1,1,2,2,3,3,4,4,5,5,6,6,7,7,8,8,9,9,10,10,11,11,12,12,13,13,14,14],"right_children":[2,4,6,8,10,12,14,16,18,20,22,24,26,28,30,-1,-1,-1,-1,-1,-1,-1,-1,-1,-1,-1,-1,-1,-1,-1,-1],"split_conditions":[7E0,5E0,8E0,8.48E2,1.388E3,8.39E2,1.922E3,3E0,9.1E2,1.948E3,2E0,7.44E3,1.478E3,1.419E3,9E0,-6.0113423E-2,-3.7191194E-2,-2.4431864E-2,-1.3819839E-2,-1.862482E-2,-8.459766E-3,-7.44435E-3,2.565756E-3,-4.467425E-3,4.5835827E-3,4.792833E-3,1.4502427E-2,1.1730432E-2,2.3654744E-2,2.9335698E-2,4.2428274E-2],"split_indices":[3,3,3,20,20,15,20,3,15,5,32,1,20,15,3,0,0,0,0,0,0,0,0,0,0,0,0,0,0,0,0],"split_type":[0,0,0,0,0,0,0,0,0,0,0,0,0,0,0,0,0,0,0,0,0,0,0,0,0,0,0,0,0,0,0],"sum_hessian":[1.595E3,1.018E3,5.77E2,1.53E2,8.65E2,3.26E2,2.51E2,3.1E1,1.22E2,5.07E2,3.58E2,1.01E2,2.25E2,1.39E2,1.12E2,8E0,2.3E1,8.3E1,3.9E1,1.11E2,3.96E2,8.9E1,2.69E2,3.1E1,7E1,7.1E1,1.54E2,5E1,8.9E1,7.1E1,4.1E1],"tree_param":{"num_deleted":"0","num_feature":"299","num_nodes":"31","size_leaf_vector":"1"}},{"base_weights":[-5.4537016E-3,-1.8598872E-1,3.0834943E-1,-3.2340688E-1,-3.8445633E-2,1.1586505E-1,4.6447793E-1,-2.6137054E-1,-7.1435785E-1,-1.6134816E-1,3.6709327E-2,-2.3922924E-2,2.4400613E-1,3.7736866E-1,7.1704274E-1,-1.7270979E-2,-7.836487E-3,-4.736705E-2,-2.6485112E-2,-9.442186E-3,6.150315E-3,2.1441777E-4,1.4725537E-2,1.4325234E-4,-2.1099165E-2,9.163241E-3,1.5049104E-2,1.1010613E-2,2.2357883E-2,2.999184E-2,4.1204467E-2],"categories":[],"categories_nodes":[],"categories_segments":[],"categories_sizes":[],"default_left":[0,0,0,0,0,0,0,0,0,0,0,0,0,0,0,0,0,0,0,0,0,0,0,0,0,0,0,0,0,0,0],"id":2,"left_children":[1,3,5,7,9,11,13,15,17,19,21,23,25,27,29,-1,-1,-1,-1,-1,-1,-1,-1,-1,-1,-1,-1,-1,-1,-1,-1],"loss_changes":[8.821361E1,2.0017918E1,1.7025543E1,1.2245312E1,4.421465E0,4.5933337E0,6.6801834E0,4.1772842E0,2.6755028E0,1.8317075E0,2.5553567E0,1.387704E0,4.2963076E-1,2.922741E0,6.436424E-1,0E0,0E0,0E0,0E0,0E0,0E0,0E0,0E0,0E0,0E0,0E0,0E0,0E0,0E0,0E0,0E0],"parents":[2147483647,0,0,1,1,2,2,3,3,4,4,5,5,6,6,7,7,8,8,9,9,10,10,11,11,12,12,13,13,14,14],"right_children":[2,4,6,8,10,12,14,16,18,20,22,24,26,28,30,-1,-1,-1,-1,-1,-1,-1,-1,-1,-1,-1,-1,-1,-1,-1,-1],"split_conditions":[3E0,1.32E3,1.627E3,1E0,1E0,1.269E3,4E0,9.7E2,8.33E2,1.987E3,2.153E3,1E0,7.4E2,1.085E3,1.3518E4,-1.7270979E-2,-7.836487E-3,-4.736705E-2,-2.6485112E-2,-9.442186E-3,6.150315E-3,2.1441777E-4,1.4725537E-2,1.4325234E-4,-2.1099165E-2,9.163241E-3,1.5049104E-2,1.1010613E-2,2.2357883E-2,2.999184E-2,4.1204467E-2],"split_indices":[8,20,20,231,30,17,27,17,20,5,20,46,12,17,1,0,0,0,0,0,0,0,0,0,0,0,0,0,0,0,0],"split_type":[0,0,0,0,0,0,0,0,0,0,0,0,0,0,0,0,0,0,0,0,0,0,0,0,0,0,0,0,0,0,0],"sum_hessian":[1.556E3,9.88E2,5.68E2,5.11E2,4.77E2,2.55E2,3.13E2,4.42E2,6.9E1,1.81E2,2.96E2,1.22E2,1.33E2,2.34E2,7.9E1,2.22E2,2.2E2,2.5E1,4.4E1,1.62E2,1.9E1,2.65E2,3.1E1,1.15E2,7E0,7.6E1,5.7E1,8.7E1,1.47E2,4.9E1,3E1],"tree_param":{"num_deleted":"0","num_feature":"299","num_nodes":"31","size_leaf_vector":"1"}},{"base_weights":[8.3768036E-4,-1.901531E-1,3.154271E-1,-4.9634933E-1,-1.3175164E-1,1.7392343E-1,4.9720037E-1,-6.104442E-1,-3.055776E-1,-2.2628763E-1,-2.6225893E-2,1.0387769E-1,2.868399E-1,4.2121023E-1,7.409134E-1,-4.9874548E-2,-2.7083686E-2,-1.8644981E-2,-9.265553E-3,-1.9151373E-2,-8.712672E-3,-7.6851207E-3,8.861248E-4,1.2830518E-3,1.105322E-2,9.726943E-3,1.8340267E-2,1.7709278E-2,2.9031869E-2,3.3021662E-2,5.0305262E-2],"categories":[],"categories_nodes":[],"categories_segments":[],"categories_sizes":[],"default_left":[0,0,0,0,0,0,0,0,0,0,0,0,0,0,0,0,0,0,0,0,0,0,0,0,0,0,0,0,0,0,0],"id":3,"left_children":[1,3,5,7,9,11,13,15,17,19,21,23,25,27,29,-1,-1,-1,-1,-1,-1,-1,-1,-1,-1,-1,-1,-1,-1,-1,-1],"loss_changes":[9.885636E1,1.8232677E1,1.5901985E1,3.401497E0,8.568794E0,2.7349834E0,4.782242E0,1.6597176E0,5.019803E-1,3.4590874E0,2.4314256E0,2.0921273E0,9.8795223E-1,1.8491058E0,5.5488586E-1,0E0,0E0,0E0,0E0,0E0,0E0,0E0,0E0,0E0,0E0,0E0,0E0,0E0,0E0,0E0,0E0],"parents":[2147483647,0,0,1,1,2,2,3,3,4,4,5,5,6,6,7,7,8,8,9,9,10,10,11,11,12,12,13,13,14,14],"right_children":[2,4,6,8,10,12,14,16,18,20,22,24,26,28,30,-1,-1,-1,-1,-1,-1,-1,-1,-1,-1,-1,-1,-1,-1,-1,-1],"split_conditions":[7E0,5E0,8E0,8E2,1.324E3,1.726E3,1.8E3,3E0,3E0,1.6E1,3.38E2,1.313E3,1.024E3,2.295E3,3E0,-4.9874548E-2,-2.7083686E-2,-1.8644981E-2,-9.265553E-3,-1.9151373E-2,-8.712672E-3,-7.6851207E-3,8.861248E-4,1.2830518E-3,1.105322E-2,9.726943E-3,1.8340267E-2,1.7709278E-2,2.9031869E-2,3.3021662E-2,5.0305262E-2],"split_indices":[3,3,3,15,20,20,17,3,16,12,33,15,15,20,23,0,0,0,0,0,0,0,0,0,0,0,0,0,0,0,0],"split_type":[0,0,0,0,0,0,0,0,0,0,0,0,0,0,0,0,0,0,0,0,0,0,0,0,0,0,0,0,0,0,0],"sum_hessian":[1.644E3,1.023E3,6.21E2,1.63E2,8.6E2,3.5E2,2.71E2,1.01E2,6.2E1,4.53E2,4.07E2,2.17E2,1.33E2,2.08E2,6.3E1,9E0,9.2E1,3.5E1,2.7E1,9.4E1,3.59E2,1.02E2,3.05E2,1.35E2,8.2E1,7.1E1,6.2E1,1.62E2,4.6E1,5.5E1,8E0],"tree_param":{"num_deleted":"0","num_feature":"299","num_nodes":"31","size_leaf_vector":"1"}},{"base_weights":[4.5621442E-4,-1.7109555E-1,3.0859852E-1,-4.7566468E-1,-1.186054E-1,2.0089072E-1,5.4704726E-1,-7.9037344E-1,-3.9039624E-1,-2.2641271E-1,-3.5964534E-2,1.3487948E-1,3.5321566E-1,4.3592536E-1,7.530001E-1,-2.9882343E-2,-7.2552465E-2,-2.6272243E-2,-1.5427712E-2,-1.3027037E-2,-5.195154E-3,-6.039E-3,1.9010265E-3,4.101941E-3,1.3633794E-2,1.3164516E-2,2.0489883E-2,1.5968082E-2,2.482397E-2,3.4061927E-2,5.1400963E-2],"categories":[],"categories_nodes":[],"categories_segments":[],"categories_sizes":[],"default_left":[0,0,0,0,0,0,0,0,0,0,0,0,0,0,0,0,0,0,0,0,0,0,0,0,0,0,0,0,0,0,0],"id":4,"left_children":[1,3,5,7,9,11,13,15,17,19,21,23,25,27,29,-1,-1,-1,-1,-1,-1,-1,-1,-1,-1,-1,-1,-1,-1,-1,-1],"loss_changes":[8.50734E1,1.6459528E1,1.4678406E1,3.8215942E0,7.844964E0,3.9441528E0,3.8285713E0,3.1780663E0,1.162075E0,1.9538879E0,3.3794234E0,2.0187597E0,5.827999E-1,8.2707024E-1,3.4880066E-1,0E0,0E0,0E0,0E0,0E0,0E0,0E0,0E0,0E0,0E0,0E0,0E0,0E0,0E0,0E0,0E0],"parents":[2147483647,0,0,1,1,2,2,3,3,4,4,5,5,6,6,7,7,8,8,9,9,10,10,11,11,12,12,13,13,14,14],"right_children":[2,4,6,8,10,12,14,16,18,20,22,24,26,28,30,-1,-1,-1,-1,-1,-1,-1,-1,-1,-1,-1,-1,-1,-1,-1,-1],"split_conditions":[7E0,5E0,3E0,8.48E2,2E0,1.453E3,9E0,1E0,6.86E3,1.0044E4,1E0,1.902E3,8E0,1.968E3,3.086E3,-2.9882343E-2,-7.2552465E-2,-2.6272243E-2,-1.5427712E-2,-1.3027037E-2,-5.195154E-3,-6.039E-3,1.9010265E-3,4.101941E-3,1.3633794E-2,1.3164516E-2,2.0489883E-2,1.5968082E-2,2.482397E-2,3.4061927E-2,5.1400963E-2],"split_indices":[3,3,32,20,32,17,3,293,1,1,29,20,3,20,20,0,0,0,0,0,0,0,0,0,0,0,0,0,0,0,0],"split_type":[0,0,0,0,0,0,0,0,0,0,0,0,0,0,0,0,0,0,0,0,0,0,0,0,0,0,0,0,0,0,0],"sum_hessian":[1.608E3,1.033E3,5.75E2,1.51E2,8.82E2,3.97E2,1.78E2,3.1E1,1.2E2,3.82E2,5E2,2.78E2,1.19E2,1.17E2,6.1E1,2.6E1,5E0,3.6E1,8.4E1,2.78E2,1.04E2,2.29E2,2.71E2,2.09E2,6.9E1,5.8E1,6.1E1,5.2E1,6.5E1,5.5E1,6E0],"tree_param":{"num_deleted":"0","num_feature":"299","num_nodes":"31","size_leaf_vector":"1"}},{"base_weights":[2.1138843E-3,-1.660249E-1,2.820438E-1,-4.388773E-1,-1.1554055E-1,1.560531E-1,4.453432E-1,-7.529918E-1,-3.682077E-1,-2.1801926E-1,-3.1122418E-2,8.732938E-2,2.6996928E-1,3.4820014E-1,5.708122E-1,-4.1256204E-2,-2.1577373E-2,-2.1782644E-2,-1.1389932E-2,-1.42428195E-2,-7.5192535E-3,-5.32585E-3,2.5336707E-3,6.446085E-4,8.7652635E-3,1.418918E-2,2.0777457E-3,1.2740824E-2,2.258886E-2,2.197999E-2,3.2106925E-2],"categories":[],"categories_nodes":[],"categories_segments":[],"categories_sizes":[],"default_left":[0,0,0,0,0,0,0,0,0,0,0,0,0,0,0,0,0,0,0,0,0,0,0,0,0,0,0,0,0,0,0],"id":5,"left_children":[1,3,5,7,9,11,13,15,17,19,21,23,25,27,29,-1,-1,-1,-1,-1,-1,-1,-1,-1,-1,-1,-1,-1,-1,-1,-1],"loss_changes":[7.7205475E1,1.4054611E1,1.2592739E1,3.3182163E0,7.4714804E0,2.6965418E0,3.0946503E0,6.012993E-1,1.353569E0,1.8258572E0,3.165847E0,1.516702E0,6.985197E-1,1.4292507E0,1.0241585E0,0E0,0E0,0E0,0E0,0E0,0E0,0E0,0E0,0E0,0E0,0E0,0E0,0E0,0E0,0E0,0E0],"parents":[2147483647,0,0,1,1,2,2,3,3,4,4,5,5,6,6,7,7,8,8,9,9,10,10,11,11,12,12,13,13,14,14],"right_children":[2,4,6,8,10,12,14,16,18,20,22,24,26,28,30,-1,-1,-1,-1,-1,-1,-1,-1,-1,-1,-1,-1,-1,-1,-1,-1],"split_conditions":[7E0,5E0,8E0,4E0,2E0,1.726E3,4E0,2E0,1.155E3,6.1E1,1.8E1,1.269E3,1E0,1.968E3,1.824E3,-4.1256204E-2,-2.1577373E-2,-2.1782644E-2,-1.1389932E-2,-1.42428195E-2,-7.5192535E-3,-5.32585E-3,2.5336707E-3,6.446085E-4,8.7652635E-3,1.418918E-2,2.0777457E-3,1.2740824E-2,2.258886E-2,2.197999E-2,3.2106925E-2],"split_indices":[3,3,3,3,32,20,10,35,20,0,37,17,200,20,20,0,0,0,0,0,0,0,0,0,0,0,0,0,0,0,0],"split_type":[0,0,0,0,0,0,0,0,0,0,0,0,0,0,0,0,0,0,0,0,0,0,0,0,0,0,0,0,0,0,0],"sum_hessian":[1.639E3,1.024E3,6.15E2,1.59E2,8.65E2,3.48E2,2.67E2,2.8E1,1.31E2,3.9E2,4.75E2,2.18E2,1.3E2,1.52E2,1.15E2,2E1,8E0,7.9E1,5.2E1,1.72E2,2.18E2,2.44E2,2.31E2,1.23E2,9.5E1,1.17E2,1.3E1,9.1E1,6.1E1,5.4E1,6.1E1],"tree_param":{"num_deleted":"0","num_feature":"299","num_nodes":"31","size_leaf_vector":"1"}},{"base_weights":[2.0860636E-3,-1.5689498E-1,2.654594E-1,-4.2747414E-1,-1.0829437E-1,1.4263801E-1,4.16444E-1,-4.524428E-2,-3.7945426E-1,-1.8629543E-1,-2.942545E-3,4.4943668E-2,2.0558988E-1,3.332762E-1,5.744832E-1,-2.4709519E-2,-1.4773775E-2,-1.2535477E-2,-5.4342174E-3,-3.8138514E-3,3.4177771E-3,-6.244018E-3,3.4569846E-3,7.796321E-3,1.6499726E-2,1.2628274E-2,2.1224126E-2,2.2824967E-2,3.1579096E-2],"categories":[],"categories_nodes":[],"categories_segments":[],"categories_sizes":[],"default_left":[0,0,0,0,0,0,0,0,0,0,0,0,0,0,0,0,0,0,0,0,0,0,0,0,0,0,0,0,0],"id":6,"left_children":[1,3,5,7,9,11,13,-1,15,17,19,21,23,25,27,-1,-1,-1,-1,-1,-1,-1,-1,-1,-1,-1,-1,-1,-1],"loss_changes":[6.7468796E1,1.31553955E1,1.1184387E1,3.463873E0,6.9962482E0,2.0455194E0,3.4078484E0,0E0,1.2292233E0,2.6201E0,2.0495992E0,6.22255E-1,1.1611204E0,1.2649345E0,5.0925064E-1,0E0,0E0,0E0,0E0,0E0,0E0,0E0,0E0,0E0,0E0,0E0,0E0,0E0,0E0],"parents":[2147483647,0,0,1,1,2,2,3,3,4,4,5,5,6,6,8,8,9,9,10,10,11,11,12,12,13,13,14,14],"right_children":[2,4,6,8,10,12,14,-1,16,18,20,22,24,26,28,-1,-1,-1,-1,-1,-1,-1,-1,-1,-1,-1,-1,-1,-1],"split_conditions":[7E0,5E0,8E0,3E0,1.388E3,1.494E3,4E0,-4.524428E-2,2E0,1E0,2.85E2,1.979E3,7.09E2,1.922E3,1.2099E4,-2.4709519E-2,-1.4773775E-2,-1.2535477E-2,-5.4342174E-3,-3.8138514E-3,3.4177771E-3,-6.244018E-3,3.4569846E-3,7.796321E-3,1.6499726E-2,1.2628274E-2,2.1224126E-2,2.2824967E-2,3.1579096E-2],"split_indices":[3,3,3,3,20,20,27,0,35,247,12,6,12,20,1,0,0,0,0,0,0,0,0,0,0,0,0,0,0],"split_type":[0,0,0,0,0,0,0,0,0,0,0,0,0,0,0,0,0,0,0,0,0,0,0,0,0,0,0,0,0],"sum_hessian":[1.61E3,1.004E3,6.06E2,1.52E2,8.52E2,3.35E2,2.71E2,1.2E1,1.4E2,4.89E2,3.63E2,1.32E2,2.03E2,1.79E2,9.2E1,4.8E1,9.2E1,2.43E2,2.46E2,1.79E2,1.84E2,1.7E1,1.15E2,1.55E2,4.8E1,1.09E2,7E1,4.3E1,4.9E1],"tree_param":{"num_deleted":"0","num_feature":"299","num_nodes":"29","size_leaf_vector":"1"}},{"base_weights":[-1.7702908E-4,-1.4843857E-1,2.509726E-1,-4.1090107E-1,-1.0299047E-1,1.653641E-1,4.4035992E-1,-5.392568E-2,-3.6641133E-1,-2.0343035E-1,-2.5736878E-2,1.2692949E-1,3.5037652E-1,3.6221778E-1,6.1339E-1,-2.1755427E-2,-1.0700673E-2,-1.4536538E-2,-7.6444624E-3,-6.9414275E-3,7.5929787E-4,3.6285503E-3,1.0905881E-2,1.0658185E-2,1.947125E-2,1.5140395E-2,2.414159E-2,4.600273E-2,2.7774671E-2],"categories":[],"categories_nodes":[],"categories_segments":[],"categories_sizes":[],"default_left":[0,0,0,0,0,0,0,0,0,0,0,0,0,0,0,0,0,0,0,0,0,0,0,0,0,0,0,0,0],"id":7,"left_children":[1,3,5,7,9,11,13,-1,15,17,19,21,23,25,27,-1,-1,-1,-1,-1,-1,-1,-1,-1,-1,-1,-1,-1,-1],"loss_changes":[6.095743E1,1.2229614E1,9.776138E0,4.4513702E0,6.8024397E0,2.9324045E0,2.3660583E0,0E0,1.6667004E0,1.6267595E0,2.449932E0,1.7627449E0,4.1008663E-1,7.4089813E-1,3.1949234E-1,0E0,0E0,0E0,0E0,0E0,0E0,0E0,0E0,0E0,0E0,0E0,0E0,0E0,0E0],"parents":[2147483647,0,0,1,1,2,2,3,3,4,4,5,5,6,6,8,8,9,9,10,10,11,11,12,12,13,13,14,14],"right_children":[2,4,6,8,10,12,14,-1,16,18,20,22,24,26,28,-1,-1,-1,-1,-1,-1,-1,-1,-1,-1,-1,-1,-1,-1],"split_conditions":[7E0,5E0,3E0,3E0,2E0,9.29E2,9E0,-5.392568E-2,8.64E2,2.7E1,1.144E3,1.766E3,1.498E3,2.345E3,1.997E3,-2.1755427E-2,-1.0700673E-2,-1.4536538E-2,-7.6444624E-3,-6.9414275E-3,7.5929787E-4,3.6285503E-3,1.0905881E-2,1.0658185E-2,1.947125E-2,1.5140395E-2,2.414159E-2,4.600273E-2,2.7774671E-2],"split_indices":[3,3,32,3,32,12,3,0,15,12,20,20,20,20,5,0,0,0,0,0,0,0,0,0,0,0,0,0,0],"split_type":[0,0,0,0,0,0,0,0,0,0,0,0,0,0,0,0,0,0,0,0,0,0,0,0,0,0,0,0,0],"sum_hessian":[1.636E3,1.029E3,6.07E2,1.51E2,8.78E2,4.19E2,1.88E2,8E0,1.43E2,3.81E2,4.97E2,3.48E2,7.1E1,1.31E2,5.7E1,8.9E1,5.4E1,1.18E2,2.63E2,1.29E2,3.68E2,2.3E2,1.18E2,2.2E1,4.9E1,9.9E1,3.2E1,4E0,5.3E1],"tree_param":{"num_deleted":"0","num_feature":"299","num_nodes":"29","size_leaf_vector":"1"}},{"base_weights":[-3.867562E-3,-1.444187E-1,2.3567021E-1,-2.2959848E-1,-2.1771616E-3,1.4497608E-1,4.3487528E-1,-1.8136792E-1,-4.8209226E-1,-6.7988954E-2,1.1041797E-1,3.9271455E-2,2.187787E-1,3.6782068E-1,6.2212276E-1,-1.1542632E-2,-5.00023E-3,-2.7944695E-2,-1.409746E-2,-9.520956E-3,-1.1916906E-3,3.9028258E-3,1.7139731E-2,-7.5868093E-3,3.8307775E-3,8.675833E-3,1.645144E-2,1.5094847E-2,2.3140825E-2,2.7024128E-2,4.309925E-2],"categories":[],"categories_nodes":[],"categories_segments":[],"categories_sizes":[],"default_left":[0,0,0,0,0,0,0,0,0,0,0,0,0,0,0,0,0,0,0,0,0,0,0,0,0,0,0,0,0,0,0],"id":8,"left_children":[1,3,5,7,9,11,13,15,17,19,21,23,25,27,29,-1,-1,-1,-1,-1,-1,-1,-1,-1,-1,-1,-1,-1,-1,-1,-1],"loss_changes":[5.3870125E1,1.2208111E1,1.0620525E1,7.5926285E0,2.8078187E0,3.161375E0,2.1290588E0,2.3609314E0,1.7163658E0,1.3285412E0,9.6804774E-1,1.3368213E0,1.0747776E0,7.1291924E-1,4.188881E-1,0E0,0E0,0E0,0E0,0E0,0E0,0E0,0E0,0E0,0E0,0E0,0E0,0E0,0E0,0E0,0E0],"parents":[2147483647,0,0,1,1,2,2,3,3,4,4,5,5,6,6,7,7,8,8,9,9,10,10,11,11,12,12,13,13,14,14],"right_children":[2,4,6,8,10,12,14,16,18,20,22,24,26,28,30,-1,-1,-1,-1,-1,-1,-1,-1,-1,-1,-1,-1,-1,-1,-1,-1],"split_conditions":[3E0,1E0,3E0,1E0,1.0896E4,1E0,1.83E3,2E0,7E0,6.931E3,1.856E3,4.23E2,9.45E2,4E0,6.11E2,-1.1542632E-2,-5.00023E-3,-2.7944695E-2,-1.409746E-2,-9.520956E-3,-1.1916906E-3,3.9028258E-3,1.7139731E-2,-7.5868093E-3,3.8307775E-3,8.675833E-3,1.645144E-2,1.5094847E-2,2.3140825E-2,2.7024128E-2,4.309925E-2],"split_indices":[8,30,32,231,1,30,17,32,28,1,17,33,12,27,18,0,0,0,0,0,0,0,0,0,0,0,0,0,0,0,0],"split_type":[0,0,0,0,0,0,0,0,0,0,0,0,0,0,0,0,0,0,0,0,0,0,0,0,0,0,0,0,0,0,0],"sum_hessian":[1.599E3,1.008E3,5.91E2,6.3E2,3.78E2,4.07E2,1.84E2,5.3E2,1E2,2.39E2,1.39E2,1.68E2,2.39E2,1.37E2,4.7E1,3.02E2,2.28E2,6.5E1,3.5E1,5.9E1,1.8E2,1.25E2,1.4E1,2.8E1,1.4E2,1.83E2,5.6E1,9.4E1,4.3E1,4E1,7E0],"tree_param":{"num_deleted":"0","num_feature":"299","num_nodes":"31","size_leaf_vector":"1"}},{"base_weights":[-5.4592025E-3,-1.4228225E-1,2.3085679E-1,-3.916447E-1,-9.4815604E-2,1.6440605E-1,4.4879532E-1,-7.524094E-1,-3.0491066E-1,-1.5880387E-1,-2.0833507E-3,1.1905729E-1,3.5752618E-1,3.525452E-1,5.601331E-1,-6.1876666E-2,-2.8403105E-2,-2.1983994E-2,-1.1421919E-2,-1.0293157E-2,-3.3528851E-3,1.5899241E-3,-9.2028435E-3,2.7362895E-3,9.263521E-3,-0E0,1.8074077E-2,1.0661409E-2,1.8848225E-2,2.835347E-2,5.957227E-3],"categories":[],"categories_nodes":[],"categories_segments":[],"categories_sizes":[],"default_left":[0,0,0,0,0,0,0,0,0,0,0,0,0,0,0,0,0,0,0,0,0,0,0,0,0,0,0,0,0,0,0],"id":9,"left_children":[1,3,5,7,9,11,13,15,17,19,21,23,25,27,29,-1,-1,-1,-1,-1,-1,-1,-1,-1,-1,-1,-1,-1,-1,-1,-1],"loss_changes":[5.138027E1,1.1867161E1,8.361364E0,4.832754E0,5.015077E0,3.8698406E0,1.2872486E0,2.1004047E0,1.2407694E0,2.4225006E0,2.3074887E0,1.6369891E0,5.198374E-1,2.9372978E-1,6.760082E-1,0E0,0E0,0E0,0E0,0E0,0E0,0E0,0E0,0E0,0E0,0E0,0E0,0E0,0E0,0E0,0E0],"parents":[2147483647,0,0,1,1,2,2,3,3,4,4,5,5,6,6,7,7,8,8,9,9,10,10,11,11,12,12,13,13,14,14],"right_children":[2,4,6,8,10,12,14,16,18,20,22,24,26,28,30,-1,-1,-1,-1,-1,-1,-1,-1,-1,-1,-1,-1,-1,-1,-1,-1],"split_conditions":[7E0,5E0,1.62E3,8.64E2,1.378E3,2.098E3,1.873E3,1E0,6.11E2,1.05E3,1E0,5.42E2,1.978E3,1E0,1.18E2,-6.1876666E-2,-2.8403105E-2,-2.1983994E-2,-1.1421919E-2,-1.0293157E-2,-3.3528851E-3,1.5899241E-3,-9.2028435E-3,2.7362895E-3,9.263521E-3,-0E0,1.8074077E-2,1.0661409E-2,1.8848225E-2,2.835347E-2,5.957227E-3],"split_indices":[3,3,17,20,20,20,20,297,15,17,67,33,6,21,0,0,0,0,0,0,0,0,0,0,0,0,0,0,0,0,0],"split_type":[0,0,0,0,0,0,0,0,0,0,0,0,0,0,0,0,0,0,0,0,0,0,0,0,0,0,0,0,0,0,0],"sum_hessian":[1.588E3,1.006E3,5.82E2,1.6E2,8.46E2,4.47E2,1.35E2,3E1,1.3E2,5E2,3.46E2,3.63E2,8.4E1,7.4E1,6.1E1,6E0,2.4E1,3.9E1,9.1E1,3.09E2,1.91E2,2.92E2,5.4E1,1.97E2,1.66E2,4E0,8E1,1.8E1,5.6E1,5.7E1,4E0],"tree_param":{"num_deleted":"0","num_feature":"299","num_nodes":"31","size_leaf_vector":"1"}},{"base_weights":[-1.157222E-3,-1.316905E-1,2.1181124E-1,-2.6269147E-1,-4.1281007E-2,1.4444289E-1,4.4456068E-1,-4.6606207E-1,-1.7838883E-1,-1.2786825E-1,3.373584E-2,-4.949171E-2,1.8515551E-1,3.6276972E-1,6.128211E-1,-3.1786762E-2,-1.7443983E-2,-1.7615033E-2,-7.178606E-3,-1.4121339E-2,-4.555498E-3,-8.64851E-4,8.836045E-3,-8.475485E-3,1.137766E-3,3.8336585E-3,1.1695558E-2,1.2743851E-2,2.0019246E-2,2.0949565E-2,3.3968054E-2],"categories":[],"categories_nodes":[],"categories_segments":[],"categories_sizes":[],"default_left":[0,0,0,0,0,0,0,0,0,0,0,0,0,0,0,0,0,0,0,0,0,0,0,0,0,0,0,0,0,0,0],"id":10,"left_children":[1,3,5,7,9,11,13,15,17,19,21,23,25,27,29,-1,-1,-1,-1,-1,-1,-1,-1,-1,-1,-1,-1,-1,-1,-1,-1],"loss_changes":[4.4675392E1,1.1781328E1,9.505234E0,6.8878365E0,3.8436992E0,3.7597618E0,1.6958427E0,2.192896E0,1.53086E0,1.4756508E0,2.458034E0,7.732506E-1,2.3559513E0,3.829918E-1,4.7102547E-1,0E0,0E0,0E0,0E0,0E0,0E0,0E0,0E0,0E0,0E0,0E0,0E0,0E0,0E0,0E0,0E0],"parents":[2147483647,0,0,1,1,2,2,3,3,4,4,5,5,6,6,7,7,8,8,9,9,10,10,11,11,12,12,13,13,14,14],"right_children":[2,4,6,8,10,12,14,16,18,20,22,24,26,28,30,-1,-1,-1,-1,-1,-1,-1,-1,-1,-1,-1,-1,-1,-1,-1,-1],"split_conditions":[3E0,1.155E3,4E0,7.68E2,2.82E2,1.282E3,1.3518E4,2E0,1.952E3,1.921E3,1.749E3,8.68E2,9.98E2,1.37E2,2.039E3,-3.1786762E-2,-1.7443983E-2,-1.7615033E-2,-7.178606E-3,-1.4121339E-2,-4.555498E-3,-8.64851E-4,8.836045E-3,-8.475485E-3,1.137766E-3,3.8336585E-3,1.1695558E-2,1.2743851E-2,2.0019246E-2,2.0949565E-2,3.3968054E-2],"split_indices":[8,20,10,15,12,20,1,35,6,31,20,15,15,7,20,0,0,0,0,0,0,0,0,0,0,0,0,0,0,0,0],"split_type":[0,0,0,0,0,0,0,0,0,0,0,0,0,0,0,0,0,0,0,0,0,0,0,0,0,0,0,0,0,0,0],"sum_hessian":[1.606E3,9.96E2,6.1E2,4.06E2,5.9E2,4.74E2,1.36E2,1.18E2,2.88E2,2.74E2,3.16E2,8.2E1,3.92E2,9.3E1,4.3E1,4E1,7.8E1,3.8E1,2.5E2,4.5E1,2.29E2,2.35E2,8.1E1,3E1,5.2E1,1.39E2,2.53E2,3.4E1,5.9E1,1.6E1,2.7E1],"tree_param":{"num_deleted":"0","num_feature":"299","num_nodes":"31","size_leaf_vector":"1"}},{"base_weights":[3.218071E-5,-1.2786105E-1,2.1702057E-1,-3.947578E-1,-8.323059E-2,1.3585927E-1,3.9919487E-1,-8.657038E-1,-3.4426633E-1,-1.4230998E-1,1.39085E-2,3.782698E-2,1.8792239E-1,3.24917E-1,5.3999954E-1,-2.7970323E-2,-5.791759E-2,-2.0115964E-2,-7.305005E-3,-8.720577E-3,-2.4883943E-3,-4.6089427E-3,3.8235667E-3,-1.6208028E-3,4.566659E-3,5.2547683E-3,1.2407997E-2,1.1786495E-2,2.030982E-2,2.1644173E-2,3.420948E-2],"categories":[],"categories_nodes":[],"categories_segments":[],"categories_sizes":[],"default_left":[0,0,0,0,0,0,0,0,0,0,0,0,0,0,0,0,0,0,0,0,0,0,0,0,0,0,0,0,0,0,0],"id":11,"left_children":[1,3,5,7,9,11,13,15,17,19,21,23,25,27,29,-1,-1,-1,-1,-1,-1,-1,-1,-1,-1,-1,-1,-1,-1,-1,-1],"loss_changes":[4.4939705E1,1.2088936E1,8.820023E0,3.2204704E0,5.0213275E0,2.110393E0,1.7805138E0,7.923603E-1,1.8002777E0,1.8861656E0,2.3727193E0,5.972488E-1,1.4538288E0,8.542347E-1,7.1482086E-1,0E0,0E0,0E0,0E0,0E0,0E0,0E0,0E0,0E0,0E0,0E0,0E0,0E0,0E0,0E0,0E0],"parents":[2147483647,0,0,1,1,2,2,3,3,4,4,5,5,6,6,7,7,8,8,9,9,10,10,11,11,12,12,13,13,14,14],"right_children":[2,4,6,8,10,12,14,16,18,20,22,24,26,28,30,-1,-1,-1,-1,-1,-1,-1,-1,-1,-1,-1,-1,-1,-1,-1,-1],"split_conditions":[7E0,5E0,3E0,3E0,2E0,1.478E3,1.728E3,2.86E2,9.1E2,1.05E3,6E0,1.223E3,1.007E3,2.098E3,2.224E3,-2.7970323E-2,-5.791759E-2,-2.0115964E-2,-7.305005E-3,-8.720577E-3,-2.4883943E-3,-4.6089427E-3,3.8235667E-3,-1.6208028E-3,4.566659E-3,5.2547683E-3,1.2407997E-2,1.1786495E-2,2.030982E-2,2.1644173E-2,3.420948E-2],"split_indices":[3,3,32,3,23,20,15,33,15,15,3,15,15,20,20,0,0,0,0,0,0,0,0,0,0,0,0,0,0,0,0],"split_type":[0,0,0,0,0,0,0,0,0,0,0,0,0,0,0,0,0,0,0,0,0,0,0,0,0,0,0,0,0,0,0],"sum_hessian":[1.618E3,1.018E3,6E2,1.45E2,8.73E2,4.16E2,1.84E2,1.3E1,1.32E2,5.43E2,3.3E2,1.45E2,2.71E2,1.22E2,6.2E1,8E0,5E0,9.5E1,3.7E1,3.8E2,1.63E2,1.23E2,2.07E2,6.4E1,8.1E1,1.28E2,1.43E2,6.8E1,5.4E1,4.2E1,2E1],"tree_param":{"num_deleted":"0","num_feature":"299","num_nodes":"31","size_leaf_vector":"1"}},{"base_weights":[-4.2869025E-3,-1.2754467E-1,2.1118385E-1,-3.4247127E-1,-9.022824E-2,1.4659476E-1,4.1553E-1,-4.3629114E-2,-3.0696666E-1,-1.4300051E-1,9.506274E-4,1.12478904E-1,3.1288442E-1,3.161114E-1,5.134697E-1,-1.8045608E-2,-8.167789E-3,-9.953039E-3,-4.171806E-3,1.817099E-3,-8.985897E-3,-8.5598405E-4,6.588147E-3,1.1510191E-2,1.7926592E-2,6.9163116E-3,1.7142912E-2,2.3125116E-2,4.0365275E-2],"categories":[],"categories_nodes":[],"categories_segments":[],"categories_sizes":[],"default_left":[0,0,0,0,0,0,0,0,0,0,0,0,0,0,0,0,0,0,0,0,0,0,0,0,0,0,0,0,0],"id":12,"left_children":[1,3,5,7,9,11,13,-1,15,17,19,21,23,25,27,-1,-1,-1,-1,-1,-1,-1,-1,-1,-1,-1,-1,-1,-1],"loss_changes":[4.2893257E1,8.200808E0,7.6898804E0,2.7991505E0,4.2253485E0,2.4962244E0,1.2286034E0,0E0,1.2653589E0,1.9656115E0,2.2112365E0,1.1823306E0,2.4576855E-1,4.325323E-1,4.4978905E-1,0E0,0E0,0E0,0E0,0E0,0E0,0E0,0E0,0E0,0E0,0E0,0E0,0E0,0E0],"parents":[2147483647,0,0,1,1,2,2,3,3,4,4,5,5,6,6,8,8,9,9,10,10,11,11,12,12,13,13,14,14],"right_children":[2,4,6,8,10,12,14,-1,16,18,20,22,24,26,28,-1,-1,-1,-1,-1,-1,-1,-1,-1,-1,-1,-1,-1,-1],"split_conditions":[7E0,5E0,4E0,3E0,2E0,2.134E3,9E0,-4.3629114E-2,1.155E3,6.8E1,2E0,8.45E2,1E0,1.582E3,1.427E3,-1.8045608E-2,-8.167789E-3,-9.953039E-3,-4.171806E-3,1.817099E-3,-8.985897E-3,-8.5598405E-4,6.588147E-3,1.1510191E-2,1.7926592E-2,6.9163116E-3,1.7142912E-2,2.3125116E-2,4.0365275E-2],"split_indices":[3,3,10,3,23,20,3,0,20,0,26,17,21,20,18,0,0,0,0,0,0,0,0,0,0,0,0,0,0],"split_type":[0,0,0,0,0,0,0,0,0,0,0,0,0,0,0,0,0,0,0,0,0,0,0,0,0,0,0,0,0],"sum_hessian":[1.614E3,1.027E3,5.87E2,1.51E2,8.76E2,4.47E2,1.4E2,8E0,1.43E2,5.55E2,3.21E2,3.72E2,7.5E1,7.1E1,6.9E1,9.5E1,4.8E1,2.6E2,2.95E2,2.69E2,5.2E1,5.8E1,3.14E2,3.5E1,4E1,1.4E1,5.7E1,6.4E1,5E0],"tree_param":{"num_deleted":"0","num_feature":"299","num_nodes":"29","size_leaf_vector":"1"}},{"base_weights":[1.791606E-3,-1.09494925E-1,1.942743E-1,-1.8749867E-1,-1.2144265E-2,9.932258E-2,3.1335568E-1,-2.886471E-1,-9.5344715E-2,-4.1834944E-1,4.1316818E-3,6.627726E-2,2.439502E-1,2.2961107E-1,4.0752104E-1,-3.2305144E-2,-1.2660562E-2,-8.237282E-3,-2.6484341E-3,-1.387704E-2,-3.169513E-2,1.7442392E-3,-6.212569E-3,-2.8380507E-3,4.4598985E-3,1.2841603E-2,5.6849443E-3,7.5234724E-3,1.5439872E-2,1.583075E-2,2.4252793E-2],"categories":[],"categories_nodes":[],"categories_segments":[],"categories_sizes":[],"default_left":[0,0,0,0,0,0,0,0,0,0,0,0,0,0,0,0,0,0,0,0,0,0,0,0,0,0,0,0,0,0,0],"id":13,"left_children":[1,3,5,7,9,11,13,15,17,19,21,23,25,27,29,-1,-1,-1,-1,-1,-1,-1,-1,-1,-1,-1,-1,-1,-1,-1,-1],"loss_changes":[3.441036E1,7.715746E0,6.615347E0,5.2264633E0,3.0212762E0,1.5447853E0,1.9659309E0,2.5081673E0,8.880384E-1,3.8661695E-1,1.8598909E0,8.8762796E-1,1.3295984E-1,8.765335E-1,7.775078E-1,0E0,0E0,0E0,0E0,0E0,0E0,0E0,0E0,0E0,0E0,0E0,0E0,0E0,0E0,0E0,0E0],"parents":[2147483647,0,0,1,1,2,2,3,3,4,4,5,5,6,6,7,7,8,8,9,9,10,10,11,11,12,12,13,13,14,14],"right_children":[2,4,6,8,10,12,14,16,18,20,22,24,26,28,30,-1,-1,-1,-1,-1,-1,-1,-1,-1,-1,-1,-1,-1,-1,-1,-1],"split_conditions":[7E0,1.32E3,8E0,3.6E2,4E0,2.052E3,1.922E3,2E0,9.51E2,1E0,1E0,3E0,1.6E1,8.92E2,1.646E3,-3.2305144E-2,-1.2660562E-2,-8.237282E-3,-2.6484341E-3,-1.387704E-2,-3.169513E-2,1.7442392E-3,-6.212569E-3,-2.8380507E-3,4.4598985E-3,1.2841603E-2,5.6849443E-3,7.5234724E-3,1.5439872E-2,1.583075E-2,2.4252793E-2],"split_indices":[3,20,3,12,4,20,20,9,17,293,67,10,38,12,17,0,0,0,0,0,0,0,0,0,0,0,0,0,0,0,0],"split_type":[0,0,0,0,0,0,0,0,0,0,0,0,0,0,0,0,0,0,0,0,0,0,0,0,0,0,0,0,0,0,0],"sum_hessian":[1.605E3,1.017E3,5.88E2,5.64E2,4.53E2,3.28E2,2.6E2,2.68E2,2.96E2,1.7E1,4.36E2,2.68E2,6E1,1.39E2,1.21E2,1.6E1,2.52E2,1.02E2,1.94E2,1.2E1,5E0,3.52E2,8.4E1,4.6E1,2.22E2,5E1,1E1,7.8E1,6.1E1,6.8E1,5.3E1],"tree_param":{"num_deleted":"0","num_feature":"299","num_nodes":"31","size_leaf_vector":"1"}},{"base_weights":[-4.7463262E-3,-1.815293E-1,1.0879827E-1,-1.4006507E-1,-4.0718353E-1,4.2411774E-2,2.9797965E-1,-2.1705638E-1,-7.21285E-2,-8.479172E-1,-3.439803E-1,-4.7685984E-3,1.6354014E-1,2.4329616E-1,4.446968E-1,-2.0760264E-2,-9.391155E-3,-4.5100343E-3,4.1892305E-3,-2.7885983E-2,-5.6425072E-2,-1.3327374E-2,-2.3396946E-2,-2.660622E-3,3.3899513E-3,8.991952E-3,-2.0615992E-3,3.7776756E-3,1.29916975E-2,1.937526E-2,3.3907462E-2],"categories":[],"categories_nodes":[],"categories_segments":[],"categories_sizes":[],"default_left":[0,0,0,0,0,0,0,0,0,0,0,0,0,0,0,0,0,0,0,0,0,0,0,0,0,0,0,0,0,0,0],"id":14,"left_children":[1,3,5,7,9,11,13,15,17,19,21,23,25,27,29,-1,-1,-1,-1,-1,-1,-1,-1,-1,-1,-1,-1,-1,-1,-1,-1],"loss_changes":[3.210399E1,5.7909946E0,1.2202443E1,2.7457972E0,2.4539223E0,4.1325064E0,1.9260693E0,1.0924902E0,9.6902907E-1,5.106611E-1,6.9690895E-1,1.9695783E0,9.7441244E-1,7.728195E-1,5.1999855E-1,0E0,0E0,0E0,0E0,0E0,0E0,0E0,0E0,0E0,0E0,0E0,0E0,0E0,0E0,0E0,0E0],"parents":[2147483647,0,0,1,1,2,2,3,3,4,4,5,5,6,6,7,7,8,8,9,9,10,10,11,11,12,12,13,13,14,14],"right_children":[2,4,6,8,10,12,14,16,18,20,22,24,26,28,30,-1,-1,-1,-1,-1,-1,-1,-1,-1,-1,-1,-1,-1,-1,-1,-1],"split_conditions":[6E0,1E0,8E0,9.86E2,3E0,1.72E3,9E0,5E0,1.5138E4,1E0,2.009E3,1.196E3,1E0,5.436E3,1.371E3,-2.0760264E-2,-9.391155E-3,-4.5100343E-3,4.1892305E-3,-2.7885983E-2,-5.6425072E-2,-1.3327374E-2,-2.3396946E-2,-2.660622E-3,3.3899513E-3,8.991952E-3,-2.0615992E-3,3.7776756E-3,1.29916975E-2,1.937526E-2,3.3907462E-2],"split_indices":[3,231,3,17,3,20,3,4,1,293,44,17,67,1,18,0,0,0,0,0,0,0,0,0,0,0,0,0,0,0,0],"split_type":[0,0,0,0,0,0,0,0,0,0,0,0,0,0,0,0,0,0,0,0,0,0,0,0,0,0,0,0,0,0,0],"sum_hessian":[1.598E3,6.25E2,9.73E2,5.29E2,9.6E1,7.21E2,2.52E2,2.47E2,2.82E2,1.1E1,8.5E1,5.19E2,2.02E2,1.85E2,6.7E1,2.2E1,2.25E2,2.49E2,3.3E1,7E0,4E0,5.9E1,2.6E1,3.11E2,2.08E2,1.82E2,2E1,2.6E1,1.59E2,5.9E1,8E0],"tree_param":{"num_deleted":"0","num_feature":"299","num_nodes":"31","size_leaf_vector":"1"}},{"base_weights":[-1.1900013E-4,-1.0853078E-1,1.6947187E-1,-1.8262088E-1,7.697253E-3,8.934517E-2,2.9122865E-1,-3.6113092E-1,-1.4656143E-1,-5.637479E-2,1.4953136E-1,3.7448693E-2,2.1694893E-1,2.0525335E-1,3.9380872E-1,-3.408429E-2,-1.6076908E-2,-1.3346767E-2,-5.4771076E-3,-6.243203E-3,-8.7264983E-4,4.666517E-4,1.0147102E-2,-1.8606698E-3,3.0781957E-3,6.4393934E-3,1.3135844E-2,5.5273045E-3,1.0835754E-2,1.595184E-2,2.353247E-2],"categories":[],"categories_nodes":[],"categories_segments":[],"categories_sizes":[],"default_left":[0,0,0,0,0,0,0,0,0,0,0,0,0,0,0,0,0,0,0,0,0,0,0,0,0,0,0,0,0,0,0],"id":15,"left_children":[1,3,5,7,9,11,13,15,17,19,21,23,25,27,29,-1,-1,-1,-1,-1,-1,-1,-1,-1,-1,-1,-1,-1,-1,-1,-1],"loss_changes":[2.9123508E1,8.333591E0,5.9900646E0,3.7436981E0,3.432282E0,2.4560893E0,2.077732E0,7.452707E-1,2.0751276E0,7.177866E-1,9.906099E-1,5.3839004E-1,4.5569944E-1,2.054882E-1,5.169258E-1,0E0,0E0,0E0,0E0,0E0,0E0,0E0,0E0,0E0,0E0,0E0,0E0,0E0,0E0,0E0,0E0],"parents":[2147483647,0,0,1,1,2,2,3,3,4,4,5,5,6,6,7,7,8,8,9,9,10,10,11,11,12,12,13,13,14,14],"right_children":[2,4,6,8,10,12,14,16,18,20,22,24,26,28,30,-1,-1,-1,-1,-1,-1,-1,-1,-1,-1,-1,-1,-1,-1,-1,-1],"split_conditions":[1.985E3,1E0,1.74E3,5.76E2,1.2144E4,1.419E3,1.307E3,2E0,1.951E3,6.1E1,1.509E3,1E0,3.72E2,8.68E2,2.439E3,-3.408429E-2,-1.6076908E-2,-1.3346767E-2,-5.4771076E-3,-6.243203E-3,-8.7264983E-4,4.666517E-4,1.0147102E-2,-1.8606698E-3,3.0781957E-3,6.4393934E-3,1.3135844E-2,5.5273045E-3,1.0835754E-2,1.595184E-2,2.353247E-2],"split_indices":[5,30,20,15,1,15,17,8,6,0,20,247,12,15,20,0,0,0,0,0,0,0,0,0,0,0,0,0,0,0,0],"split_type":[0,0,0,0,0,0,0,0,0,0,0,0,0,0,0,0,0,0,0,0,0,0,0,0,0,0,0,0,0,0,0],"sum_hessian":[1.583E3,9.66E2,6.17E2,5.9E2,3.76E2,3.73E2,2.44E2,9.8E1,4.92E2,2.59E2,1.17E2,2.66E2,1.07E2,1.34E2,1.1E2,6E0,9.2E1,9.8E1,3.94E2,8.8E1,1.71E2,3.6E1,8.1E1,6.8E1,1.98E2,4.4E1,6.3E1,2.5E1,1.09E2,6.8E1,4.2E1],"tree_param":{"num_deleted":"0","num_feature":"299","num_nodes":"31","size_leaf_vector":"1"}},{"base_weights":[3.919768E-3,-9.544124E-2,1.7083342E-1,-2.891336E-1,-6.098857E-2,1.18205704E-1,3.4535152E-1,-4.1567847E-1,-1.4505427E-1,-1.1115691E-1,1.849965E-2,6.284276E-2,2.0422313E-1,2.720104E-1,4.1593903E-1,-1.6077394E-2,-3.9797127E-2,-2.042307E-2,-5.9628016E-3,-1.0303522E-2,-3.8151059E-3,2.4084565E-3,-6.4279917E-3,1.0016952E-3,8.7899715E-3,-2.740251E-5,1.104911E-2,8.357179E-3,1.4652927E-2,9.672156E-3,2.1301033E-2],"categories":[],"categories_nodes":[],"categories_segments":[],"categories_sizes":[],"default_left":[0,0,0,0,0,0,0,0,0,0,0,0,0,0,0,0,0,0,0,0,0,0,0,0,0,0,0,0,0,0,0],"id":16,"left_children":[1,3,5,7,9,11,13,15,17,19,21,23,25,27,29,-1,-1,-1,-1,-1,-1,-1,-1,-1,-1,-1,-1,-1,-1,-1,-1],"loss_changes":[2.6111439E1,6.555187E0,5.3483963E0,2.6442347E0,3.350176E0,2.1339083E0,5.984707E-1,2.420805E0,3.6016035E-1,1.6647E0,1.5510339E0,1.377835E0,9.1663504E-1,1.6019344E-1,2.919283E-1,0E0,0E0,0E0,0E0,0E0,0E0,0E0,0E0,0E0,0E0,0E0,0E0,0E0,0E0,0E0,0E0],"parents":[2147483647,0,0,1,1,2,2,3,3,4,4,5,5,6,6,7,7,8,8,9,9,10,10,11,11,12,12,13,13,14,14],"right_children":[2,4,6,8,10,12,14,16,18,20,22,24,26,28,30,-1,-1,-1,-1,-1,-1,-1,-1,-1,-1,-1,-1,-1,-1,-1,-1],"split_conditions":[7E0,5E0,4E0,7.74E2,2E0,1.8E3,1.913E3,1E0,4E0,1.6E1,2E0,1.419E3,1.98E3,1E0,8E0,-1.6077394E-2,-3.9797127E-2,-2.042307E-2,-5.9628016E-3,-1.0303522E-2,-3.8151059E-3,2.4084565E-3,-6.4279917E-3,1.0016952E-3,8.7899715E-3,-2.740251E-5,1.104911E-2,8.357179E-3,1.4652927E-2,9.672156E-3,2.1301033E-2],"split_indices":[3,3,10,15,23,20,20,293,3,12,26,15,6,21,3,0,0,0,0,0,0,0,0,0,0,0,0,0,0,0,0],"split_type":[0,0,0,0,0,0,0,0,0,0,0,0,0,0,0,0,0,0,0,0,0,0,0,0,0,0,0,0,0,0,0],"sum_hessian":[1.573E3,9.86E2,5.87E2,1.48E2,8.38E2,4.52E2,1.35E2,7.8E1,7E1,5.14E2,3.24E2,2.76E2,1.76E2,6.8E1,6.7E1,6.6E1,1.2E1,4E0,6.6E1,1.21E2,3.93E2,2.69E2,5.5E1,2.05E2,7.1E1,1.9E1,1.57E2,1.8E1,5E1,8E0,5.9E1],"tree_param":{"num_deleted":"0","num_feature":"299","num_nodes":"31","size_leaf_vector":"1"}},{"base_weights":[-8.091315E-3,-1.0652777E-1,1.5794489E-1,-1.7384085E-1,-8.07384E-3,7.911166E-2,2.7869293E-1,-5.385583E-1,-1.5358062E-1,-4.6455115E-2,1.15333E-1,5.2399933E-2,1.6954863E-1,2.3284243E-1,4.170637E-1,-1.9252146E-2,-4.439305E-2,-1.772566E-2,-6.53764E-3,-9.215238E-3,-1.3460797E-3,1.7062778E-3,1.0691308E-2,1.3014971E-3,5.6226305E-3,5.8381055E-3,1.24362325E-2,9.56961E-3,1.4735049E-2,1.194529E-2,2.1644605E-2],"categories":[],"categories_nodes":[],"categories_segments":[],"categories_sizes":[],"default_left":[0,0,0,0,0,0,0,0,0,0,0,0,0,0,0,0,0,0,0,0,0,0,0,0,0,0,0,0,0,0,0],"id":17,"left_children":[1,3,5,7,9,11,13,15,17,19,21,23,25,27,29,-1,-1,-1,-1,-1,-1,-1,-1,-1,-1,-1,-1,-1,-1,-1,-1],"loss_changes":[2.5808199E1,6.561385E0,5.56168E0,4.263916E0,1.9113543E0,8.4468913E-1,1.3774452E0,1.3389091E0,2.0906134E0,8.1306744E-1,7.957634E-1,4.421034E-1,3.0697894E-1,3.763914E-1,2.0369053E-1,0E0,0E0,0E0,0E0,0E0,0E0,0E0,0E0,0E0,0E0,0E0,0E0,0E0,0E0,0E0,0E0],"parents":[2147483647,0,0,1,1,2,2,3,3,4,4,5,5,6,6,7,7,8,8,9,9,10,10,11,11,12,12,13,13,14,14],"right_children":[2,4,6,8,10,12,14,16,18,20,22,24,26,28,30,-1,-1,-1,-1,-1,-1,-1,-1,-1,-1,-1,-1,-1,-1,-1,-1],"split_conditions":[1.987E3,1.094E3,8E0,4E0,3E0,8.67E2,1.811E3,1E0,5E0,2E0,1.428E3,1.342E3,1.06E3,4E0,1.1388E4,-1.9252146E-2,-4.439305E-2,-1.772566E-2,-6.53764E-3,-9.215238E-3,-1.3460797E-3,1.7062778E-3,1.0691308E-2,1.3014971E-3,5.6226305E-3,5.8381055E-3,1.24362325E-2,9.56961E-3,1.4735049E-2,1.194529E-2,2.1644605E-2],"split_indices":[5,17,3,3,27,18,17,293,4,11,17,17,17,27,1,0,0,0,0,0,0,0,0,0,0,0,0,0,0,0,0],"split_type":[0,0,0,0,0,0,0,0,0,0,0,0,0,0,0,0,0,0,0,0,0,0,0,0,0,0,0,0,0,0,0],"sum_hessian":[1.578E3,9.91E2,5.87E2,5.88E2,4.03E2,3.56E2,2.31E2,3E1,5.58E2,3.08E2,9.5E1,2.76E2,8E1,1.75E2,5.6E1,2.3E1,7E0,4.2E1,5.16E2,3.4E1,2.74E2,5.5E1,4E1,1.99E2,7.7E1,5.3E1,2.7E1,1.21E2,5.4E1,1E1,4.6E1],"tree_param":{"num_deleted":"0","num_feature":"299","num_nodes":"31","size_leaf_vector":"1"}},{"base_weights":[1.6395662E-3,-9.3632005E-2,1.6704872E-1,-2.821665E-1,-5.8825273E-2,1.1705911E-1,3.32663E-1,-6.0689825E-1,-2.3265661E-1,-9.578714E-2,3.4278437E-2,4.543878E-2,1.6662756E-1,2.8635722E-1,4.7350663E-1,-5.140711E-2,-2.0007871E-2,-1.4054372E-2,-4.259226E-3,-5.4692626E-3,3.4346639E-3,-1.296918E-3,4.4280034E-3,1.0078916E-3,7.928179E-3,7.3296307E-3,1.5734224E-2,1.1554589E-2,1.6978579E-2,1.7511131E-2,2.660831E-2],"categories":[],"categories_nodes":[],"categories_segments":[],"categories_sizes":[],"default_left":[0,0,0,0,0,0,0,0,0,0,0,0,0,0,0,0,0,0,0,0,0,0,0,0,0,0,0,0,0,0,0],"id":18,"left_children":[1,3,5,7,9,11,13,15,17,19,21,23,25,27,29,-1,-1,-1,-1,-1,-1,-1,-1,-1,-1,-1,-1,-1,-1,-1,-1],"loss_changes":[2.5504658E1,6.7093086E0,4.851284E0,2.4377584E0,2.9908094E0,1.6019721E0,7.701378E-1,1.4733357E0,1.1520758E0,1.843502E0,8.738036E-1,5.361984E-1,5.7036114E-1,2.4013424E-1,1.1428547E-1,0E0,0E0,0E0,0E0,0E0,0E0,0E0,0E0,0E0,0E0,0E0,0E0,0E0,0E0,0E0,0E0],"parents":[2147483647,0,0,1,1,2,2,3,3,4,4,5,5,6,6,7,7,8,8,9,9,10,10,11,11,12,12,13,13,14,14],"right_children":[2,4,6,8,10,12,14,16,18,20,22,24,26,28,30,-1,-1,-1,-1,-1,-1,-1,-1,-1,-1,-1,-1,-1,-1,-1,-1],"split_conditions":[7E0,5E0,4E0,2E0,1.0773E4,5.1E2,1.85E3,1E0,9.1E2,1E0,6E0,1.368E3,1.6779E4,9E0,1E0,-5.140711E-2,-2.0007871E-2,-1.4054372E-2,-4.259226E-3,-5.4692626E-3,3.4346639E-3,-1.296918E-3,4.4280034E-3,1.0078916E-3,7.928179E-3,7.3296307E-3,1.5734224E-2,1.1554589E-2,1.6978579E-2,1.7511131E-2,2.660831E-2],"split_indices":[3,3,10,9,1,33,15,297,15,50,3,15,1,3,24,0,0,0,0,0,0,0,0,0,0,0,0,0,0,0,0],"split_type":[0,0,0,0,0,0,0,0,0,0,0,0,0,0,0,0,0,0,0,0,0,0,0,0,0,0,0,0,0,0,0],"sum_hessian":[1.617E3,1.026E3,5.91E2,1.59E2,8.67E2,4.55E2,1.36E2,2E1,1.39E2,6.21E2,2.46E2,1.87E2,2.68E2,1.04E2,3.2E1,5E0,1.5E1,9.8E1,4.1E1,5.62E2,5.9E1,1.19E2,1.27E2,1.56E2,3.1E1,2.47E2,2.1E1,6.3E1,4.1E1,1.5E1,1.7E1],"tree_param":{"num_deleted":"0","num_feature":"299","num_nodes":"31","size_leaf_vector":"1"}},{"base_weights":[4.8701367E-3,-1.0461863E-1,1.300106E-1,-4.5936635E-1,-8.8082485E-2,5.831233E-2,2.668399E-1,-5.0696355E-1,-5.967319E-3,-1.9540323E-1,-4.9008973E-2,-9.77245E-3,1.4728962E-1,1.8272659E-1,3.4994948E-1,-1.9451104E-2,-3.6689192E-2,-1.3972186E-2,-5.8377474E-3,-5.249451E-3,1.5141281E-4,-1.3922594E-2,1.0615822E-4,4.570254E-3,1.0081742E-2,7.9626115E-3,1.7520735E-2,1.419089E-2,2.1437574E-2],"categories":[],"categories_nodes":[],"categories_segments":[],"categories_sizes":[],"default_left":[0,0,0,0,0,0,0,0,0,0,0,0,0,0,0,0,0,0,0,0,0,0,0,0,0,0,0,0,0],"id":19,"left_children":[1,3,5,7,9,11,13,15,-1,17,19,21,23,25,27,-1,-1,-1,-1,-1,-1,-1,-1,-1,-1,-1,-1,-1,-1],"loss_changes":[2.1857908E1,4.9372425E0,7.2787695E0,5.3032684E-1,3.3934221E0,2.9739492E0,1.7209053E0,6.121311E-1,0E0,1.4779825E0,1.8725531E0,9.428809E-1,6.62694E-1,3.4402657E-1,5.549402E-1,0E0,0E0,0E0,0E0,0E0,0E0,0E0,0E0,0E0,0E0,0E0,0E0,0E0,0E0],"parents":[2147483647,0,0,1,1,2,2,3,3,4,4,5,5,6,6,7,7,9,9,10,10,11,11,12,12,13,13,14,14],"right_children":[2,4,6,8,10,12,14,16,-1,18,20,22,24,26,28,-1,-1,-1,-1,-1,-1,-1,-1,-1,-1,-1,-1,-1,-1],"split_conditions":[3E0,4E0,1.779E3,3.51E2,1E0,1.262E3,1.206E3,1E0,-5.967319E-3,1.164E3,1.226E3,8.33E2,1.494E3,1.368E3,4.56E2,-1.9451104E-2,-3.6689192E-2,-1.3972186E-2,-5.8377474E-3,-5.249451E-3,1.5141281E-4,-1.3922594E-2,1.0615822E-4,4.570254E-3,1.0081742E-2,7.9626115E-3,1.7520735E-2,1.419089E-2,2.1437574E-2],"split_indices":[27,4,20,12,66,15,15,293,0,20,20,20,15,18,7,0,0,0,0,0,0,0,0,0,0,0,0,0,0],"split_type":[0,0,0,0,0,0,0,0,0,0,0,0,0,0,0,0,0,0,0,0,0,0,0,0,0,0,0,0,0],"sum_hessian":[1.594E3,8.5E2,7.44E2,3.7E1,8.13E2,4.89E2,2.55E2,3.2E1,5E0,2.16E2,5.97E2,2.77E2,2.12E2,1.28E2,1.27E2,2.4E1,8E0,9.4E1,1.22E2,2.78E2,3.19E2,1.1E1,2.66E2,1.16E2,9.6E1,1.18E2,1E1,8.2E1,4.5E1],"tree_param":{"num_deleted":"0","num_feature":"299","num_nodes":"29","size_leaf_vector":"1"}},{"base_weights":[-2.3629378E-4,-9.027251E-2,1.27529E-1,-1.528886E-1,1.0098692E-2,6.6916816E-2,2.3364562E-1,-1.2506747E-1,-3.6501408E-1,-2.898081E-2,1.2003733E-1,-3.734187E-2,8.310794E-2,1.8973817E-1,3.2902232E-1,-1.368305E-2,-5.0637918E-3,-2.2955362E-2,-1.2315588E-2,-5.406666E-3,2.605265E-4,-7.402276E-3,6.7355777E-3,-2.839764E-3,6.116739E-3,-6.749784E-4,4.6758307E-3,3.9337897E-3,1.0523402E-2,1.4837131E-2,2.9133342E-2],"categories":[],"categories_nodes":[],"categories_segments":[],"categories_sizes":[],"default_left":[0,0,0,0,0,0,0,0,0,0,0,0,0,0,0,0,0,0,0,0,0,0,0,0,0,0,0,0,0,0,0],"id":20,"left_children":[1,3,5,7,9,11,13,15,17,19,21,23,25,27,29,-1,-1,-1,-1,-1,-1,-1,-1,-1,-1,-1,-1,-1,-1,-1,-1],"loss_changes":[1.869364E1,6.0015235E0,4.2948456E0,3.4150715E0,1.5818297E0,7.277324E-1,9.5585823E-1,1.6162453E0,7.125616E-1,7.7996755E-1,5.33154E-1,2.051411E-1,5.068226E-1,4.951229E-1,2.8221703E-1,0E0,0E0,0E0,0E0,0E0,0E0,0E0,0E0,0E0,0E0,0E0,0E0,0E0,0E0,0E0,0E0],"parents":[2147483647,0,0,1,1,2,2,3,3,4,4,5,5,6,6,7,7,8,8,9,9,10,10,11,11,12,12,13,13,14,14],"right_children":[2,4,6,8,10,12,14,16,18,20,22,24,26,28,30,-1,-1,-1,-1,-1,-1,-1,-1,-1,-1,-1,-1,-1,-1,-1,-1],"split_conditions":[1.98E3,1.097E3,8E0,1E0,1.3688E4,2E0,1.097E3,6.72E2,7.61E2,5E1,0E0,8.22E2,4.671E3,5.38E2,3E0,-1.368305E-2,-5.0637918E-3,-2.2955362E-2,-1.2315588E-2,-5.406666E-3,2.605265E-4,-7.402276E-3,6.7355777E-3,-2.839764E-3,6.116739E-3,-6.749784E-4,4.6758307E-3,3.9337897E-3,1.0523402E-2,1.4837131E-2,2.9133342E-2],"split_indices":[5,17,3,46,1,23,12,17,15,12,10,12,1,33,23,0,0,0,0,0,0,0,0,0,0,0,0,0,0,0,0],"split_type":[0,0,0,0,0,0,0,0,0,0,0,0,0,0,0,0,0,0,0,0,0,0,0,0,0,0,0,0,0,0,0],"sum_hessian":[1.624E3,9.53E2,6.71E2,5.87E2,3.66E2,4.28E2,2.43E2,5.2E2,6.7E1,2.7E2,9.6E1,5.7E1,3.71E2,1.68E2,7.5E1,5.7E1,4.63E2,3.2E1,3.5E1,7.9E1,1.91E2,6E0,9E1,5.1E1,6E0,4.6E1,3.25E2,3.6E1,1.32E2,7.1E1,4E0],"tree_param":{"num_deleted":"0","num_feature":"299","num_nodes":"31","size_leaf_vector":"1"}},{"base_weights":[1.4470018E-3,-7.934816E-2,1.3676462E-1,-1.8721187E-1,-4.082228E-2,1.02034986E-1,3.0389243E-1,-4.14501E-1,-1.5450753E-1,-8.855823E-2,2.7894372E-2,7.121731E-2,2.065662E-1,1.17655E-2,1.9177113E-2,-2.173876E-2,-1.0687363E-2,-8.508696E-3,-2.2571937E-4,-5.961967E-3,-1.1907724E-3,4.245865E-4,8.654512E-3,2.2136632E-3,6.8943477E-3,-1.0102354E-3,1.0602429E-2],"categories":[],"categories_nodes":[],"categories_segments":[],"categories_sizes":[],"default_left":[0,0,0,0,0,0,0,0,0,0,0,0,0,0,0,0,0,0,0,0,0,0,0,0,0,0,0],"id":21,"left_children":[1,3,5,7,9,11,13,15,17,19,21,23,25,-1,-1,-1,-1,-1,-1,-1,-1,-1,-1,-1,-1,-1,-1],"loss_changes":[1.7530758E1,4.154186E0,3.440709E0,1.8916016E0,2.4339724E0,1.579833E0,4.850111E-1,1.3468218E-1,7.5447893E-1,9.7233677E-1,8.6815685E-1,6.867176E-1,3.5649538E-1,0E0,0E0,0E0,0E0,0E0,0E0,0E0,0E0,0E0,0E0,0E0,0E0,0E0,0E0],"parents":[2147483647,0,0,1,1,2,2,3,3,4,4,5,5,6,6,7,7,8,8,9,9,10,10,11,11,12,12],"right_children":[2,4,6,8,10,12,14,16,18,20,22,24,26,-1,-1,-1,-1,-1,-1,-1,-1,-1,-1,-1,-1,-1,-1],"split_conditions":[7E0,1E0,4E0,5E0,6E0,6.75E2,1.2E3,1E0,1.994E3,5.57E2,8.6E2,7.27E2,1.992E3,1.17655E-2,1.9177113E-2,-2.173876E-2,-1.0687363E-2,-8.508696E-3,-2.2571937E-4,-5.961967E-3,-1.1907724E-3,4.245865E-4,8.654512E-3,2.2136632E-3,6.8943477E-3,-1.0102354E-3,1.0602429E-2],"split_indices":[3,66,27,4,3,33,12,275,5,12,18,12,6,0,0,0,0,0,0,0,0,0,0,0,0,0,0],"split_type":[0,0,0,0,0,0,0,0,0,0,0,0,0,0,0,0,0,0,0,0,0,0,0,0,0,0,0],"sum_hessian":[1.602E3,1.003E3,5.99E2,2.63E2,7.4E2,4.97E2,1.02E2,3.2E1,2.31E2,4.37E2,3.03E2,3.85E2,1.12E2,6.4E1,3.8E1,2.6E1,6E0,2.01E2,3E1,2.81E2,1.56E2,2.7E2,3.3E1,2.86E2,9.9E1,6E0,1.06E2],"tree_param":{"num_deleted":"0","num_feature":"299","num_nodes":"27","size_leaf_vector":"1"}},{"base_weights":[-1.2231861E-5,-8.9811675E-2,1.06563814E-1,-6.679399E-2,-2.600002E-1,4.2885408E-2,2.0778078E-1,-1.032001E-1,2.0108707E-2,-2.4439458E-2,-2.2979297E-1,-1.996431E-2,1.22866504E-1,2.6894715E-1,1.4834213E-1,-7.3639425E-3,-1.958244E-3,-2.5925503E-4,7.2465613E-3,-6.8154642E-3,-1.4271148E-2,-1.1826526E-2,-4.768476E-4,3.3241862E-3,7.809705E-3,1.21148005E-2,2.8438041E-2,5.7620453E-3,1.1598702E-2],"categories":[],"categories_nodes":[],"categories_segments":[],"categories_sizes":[],"default_left":[0,0,0,0,0,0,0,0,0,0,0,0,0,0,0,0,0,0,0,0,0,0,0,0,0,0,0,0,0],"id":22,"left_children":[1,3,5,7,9,11,13,15,17,-1,19,21,23,25,27,-1,-1,-1,-1,-1,-1,-1,-1,-1,-1,-1,-1,-1,-1],"loss_changes":[1.5399988E1,3.394936E0,4.722947E0,2.4435463E0,6.650815E-1,2.2819064E0,9.855833E-1,1.6728253E0,7.6346123E-1,0E0,5.007825E-1,5.6110185E-1,4.027319E-1,6.504383E-1,3.5112357E-1,0E0,0E0,0E0,0E0,0E0,0E0,0E0,0E0,0E0,0E0,0E0,0E0,0E0,0E0],"parents":[2147483647,0,0,1,1,2,2,3,3,4,4,5,5,6,6,7,7,8,8,10,10,11,11,12,12,13,13,14,14],"right_children":[2,4,6,8,10,12,14,16,18,-1,20,22,24,26,28,-1,-1,-1,-1,-1,-1,-1,-1,-1,-1,-1,-1,-1,-1],"split_conditions":[3E0,1E0,1.74E3,1.509E3,6.16E2,1.314E3,1E0,4.72E2,2E0,-2.4439458E-2,2.008E3,2E0,3.72E2,1.427E3,2.393E3,-7.3639425E-3,-1.958244E-3,-2.5925503E-4,7.2465613E-3,-6.8154642E-3,-1.4271148E-2,-1.1826526E-2,-4.768476E-4,3.3241862E-3,7.809705E-3,1.21148005E-2,2.8438041E-2,5.7620453E-3,1.1598702E-2],"split_indices":[27,231,20,20,17,17,209,12,29,0,44,11,12,18,20,0,0,0,0,0,0,0,0,0,0,0,0,0,0],"split_type":[0,0,0,0,0,0,0,0,0,0,0,0,0,0,0,0,0,0,0,0,0,0,0,0,0,0,0,0,0],"sum_hessian":[1.608E3,8.73E2,7.35E2,7.7E2,1.03E2,4.52E2,2.83E2,5.43E2,2.27E2,1E1,9.3E1,2.53E2,1.99E2,1.38E2,1.45E2,3.02E2,2.41E2,1.9E2,3.7E1,4.1E1,5.2E1,1E1,2.43E2,8.5E1,1.14E2,1.32E2,6E0,1.12E2,3.3E1],"tree_param":{"num_deleted":"0","num_feature":"299","num_nodes":"29","size_leaf_vector":"1"}},{"base_weights":[-1.96816E-3,-1.2507509E-1,7.074086E-2,-9.492433E-2,-3.1356552E-1,-1.989328E-2,1.2911387E-1,-2.4079795E-1,-7.727076E-2,-6.412248E-1,-2.5711492E-1,-8.601884E-2,3.5415173E-2,9.2558995E-2,2.455297E-1,-1.7784068E-2,-8.297994E-3,-7.894226E-3,-2.8404805E-3,-1.8568698E-2,-4.6701383E-2,-1.6157461E-2,-8.45894E-3,-8.427402E-3,-2.9686424E-3,-9.17154E-4,2.772031E-3,3.2529505E-3,9.319088E-3,1.2421742E-2,-3.950295E-3],"categories":[],"categories_nodes":[],"categories_segments":[],"categories_sizes":[],"default_left":[0,0,0,0,0,0,0,0,0,0,0,0,0,0,0,0,0,0,0,0,0,0,0,0,0,0,0,0,0,0,0],"id":23,"left_children":[1,3,5,7,9,11,13,15,17,19,21,23,25,27,29,-1,-1,-1,-1,-1,-1,-1,-1,-1,-1,-1,-1,-1,-1,-1,-1],"loss_changes":[1.4523064E1,3.385728E0,5.4014597E0,1.3130851E0,1.3823385E0,1.4659045E0,2.6099377E0,4.2306328E-1,7.214129E-1,6.787338E-1,3.947525E-1,3.775679E-1,2.644272E-1,1.1753402E0,6.109762E-1,0E0,0E0,0E0,0E0,0E0,0E0,0E0,0E0,0E0,0E0,0E0,0E0,0E0,0E0,0E0,0E0],"parents":[2147483647,0,0,1,1,2,2,3,3,4,4,5,5,6,6,7,7,8,8,9,9,10,10,11,11,12,12,13,13,14,14],"right_children":[2,4,6,8,10,12,14,16,18,20,22,24,26,28,30,-1,-1,-1,-1,-1,-1,-1,-1,-1,-1,-1,-1,-1,-1,-1,-1],"split_conditions":[6E0,1E0,1.488E3,5.775E3,3E0,1.097E3,7.06E2,9.12E2,1.932E3,2.99E2,1E0,1.952E3,1.978E3,2.122E3,1.154E3,-1.7784068E-2,-8.297994E-3,-7.894226E-3,-2.8404805E-3,-1.8568698E-2,-4.6701383E-2,-1.6157461E-2,-8.45894E-3,-8.427402E-3,-2.9686424E-3,-9.17154E-4,2.772031E-3,3.2529505E-3,9.319088E-3,1.2421742E-2,-3.950295E-3],"split_indices":[3,231,20,1,3,17,33,20,5,33,66,31,6,20,33,0,0,0,0,0,0,0,0,0,0,0,0,0,0,0,0],"split_type":[0,0,0,0,0,0,0,0,0,0,0,0,0,0,0,0,0,0,0,0,0,0,0,0,0,0,0,0,0,0,0],"sum_hessian":[1.621E3,6.02E2,1.019E3,5.2E2,8.2E1,3.99E2,6.2E2,5.5E1,4.65E2,1.1E1,7.1E1,1.82E2,2.17E2,4.73E2,1.47E2,1.8E1,3.7E1,8E1,3.85E2,7E0,4E0,3.5E1,3.6E1,3.8E1,1.44E2,6.2E1,1.55E2,3.8E2,9.3E1,1.42E2,5E0],"tree_param":{"num_deleted":"0","num_feature":"299","num_nodes":"31","size_leaf_vector":"1"}},{"base_weights":[-1.8741441E-3,-8.552268E-2,9.646112E-2,-2.693062E-1,-6.0018666E-2,4.661128E-2,2.0588431E-1,-3.6948812E-1,-1.8454598E-1,-1.16262786E-1,-1.2135425E-2,-5.0862726E-2,7.7640966E-2,1.7348567E-1,3.1273606E-1,-2.2814758E-2,-1.3775326E-2,-1.2311623E-2,-3.9096903E-3,-4.9551665E-3,-1.2854103E-2,-2.5510818E-3,1.6827327E-3,-8.96078E-3,-7.5281295E-4,2.6093007E-3,7.528332E-3,5.0294995E-3,1.0466997E-2,1.6917085E-2,-5.429085E-3],"categories":[],"categories_nodes":[],"categories_segments":[],"categories_sizes":[],"default_left":[0,0,0,0,0,0,0,0,0,0,0,0,0,0,0,0,0,0,0,0,0,0,0,0,0,0,0,0,0,0,0],"id":24,"left_children":[1,3,5,7,9,11,13,15,17,19,21,23,25,27,29,-1,-1,-1,-1,-1,-1,-1,-1,-1,-1,-1,-1,-1,-1,-1,-1],"loss_changes":[1.2989363E1,3.9743485E0,3.9391985E0,8.10164E-1,2.014034E0,1.5148478E0,7.267742E-1,2.845044E-1,3.9255226E-1,6.6199875E-1,7.8239834E-1,5.619178E-1,6.8497086E-1,5.0008345E-1,8.756752E-1,0E0,0E0,0E0,0E0,0E0,0E0,0E0,0E0,0E0,0E0,0E0,0E0,0E0,0E0,0E0,0E0],"parents":[2147483647,0,0,1,1,2,2,3,3,4,4,5,5,6,6,7,7,8,8,9,9,10,10,11,11,12,12,13,13,14,14],"right_children":[2,4,6,8,10,12,14,16,18,20,22,24,26,28,30,-1,-1,-1,-1,-1,-1,-1,-1,-1,-1,-1,-1,-1,-1,-1,-1],"split_conditions":[1.488E3,1E0,8E0,1.923E3,9.88E2,6E0,2.439E3,9.6E2,1.124E3,1E0,3E0,2E0,2.052E3,1E0,2.74E2,-2.2814758E-2,-1.3775326E-2,-1.2311623E-2,-3.9096903E-3,-4.9551665E-3,-1.2854103E-2,-2.5510818E-3,1.6827327E-3,-8.96078E-3,-7.5281295E-4,2.6093007E-3,7.528332E-3,5.0294995E-3,1.0466997E-2,1.6917085E-2,-5.429085E-3],"split_indices":[20,259,3,31,17,3,20,20,20,46,10,10,20,21,37,0,0,0,0,0,0,0,0,0,0,0,0,0,0,0,0],"split_type":[0,0,0,0,0,0,0,0,0,0,0,0,0,0,0,0,0,0,0,0,0,0,0,0,0,0,0,0,0,0,0],"sum_hessian":[1.578E3,8.53E2,7.25E2,1.03E2,7.5E2,4.99E2,2.26E2,4.6E1,5.7E1,3.44E2,4.06E2,1.2E2,3.79E2,1.75E2,5.1E1,1.9E1,2.7E1,3.3E1,2.4E1,3.17E2,2.7E1,2.18E2,1.88E2,2.4E1,9.6E1,2.93E2,8.6E1,6.9E1,1.06E2,4.7E1,4E0],"tree_param":{"num_deleted":"0","num_feature":"299","num_nodes":"31","size_leaf_vector":"1"}},{"base_weights":[2.1450345E-3,-8.2926825E-2,8.898187E-2,-1.3262549E-1,-2.9527997E-3,3.6423735E-2,1.8487342E-1,-2.5042635E-1,-1.046733E-1,-4.0603083E-2,1.2392003E-1,3.5107932E-3,1.398025E-1,1.0764485E-1,2.4197885E-1,-1.7453905E-2,-9.15728E-3,-4.197518E-3,-1.2381616E-2,-5.106458E-3,-3.440505E-4,-3.7960217E-3,6.938889E-3,-4.322103E-3,1.1395825E-3,6.2243165E-3,1.4981022E-2,-3.9310865E-3,5.539741E-3,9.386393E-3,1.4708458E-2],"categories":[],"categories_nodes":[],"categories_segments":[],"categories_sizes":[],"default_left":[0,0,0,0,0,0,0,0,0,0,0,0,0,0,0,0,0,0,0,0,0,0,0,0,0,0,0,0,0,0,0],"id":25,"left_children":[1,3,5,7,9,11,13,15,17,19,21,23,25,27,29,-1,-1,-1,-1,-1,-1,-1,-1,-1,-1,-1,-1,-1,-1,-1,-1],"loss_changes":[1.19324255E1,3.234488E0,4.014466E0,1.6209126E0,1.496763E0,1.7534769E0,1.2126532E0,5.755315E-1,1.0598907E0,5.2422595E-1,3.0106735E-1,7.362891E-1,1.8043232E-1,1.7510152E-1,4.2079353E-1,0E0,0E0,0E0,0E0,0E0,0E0,0E0,0E0,0E0,0E0,0E0,0E0,0E0,0E0,0E0,0E0],"parents":[2147483647,0,0,1,1,2,2,3,3,4,4,5,5,6,6,7,7,8,8,9,9,10,10,11,11,12,12,13,13,14,14],"right_children":[2,4,6,8,10,12,14,16,18,20,22,24,26,28,30,-1,-1,-1,-1,-1,-1,-1,-1,-1,-1,-1,-1,-1,-1,-1,-1],"split_conditions":[3E0,1E0,1.74E3,6.11E2,1.789E3,1.419E3,1.157E3,9.88E2,1E0,6.5E1,5.76E2,3.9E2,1E0,1.921E3,1.3615E4,-1.7453905E-2,-9.15728E-3,-4.197518E-3,-1.2381616E-2,-5.106458E-3,-3.440505E-4,-3.7960217E-3,6.938889E-3,-4.322103E-3,1.1395825E-3,6.2243165E-3,1.4981022E-2,-3.9310865E-3,5.539741E-3,9.386393E-3,1.4708458E-2],"split_indices":[10,29,20,15,20,15,15,20,46,0,15,33,280,5,1,0,0,0,0,0,0,0,0,0,0,0,0,0,0,0,0],"split_type":[0,0,0,0,0,0,0,0,0,0,0,0,0,0,0,0,0,0,0,0,0,0,0,0,0,0,0,0,0,0,0],"sum_hessian":[1.614E3,8.15E2,7.99E2,5.02E2,3.13E2,5.17E2,2.82E2,9.5E1,4.07E2,2.42E2,7.1E1,3.93E2,1.24E2,1.21E2,1.61E2,3.2E1,6.3E1,3.66E2,4.1E1,8.1E1,1.61E2,6E0,6.5E1,6.9E1,3.24E2,1.18E2,6E0,4E0,1.17E2,9.4E1,6.7E1],"tree_param":{"num_deleted":"0","num_feature":"299","num_nodes":"31","size_leaf_vector":"1"}},{"base_weights":[4.167784E-3,-1.0420602E-1,7.009109E-2,-8.218897E-2,-2.9093355E-1,1.6702257E-2,1.5900278E-1,-1.6423653E-1,-5.6876842E-2,-3.949387E-1,-1.8316488E-1,-1.0370488E-2,1.0880306E-1,1.05766304E-1,2.2477637E-1,-1.6452467E-2,-7.1637444E-3,-9.043604E-3,-1.958987E-3,-2.4344817E-2,-1.2492113E-2,-1.1805275E-2,-4.9700146E-3,-4.9575754E-3,2.1828938E-4,2.3312778E-3,6.9756526E-3,-4.36255E-3,5.752661E-3,1.1384796E-2,-3.1785564E-3],"categories":[],"categories_nodes":[],"categories_segments":[],"categories_sizes":[],"default_left":[0,0,0,0,0,0,0,0,0,0,0,0,0,0,0,0,0,0,0,0,0,0,0,0,0,0,0,0,0,0,0],"id":26,"left_children":[1,3,5,7,9,11,13,15,17,19,21,23,25,27,29,-1,-1,-1,-1,-1,-1,-1,-1,-1,-1,-1,-1,-1,-1,-1,-1],"loss_changes":[1.1480792E1,2.464376E0,4.7343693E0,1.1140318E0,6.3957834E-1,1.565632E0,1.2803707E0,2.9695797E-1,8.700403E-1,3.544259E-1,1.2808073E-1,6.717384E-1,2.9545105E-1,5.642812E-1,5.716963E-1,0E0,0E0,0E0,0E0,0E0,0E0,0E0,0E0,0E0,0E0,0E0,0E0,0E0,0E0,0E0,0E0],"parents":[2147483647,0,0,1,1,2,2,3,3,4,4,5,5,6,6,7,7,8,8,9,9,10,10,11,11,12,12,13,13,14,14],"right_children":[2,4,6,8,10,12,14,16,18,20,22,24,26,28,30,-1,-1,-1,-1,-1,-1,-1,-1,-1,-1,-1,-1,-1,-1,-1,-1],"split_conditions":[6E0,1E0,1.74E3,1E0,1.929E3,1.408E3,1.228E3,2E0,2E0,5E0,3E0,2.94E2,2.01E2,1E0,2.87E2,-1.6452467E-2,-7.1637444E-3,-9.043604E-3,-1.958987E-3,-2.4344817E-2,-1.2492113E-2,-1.1805275E-2,-4.9700146E-3,-4.9575754E-3,2.1828938E-4,2.3312778E-3,6.9756526E-3,-4.36255E-3,5.752661E-3,1.1384796E-2,-3.1785564E-3],"split_indices":[3,46,20,66,31,15,15,16,10,3,16,33,12,134,37,0,0,0,0,0,0,0,0,0,0,0,0,0,0,0,0],"split_type":[0,0,0,0,0,0,0,0,0,0,0,0,0,0,0,0,0,0,0,0,0,0,0,0,0,0,0,0,0,0,0],"sum_hessian":[1.606E3,6.07E2,9.99E2,5.44E2,6.3E1,6.25E2,3.74E2,1.27E2,4.17E2,3.1E1,3.2E1,4.83E2,1.42E2,2.08E2,1.66E2,9E0,1.18E2,4.5E1,3.72E2,1.6E1,1.5E1,1.7E1,1.5E1,6.7E1,4.16E2,5.4E1,8.8E1,1.3E1,1.95E2,1.6E2,6E0],"tree_param":{"num_deleted":"0","num_feature":"299","num_nodes":"31","size_leaf_vector":"1"}},{"base_weights":[3.5050572E-3,-6.1741963E-2,1.0177035E-1,-9.727442E-2,3.9488725E-2,7.853563E-2,2.7549443E-1,-2.3354793E-1,-7.273165E-2,-1.2594987E-1,6.2052578E-2,2.4857698E-2,1.1137306E-1,1.1727301E-2,2.1146052E-2,-2.069195E-2,-9.383438E-3,-5.3298944E-3,-1.1843999E-3,1.3902257E-3,-1.2561699E-2,-9.5720333E-4,4.9772765E-3,-6.930631E-4,3.0377025E-3,3.8839846E-3,7.3991986E-3],"categories":[],"categories_nodes":[],"categories_segments":[],"categories_sizes":[],"default_left":[0,0,0,0,0,0,0,0,0,0,0,0,0,0,0,0,0,0,0,0,0,0,0,0,0,0,0],"id":27,"left_children":[1,3,5,7,9,11,13,15,17,19,21,23,25,-1,-1,-1,-1,-1,-1,-1,-1,-1,-1,-1,-1,-1,-1],"loss_changes":[1.0498949E1,3.5432796E0,2.6069813E0,2.4108481E0,9.5556986E-1,1.0094352E0,3.0303192E-1,7.590499E-1,1.1189961E0,6.5440214E-1,7.671241E-1,3.3341047E-1,4.4451475E-1,0E0,0E0,0E0,0E0,0E0,0E0,0E0,0E0,0E0,0E0,0E0,0E0,0E0,0E0],"parents":[2147483647,0,0,1,1,2,2,3,3,4,4,5,5,6,6,7,7,8,8,9,9,10,10,11,11,12,12],"right_children":[2,4,6,8,10,12,14,16,18,20,22,24,26,-1,-1,-1,-1,-1,-1,-1,-1,-1,-1,-1,-1,-1,-1],"split_conditions":[1.983E3,1.1214E4,9E0,2E0,5E0,4.95E2,1.5498E4,4E0,6.9E1,2.008E3,1E0,0E0,7.7E1,1.1727301E-2,2.1146052E-2,-2.069195E-2,-9.383438E-3,-5.3298944E-3,-1.1843999E-3,1.3902257E-3,-1.2561699E-2,-9.5720333E-4,4.9772765E-3,-6.930631E-4,3.0377025E-3,3.8839846E-3,7.3991986E-3],"split_indices":[5,1,3,35,4,33,1,4,0,44,30,30,0,0,0,0,0,0,0,0,0,0,0,0,0,0,0],"split_type":[0,0,0,0,0,0,0,0,0,0,0,0,0,0,0,0,0,0,0,0,0,0,0,0,0,0,0],"sum_hessian":[1.636E3,9.83E2,6.53E2,7.28E2,2.55E2,5.77E2,7.6E1,1.1E2,6.18E2,3E1,2.25E2,2.2E2,3.57E2,6.5E1,1.1E1,1.7E1,9.3E1,3.45E2,2.73E2,1.4E1,1.6E1,7.5E1,1.5E2,1.08E2,1.12E2,2.08E2,1.49E2],"tree_param":{"num_deleted":"0","num_feature":"299","num_nodes":"27","size_leaf_vector":"1"}},{"base_weights":[8.7371626E-4,-8.250224E-2,7.320019E-2,-6.0428917E-2,-2.846885E-1,4.1512154E-2,1.8410486E-1,-1.0989841E-1,-1.4264666E-2,-2.272881E-1,-3.618167E-2,-1.5176547E-1,5.3750288E-2,1.3470621E-1,2.8459507E-1,-4.6153367E-3,-1.1865965E-2,-5.2234493E-3,2.0445438E-4,-1.3460085E-2,-6.349933E-3,-1.6350865E-2,-4.254593E-3,1.0648731E-3,5.3145643E-3,3.1139618E-3,8.321506E-3,7.076074E-3,1.5899364E-2],"categories":[],"categories_nodes":[],"categories_segments":[],"categories_sizes":[],"default_left":[0,0,0,0,0,0,0,0,0,0,0,0,0,0,0,0,0,0,0,0,0,0,0,0,0,0,0,0,0],"id":28,"left_children":[1,3,5,7,9,11,13,15,17,19,-1,21,23,25,27,-1,-1,-1,-1,-1,-1,-1,-1,-1,-1,-1,-1,-1,-1],"loss_changes":[9.631135E0,3.2816033E0,2.9906812E0,1.5218573E0,1.7888784E0,1.5766282E0,8.9654446E-1,5.900047E-1,6.110242E-1,2.824664E-1,0E0,4.313771E-1,1.1145287E0,3.2314014E-1,3.3060598E-1,0E0,0E0,0E0,0E0,0E0,0E0,0E0,0E0,0E0,0E0,0E0,0E0,0E0,0E0],"parents":[2147483647,0,0,1,1,2,2,3,3,4,4,5,5,6,6,7,7,8,8,9,9,11,11,12,12,13,13,14,14],"right_children":[2,4,6,8,10,12,14,16,18,20,-1,22,24,26,28,-1,-1,-1,-1,-1,-1,-1,-1,-1,-1,-1,-1,-1,-1],"split_conditions":[1.416E3,1E0,3E0,1.017E3,1E0,5E0,2.263E3,1E0,1.956E3,7E0,-3.618167E-2,1E0,1E0,3E0,1.269E3,-4.6153367E-3,-1.1865965E-2,-5.2234493E-3,2.0445438E-4,-1.3460085E-2,-6.349933E-3,-1.6350865E-2,-4.254593E-3,1.0648731E-3,5.3145643E-3,3.1139618E-3,8.321506E-3,7.076074E-3,1.5899364E-2],"split_indices":[20,257,32,17,293,4,20,46,5,4,0,66,21,30,17,0,0,0,0,0,0,0,0,0,0,0,0,0,0],"split_type":[0,0,0,0,0,0,0,0,0,0,0,0,0,0,0,0,0,0,0,0,0,0,0,0,0,0,0,0,0],"sum_hessian":[1.596E3,7.41E2,8.55E2,6.69E2,7.2E1,6.66E2,1.89E2,3.22E2,3.47E2,6.5E1,7E0,3.9E1,6.27E2,1.28E2,6.1E1,2.93E2,2.9E1,5.7E1,2.9E2,4.1E1,2.4E1,9E0,3E1,4.03E2,2.24E2,4.6E1,8.2E1,1.6E1,4.5E1],"tree_param":{"num_deleted":"0","num_feature":"299","num_nodes":"29","size_leaf_vector":"1"}},{"base_weights":[6.0211564E-4,-7.440739E-2,7.964571E-2,-3.392976E-1,-6.0066167E-2,4.0636174E-2,1.6289213E-1,-2.4870376E-1,-5.3898466E-1,-9.654861E-2,8.14786E-3,-3.4200583E-2,6.640286E-2,1.2861028E-1,2.3853938E-1,-1.3900732E-2,-1.5112705E-3,-3.306604E-2,-1.6144797E-2,-9.783729E-3,-3.5975592E-3,-9.312151E-4,3.4854272E-3,-3.9277508E-4,-4.9488903E-3,-3.280341E-3,3.6402494E-3,3.095876E-3,7.6535163E-3,1.2298322E-2,-2.279056E-3],"categories":[],"categories_nodes":[],"categories_segments":[],"categories_sizes":[],"default_left":[0,0,0,0,0,0,0,0,0,0,0,0,0,0,0,0,0,0,0,0,0,0,0,0,0,0,0,0,0,0,0],"id":29,"left_children":[1,3,5,7,9,11,13,15,17,19,21,23,25,27,29,-1,-1,-1,-1,-1,-1,-1,-1,-1,-1,-1,-1,-1,-1,-1,-1],"loss_changes":[9.659858E0,3.1415148E0,2.562694E0,6.4943075E-1,1.9799898E0,1.0473936E0,6.177182E-1,2.421745E-1,1.8714356E-1,1.1835995E0,4.9108306E-1,2.4105112E-1,4.985727E-1,3.235798E-1,3.865795E-1,0E0,0E0,0E0,0E0,0E0,0E0,0E0,0E0,0E0,0E0,0E0,0E0,0E0,0E0,0E0,0E0],"parents":[2147483647,0,0,1,1,2,2,3,3,4,4,5,5,6,6,7,7,8,8,9,9,10,10,11,11,12,12,13,13,14,14],"right_children":[2,4,6,8,10,12,14,16,18,20,22,24,26,28,30,-1,-1,-1,-1,-1,-1,-1,-1,-1,-1,-1,-1,-1,-1,-1,-1],"split_conditions":[3E0,4E0,1.419E3,1E0,1E0,2E0,1.3262E4,4.37E2,6.9E1,5.76E2,7E0,1E0,3.4E1,3.72E2,1E0,-1.3900732E-2,-1.5112705E-3,-3.306604E-2,-1.6144797E-2,-9.783729E-3,-3.5975592E-3,-9.312151E-4,3.4854272E-3,-3.9277508E-4,-4.9488903E-3,-3.280341E-3,3.6402494E-3,3.095876E-3,7.6535163E-3,1.2298322E-2,-2.279056E-3],"split_indices":[10,4,15,293,30,23,1,12,0,15,4,67,0,12,77,0,0,0,0,0,0,0,0,0,0,0,0,0,0,0,0],"split_type":[0,0,0,0,0,0,0,0,0,0,0,0,0,0,0,0,0,0,0,0,0,0,0,0,0,0,0,0,0,0,0],"sum_hessian":[1.628E3,8.35E2,7.93E2,4.2E1,7.93E2,5.41E2,2.52E2,3E1,1.2E1,5.17E2,2.76E2,1.38E2,4.03E2,1.75E2,7.7E1,2.5E1,5E0,6E0,6E0,8.7E1,4.3E2,1.93E2,8.3E1,1.01E2,3.7E1,2.5E1,3.78E2,5.7E1,1.18E2,7.3E1,4E0],"tree_param":{"num_deleted":"0","num_feature":"299","num_nodes":"31","size_leaf_vector":"1"}},{"base_weights":[-4.773896E-4,-6.633852E-2,8.0108374E-2,-2.0944965E-1,-4.8170373E-2,3.9811354E-2,1.9865566E-1,-4.114618E-1,-1.6122146E-1,-8.7934054E-2,6.13155E-4,1.2307268E-2,1.2192879E-1,1.8030828E-1,2.3276754E-2,-1.47837065E-2,-3.271411E-2,-1.2550199E-2,-5.948806E-3,-1.5140617E-2,-3.6024621E-3,-8.6936704E-4,4.8152166E-3,-3.2634363E-3,1.6383203E-3,4.699354E-3,8.084194E-3,9.121048E-3,-4.754481E-3],"categories":[],"categories_nodes":[],"categories_segments":[],"categories_sizes":[],"default_left":[0,0,0,0,0,0,0,0,0,0,0,0,0,0,0,0,0,0,0,0,0,0,0,0,0,0,0,0,0],"id":30,"left_children":[1,3,5,7,9,11,13,15,17,19,21,23,25,27,-1,-1,-1,-1,-1,-1,-1,-1,-1,-1,-1,-1,-1,-1,-1],"loss_changes":[8.566639E0,2.291098E0,3.4492502E0,9.009805E-1,1.5362034E0,1.2176963E0,8.710561E-1,3.4464788E-1,2.667699E-1,1.2657046E0,6.6194427E-1,7.068516E-1,1.2822127E-1,4.4835234E-1,0E0,0E0,0E0,0E0,0E0,0E0,0E0,0E0,0E0,0E0,0E0,0E0,0E0,0E0,0E0],"parents":[2147483647,0,0,1,1,2,2,3,3,4,4,5,5,6,6,7,7,8,8,9,9,10,10,11,11,12,12,13,13],"right_children":[2,4,6,8,10,12,14,16,18,20,22,24,26,28,-1,-1,-1,-1,-1,-1,-1,-1,-1,-1,-1,-1,-1,-1,-1],"split_conditions":[3E0,8.94E2,1.968E3,1E0,3.7E2,7.85E2,1.427E3,1E0,6.373E3,4E0,1.701E3,6.24E3,2.006E3,2.74E2,2.3276754E-2,-1.47837065E-2,-3.271411E-2,-1.2550199E-2,-5.948806E-3,-1.5140617E-2,-3.6024621E-3,-8.6936704E-4,4.8152166E-3,-3.2634363E-3,1.6383203E-3,4.699354E-3,8.084194E-3,9.121048E-3,-4.754481E-3],"split_indices":[27,20,20,237,12,12,18,293,1,4,20,1,5,37,0,0,0,0,0,0,0,0,0,0,0,0,0,0,0],"split_type":[0,0,0,0,0,0,0,0,0,0,0,0,0,0,0,0,0,0,0,0,0,0,0,0,0,0,0,0,0],"sum_hessian":[1.613E3,8.88E2,7.25E2,9.9E1,7.89E2,5.42E2,1.83E2,1.8E1,8.1E1,4.35E2,3.54E2,4.07E2,1.35E2,1.73E2,1E1,1.4E1,4E0,2.1E1,6E1,2.3E1,4.12E2,2.98E2,5.6E1,8.6E1,3.21E2,9E1,4.5E1,1.68E2,5E0],"tree_param":{"num_deleted":"0","num_feature":"299","num_nodes":"29","size_leaf_vector":"1"}},{"base_weights":[5.0012674E-3,-5.9805833E-2,8.0463134E-2,-1.348887E-1,-2.1355744E-2,4.3711647E-2,1.6887487E-1,-2.5249428E-1,-1.03810765E-1,-7.666344E-3,-8.833664E-3,-3.0008791E-2,7.885355E-2,1.231717E-1,2.2221741E-1,-1.8119272E-2,-1.00952145E-2,-1.0149897E-2,-4.0533324E-3,-1.5585369E-3,2.0698598E-3,-4.1518533E-3,1.796183E-3,2.3922473E-3,8.687713E-3,-3.6370174E-3,6.573351E-3,9.478406E-3,1.5635703E-2],"categories":[],"categories_nodes":[],"categories_segments":[],"categories_sizes":[],"default_left":[0,0,0,0,0,0,0,0,0,0,0,0,0,0,0,0,0,0,0,0,0,0,0,0,0,0,0,0,0],"id":31,"left_children":[1,3,5,7,9,11,13,15,17,-1,19,21,23,25,27,-1,-1,-1,-1,-1,-1,-1,-1,-1,-1,-1,-1,-1,-1],"loss_changes":[7.9001174E0,2.4978364E0,2.4105287E0,1.0389843E0,9.830345E-1,1.3733752E0,4.9868584E-1,2.44452E-1,4.6590924E-1,0E0,6.435381E-1,6.4868325E-1,1.0452552E0,3.2312012E-1,1.9496393E-1,0E0,0E0,0E0,0E0,0E0,0E0,0E0,0E0,0E0,0E0,0E0,0E0,0E0,0E0],"parents":[2147483647,0,0,1,1,2,2,3,3,4,4,5,5,6,6,7,7,8,8,10,10,11,11,12,12,13,13,14,14],"right_children":[2,4,6,8,10,12,14,16,18,-1,20,22,24,26,28,-1,-1,-1,-1,-1,-1,-1,-1,-1,-1,-1,-1,-1,-1],"split_conditions":[1.488E3,1.956E3,7.73E2,8.94E2,2.645E3,1.983E3,1.873E3,5E0,2.05E2,-7.666344E-3,1.2E3,6E0,2.134E3,1.962E3,2.136E3,-1.8119272E-2,-1.00952145E-2,-1.0149897E-2,-4.0533324E-3,-1.5585369E-3,2.0698598E-3,-4.1518533E-3,1.796183E-3,2.3922473E-3,8.687713E-3,-3.6370174E-3,6.573351E-3,9.478406E-3,1.5635703E-2],"split_indices":[20,5,12,20,1,6,20,4,33,0,15,4,20,6,15,0,0,0,0,0,0,0,0,0,0,0,0,0,0],"split_type":[0,0,0,0,0,0,0,0,0,0,0,0,0,0,0,0,0,0,0,0,0,0,0,0,0,0,0,0,0],"sum_hessian":[1.614E3,8.68E2,7.46E2,2.93E2,5.75E2,5.28E2,2.18E2,6E1,2.33E2,4.7E1,5.28E2,1.7E2,3.58E2,1.19E2,9.9E1,1.4E1,4.6E1,3.5E1,1.98E2,3.64E2,1.64E2,9.3E1,7.7E1,2.79E2,7.9E1,7E0,1.12E2,8.1E1,1.8E1],"tree_param":{"num_deleted":"0","num_feature":"299","num_nodes":"29","size_leaf_vector":"1"}},{"base_weights":[-2.0950707E-3,-5.215339E-2,7.414807E-2,-1.8669939E-1,-3.2070488E-2,4.2723518E-2,1.4951624E-1,-2.3649015E-2,-1.6583362E-1,-4.8667736E-2,9.490009E-2,7.4334666E-3,7.2481595E-2,1.16402976E-1,2.1976832E-1,-1.3569213E-2,-6.3122874E-3,-4.1239797E-3,-6.85584E-4,2.4655836E-3,8.298382E-3,-2.3007067E-3,1.4910271E-3,2.7352646E-3,5.9830924E-3,4.801372E-3,9.835531E-3,-1.3965182E-3,1.1531641E-2],"categories":[],"categories_nodes":[],"categories_segments":[],"categories_sizes":[],"default_left":[0,0,0,0,0,0,0,0,0,0,0,0,0,0,0,0,0,0,0,0,0,0,0,0,0,0,0,0,0],"id":32,"left_children":[1,3,5,7,9,11,13,-1,15,17,19,21,23,25,27,-1,-1,-1,-1,-1,-1,-1,-1,-1,-1,-1,-1,-1,-1],"loss_changes":[6.1329637E0,2.6077828E0,1.4940023E0,7.138276E-1,1.7823961E0,4.6877253E-1,4.0139008E-1,0E0,4.3504143E-1,9.454378E-1,3.1312817E-1,2.6918492E-1,1.8440294E-1,1.6137862E-1,2.9899836E-1,0E0,0E0,0E0,0E0,0E0,0E0,0E0,0E0,0E0,0E0,0E0,0E0,0E0,0E0],"parents":[2147483647,0,0,1,1,2,2,3,3,4,4,5,5,6,6,8,8,9,9,10,10,11,11,12,12,13,13,14,14],"right_children":[2,4,6,8,10,12,14,-1,16,18,20,22,24,26,28,-1,-1,-1,-1,-1,-1,-1,-1,-1,-1,-1,-1,-1,-1],"split_conditions":[1.981E3,2E0,6.62E2,3E0,2E0,1E0,3.66E2,-2.3649015E-2,5.87E3,6.9E1,1.4157E4,7.2E3,1.463E3,1.319E3,3E0,-1.3569213E-2,-6.3122874E-3,-4.1239797E-3,-6.85584E-4,2.4655836E-3,8.298382E-3,-2.3007067E-3,1.4910271E-3,2.7352646E-3,5.9830924E-3,4.801372E-3,9.835531E-3,-1.3965182E-3,1.1531641E-2],"split_indices":[5,35,33,4,29,29,7,0,1,0,1,1,15,12,32,0,0,0,0,0,0,0,0,0,0,0,0,0,0],"split_type":[0,0,0,0,0,0,0,0,0,0,0,0,0,0,0,0,0,0,0,0,0,0,0,0,0,0,0,0,0],"sum_hessian":[1.606E3,9.7E2,6.36E2,1.25E2,8.45E2,4.5E2,1.86E2,7E0,1.18E2,7.48E2,9.7E1,2.07E2,2.43E2,1.28E2,5.8E1,2.6E1,9.2E1,3.6E2,3.88E2,6.3E1,3.4E1,6.1E1,1.46E2,1.88E2,5.5E1,1.09E2,1.9E1,4E0,5.4E1],"tree_param":{"num_deleted":"0","num_feature":"299","num_nodes":"29","size_leaf_vector":"1"}},{"base_weights":[9.861602E-4,-6.326046E-2,7.491749E-2,-2.1035346E-1,-4.436139E-2,-4.2802435E-3,1.10627785E-1,-4.733543E-1,-1.7609787E-1,-8.567931E-2,-5.791174E-3,-2.2789985E-2,1.491724E-1,8.355461E-2,2.0565619E-1,-3.530868E-2,-1.164872E-2,-1.1118783E-2,-4.2685336E-3,-5.602482E-3,-1.9246523E-3,-7.906745E-3,1.1490124E-4,-6.097589E-3,-2.143939E-4,3.5881667E-4,9.248364E-3,3.1734556E-3,9.020071E-3,1.0431823E-2,-6.878697E-4],"categories":[],"categories_nodes":[],"categories_segments":[],"categories_sizes":[],"default_left":[0,0,0,0,0,0,0,0,0,0,0,0,0,0,0,0,0,0,0,0,0,0,0,0,0,0,0,0,0,0,0],"id":33,"left_children":[1,3,5,7,9,11,13,15,17,19,21,23,25,27,29,-1,-1,-1,-1,-1,-1,-1,-1,-1,-1,-1,-1,-1,-1,-1,-1],"loss_changes":[7.5728083E0,2.3514478E0,2.103135E0,7.866993E-1,1.2007502E0,6.5054566E-1,1.2909851E0,4.7993612E-1,3.8510346E-1,4.9886823E-1,5.164714E-1,3.8596863E-1,1.3780439E-1,7.1280885E-1,2.791481E-1,0E0,0E0,0E0,0E0,0E0,0E0,0E0,0E0,0E0,0E0,0E0,0E0,0E0,0E0,0E0,0E0],"parents":[2147483647,0,0,1,1,2,2,3,3,4,4,5,5,6,6,7,7,8,8,9,9,10,10,11,11,12,12,13,13,14,14],"right_children":[2,4,6,8,10,12,14,16,18,20,22,24,26,28,30,-1,-1,-1,-1,-1,-1,-1,-1,-1,-1,-1,-1,-1,-1,-1,-1],"split_conditions":[1.488E3,1E0,1.99E3,2E0,1.017E3,1E0,2.295E3,1E0,7E0,1.977E3,5E0,6.89E2,9.555E3,1E0,2E0,-3.530868E-2,-1.164872E-2,-1.1118783E-2,-4.2685336E-3,-5.602482E-3,-1.9246523E-3,-7.906745E-3,1.1490124E-4,-6.097589E-3,-2.143939E-4,3.5881667E-4,9.248364E-3,3.1734556E-3,9.020071E-3,1.0431823E-2,-6.878697E-4],"split_indices":[20,259,6,8,17,95,20,297,4,6,4,15,1,207,21,0,0,0,0,0,0,0,0,0,0,0,0,0,0,0,0],"split_type":[0,0,0,0,0,0,0,0,0,0,0,0,0,0,0,0,0,0,0,0,0,0,0,0,0,0,0,0,0,0,0],"sum_hessian":[1.593E3,8.52E2,7.41E2,9.6E1,7.56E2,2.3E2,5.11E2,1E1,8.6E1,3.64E2,3.92E2,2.06E2,2.4E1,3.99E2,1.12E2,4E0,6E0,5.2E1,3.4E1,2.17E2,1.47E2,1.9E1,3.73E2,3E1,1.76E2,6E0,1.8E1,3.42E2,5.7E1,1.07E2,5E0],"tree_param":{"num_deleted":"0","num_feature":"299","num_nodes":"31","size_leaf_vector":"1"}},{"base_weights":[-4.8404736E-3,-7.642437E-2,4.064592E-2,-5.7108182E-2,-1.8993756E-1,1.623255E-2,1.2850222E-1,-6.477971E-2,1.0048043E-1,-3.1620795E-1,-1.4005499E-1,-4.6188127E-2,3.7155747E-2,1.370651E-1,-1.2695013E-2,-4.365132E-3,-1.0970747E-3,-2.9716914E-4,7.479929E-3,-2.7576454E-2,-1.1120385E-2,-7.533835E-3,2.006727E-3,-4.6147695E-3,-3.9121057E-4,9.232146E-4,4.6256124E-3,3.8752526E-3,9.35439E-3],"categories":[],"categories_nodes":[],"categories_segments":[],"categories_sizes":[],"default_left":[0,0,0,0,0,0,0,0,0,0,0,0,0,0,0,0,0,0,0,0,0,0,0,0,0,0,0,0,0],"id":34,"left_children":[1,3,5,7,9,11,13,15,17,19,21,23,25,27,-1,-1,-1,-1,-1,-1,-1,-1,-1,-1,-1,-1,-1,-1,-1],"loss_changes":[5.1991415E0,1.3415203E0,2.08384E0,6.447642E-1,5.1423526E-1,9.991711E-1,7.25332E-1,5.428989E-1,1.5178184E-1,4.1747165E-1,2.0353746E-1,3.5568544E-1,6.0026383E-1,6.4717364E-1,0E0,0E0,0E0,0E0,0E0,0E0,0E0,0E0,0E0,0E0,0E0,0E0,0E0,0E0,0E0],"parents":[2147483647,0,0,1,1,2,2,3,3,4,4,5,5,6,6,7,7,8,8,9,9,10,10,11,11,12,12,13,13],"right_children":[2,4,6,8,10,12,14,16,18,20,22,24,26,28,-1,-1,-1,-1,-1,-1,-1,-1,-1,-1,-1,-1,-1,-1,-1],"split_conditions":[6E0,1E0,1.961E3,1.961E3,8.33E2,1E0,1.154E3,1.977E3,8.04E2,1E0,1E0,3.9E2,1.518E3,1.196E3,-1.2695013E-2,-4.365132E-3,-1.0970747E-3,-2.9716914E-4,7.479929E-3,-2.7576454E-2,-1.1120385E-2,-7.533835E-3,2.006727E-3,-4.6147695E-3,-3.9121057E-4,9.232146E-4,4.6256124E-3,3.8752526E-3,9.35439E-3],"split_indices":[3,231,20,20,20,247,33,6,18,297,24,33,15,15,0,0,0,0,0,0,0,0,0,0,0,0,0,0,0],"split_type":[0,0,0,0,0,0,0,0,0,0,0,0,0,0,0,0,0,0,0,0,0,0,0,0,0,0,0,0,0],"sum_hessian":[1.595E3,6.2E2,9.75E2,5.31E2,8.9E1,7.64E2,2.11E2,5.07E2,2.4E1,2.4E1,6.5E1,1.91E2,5.73E2,2.07E2,4E0,3.13E2,1.94E2,8E0,1.6E1,5E0,1.9E1,6E1,5E0,8.2E1,1.09E2,4.4E2,1.33E2,1.05E2,1.02E2],"tree_param":{"num_deleted":"0","num_feature":"299","num_nodes":"29","size_leaf_vector":"1"}},{"base_weights":[-2.0099693E-4,-5.4736733E-2,6.3825466E-2,-1.657412E-1,-3.5949174E-2,4.179286E-2,1.8007934E-1,-2.365401E-1,-8.660485E-2,-1.1167683E-3,-6.371617E-2,1.791302E-2,1.006134E-1,1.5645841E-1,3.367151E-1,-9.6620135E-3,-2.3575645E-2,-7.894602E-3,3.5613214E-4,-8.957553E-3,2.5978836E-4,-8.021613E-3,-2.3409268E-3,-2.541636E-3,1.642317E-3,3.780822E-3,8.89442E-3,-0E0,8.028089E-3,4.836415E-3,2.0018838E-2],"categories":[],"categories_nodes":[],"categories_segments":[],"categories_sizes":[],"default_left":[0,0,0,0,0,0,0,0,0,0,0,0,0,0,0,0,0,0,0,0,0,0,0,0,0,0,0,0,0,0,0],"id":35,"left_children":[1,3,5,7,9,11,13,15,17,19,21,23,25,27,29,-1,-1,-1,-1,-1,-1,-1,-1,-1,-1,-1,-1,-1,-1,-1,-1],"loss_changes":[5.63241E0,1.8037686E0,1.8835797E0,6.7476296E-1,7.1873087E-1,8.7015176E-1,3.7801623E-1,5.0330925E-1,4.484523E-1,4.09664E-1,6.291436E-1,5.0886196E-1,3.1193602E-1,1.7167115E-1,2.197547E-1,0E0,0E0,0E0,0E0,0E0,0E0,0E0,0E0,0E0,0E0,0E0,0E0,0E0,0E0,0E0,0E0],"parents":[2147483647,0,0,1,1,2,2,3,3,4,4,5,5,6,6,7,7,8,8,9,9,10,10,11,11,12,12,13,13,14,14],"right_children":[2,4,6,8,10,12,14,16,18,20,22,24,26,28,30,-1,-1,-1,-1,-1,-1,-1,-1,-1,-1,-1,-1,-1,-1,-1,-1],"split_conditions":[3E0,2E0,2.198E3,1.164E3,2.008E3,7.88E2,3.086E3,1E0,1E0,4E0,1E0,6.24E3,1E0,1.978E3,1.991E3,-9.6620135E-3,-2.3575645E-2,-7.894602E-3,3.5613214E-4,-8.957553E-3,2.5978836E-4,-8.021613E-3,-2.3409268E-3,-2.541636E-3,1.642317E-3,3.780822E-3,8.89442E-3,-0E0,8.028089E-3,4.836415E-3,2.0018838E-2],"split_indices":[27,35,20,20,44,12,20,293,66,4,297,1,289,6,31,0,0,0,0,0,0,0,0,0,0,0,0,0,0,0,0],"split_type":[0,0,0,0,0,0,0,0,0,0,0,0,0,0,0,0,0,0,0,0,0,0,0,0,0,0,0,0,0,0,0],"sum_hessian":[1.612E3,8.71E2,7.41E2,1.25E2,7.46E2,6.24E2,1.17E2,6.5E1,6E1,3.32E2,4.14E2,4.45E2,1.79E2,1.03E2,1.4E1,5.8E1,7E0,3.3E1,2.7E1,1.1E1,3.21E2,5.2E1,3.62E2,8.2E1,3.63E2,1.43E2,3.6E1,6E0,9.7E1,4E0,1E1],"tree_param":{"num_deleted":"0","num_feature":"299","num_nodes":"31","size_leaf_vector":"1"}},{"base_weights":[-9.4771973E-4,-7.5881936E-2,4.50492E-2,-2.946298E-1,-6.1579395E-2,2.3281587E-2,1.494952E-1,-2.3373345E-1,-2.8787734E-2,-5.1065642E-2,-2.3696654E-1,-2.087978E-3,8.952471E-2,1.0546758E-1,2.1046674E-1,-1.273813E-2,-2.6200174E-3,-3.1000995E-3,1.6040297E-3,-1.7619338E-2,-4.2265286E-3,-4.3217773E-3,5.361649E-4,3.5271028E-3,8.679805E-3,5.5802083E-3,-2.0481653E-3,1.0908716E-2,-0E0],"categories":[],"categories_nodes":[],"categories_segments":[],"categories_sizes":[],"default_left":[0,0,0,0,0,0,0,0,0,0,0,0,0,0,0,0,0,0,0,0,0,0,0,0,0,0,0,0,0],"id":36,"left_children":[1,3,5,7,9,11,13,15,-1,17,19,21,23,25,27,-1,-1,-1,-1,-1,-1,-1,-1,-1,-1,-1,-1,-1,-1],"loss_changes":[5.458469E0,1.8560855E0,2.2184582E0,5.477359E-1,1.0227003E0,1.370235E0,4.229827E-1,1.4813805E-1,0E0,6.016151E-1,5.640038E-1,6.845419E-1,3.1299984E-1,1.5863514E-1,2.2608376E-1,0E0,0E0,0E0,0E0,0E0,0E0,0E0,0E0,0E0,0E0,0E0,0E0,0E0,0E0],"parents":[2147483647,0,0,1,1,2,2,3,3,4,4,5,5,6,6,7,7,9,9,10,10,11,11,12,12,13,13,14,14],"right_children":[2,4,6,8,10,12,14,16,-1,18,20,22,24,26,28,-1,-1,-1,-1,-1,-1,-1,-1,-1,-1,-1,-1,-1,-1],"split_conditions":[6E0,4E0,2.122E3,1E0,1E0,7.67E2,1.502E3,1.962E3,-2.8787734E-2,1.276E4,1.048E3,1.118E3,1E0,1E0,1E0,-1.273813E-2,-2.6200174E-3,-3.1000995E-3,1.6040297E-3,-1.7619338E-2,-4.2265286E-3,-4.3217773E-3,5.361649E-4,3.5271028E-3,8.679805E-3,5.5802083E-3,-2.0481653E-3,1.0908716E-2,-0E0],"split_indices":[3,4,20,276,100,12,17,5,0,1,20,20,298,293,280,0,0,0,0,0,0,0,0,0,0,0,0,0,0],"split_type":[0,0,0,0,0,0,0,0,0,0,0,0,0,0,0,0,0,0,0,0,0,0,0,0,0,0,0,0,0],"sum_hessian":[1.582E3,6.02E2,9.8E2,3.6E1,5.66E2,8.12E2,1.68E2,3.1E1,5E0,5.35E2,3.1E1,5.87E2,2.25E2,9.9E1,6.9E1,2.6E1,5E0,4.63E2,7.2E1,1.6E1,1.5E1,7.7E1,5.1E2,1.92E2,3.3E1,9.3E1,6E0,6.4E1,5E0],"tree_param":{"num_deleted":"0","num_feature":"299","num_nodes":"29","size_leaf_vector":"1"}},{"base_weights":[-3.182459E-3,-5.226351E-2,5.6765623E-2,-3.4681316E-2,-1.839379E-1,2.7297493E-2,1.3471456E-1,-8.005885E-2,-8.529867E-3,-4.2771676E-1,-1.4862816E-1,2.2001583E-3,6.971459E-2,1.4252368E-1,-9.651168E-3,-4.6285386E-3,4.0322883E-4,-1.592082E-3,2.2919506E-3,-3.4969345E-2,-1.1203869E-2,-4.5398483E-3,-1.276071E-2,-2.4130575E-3,9.902855E-4,2.5964845E-3,7.1711186E-3,6.2282523E-3,1.9934695E-2],"categories":[],"categories_nodes":[],"categories_segments":[],"categories_sizes":[],"default_left":[0,0,0,0,0,0,0,0,0,0,0,0,0,0,0,0,0,0,0,0,0,0,0,0,0,0,0,0,0],"id":37,"left_children":[1,3,5,7,9,11,13,15,17,19,21,23,25,27,-1,-1,-1,-1,-1,-1,-1,-1,-1,-1,-1,-1,-1,-1,-1],"loss_changes":[4.725744E0,2.0305648E0,1.6492784E0,9.2136496E-1,8.238504E-1,5.55743E-1,5.310912E-1,4.069265E-1,6.825832E-1,5.819838E-1,5.455878E-1,3.170544E-1,2.2854203E-1,6.380539E-1,0E0,0E0,0E0,0E0,0E0,0E0,0E0,0E0,0E0,0E0,0E0,0E0,0E0,0E0,0E0],"parents":[2147483647,0,0,1,1,2,2,3,3,4,4,5,5,6,6,7,7,8,8,9,9,10,10,11,11,12,12,13,13],"right_children":[2,4,6,8,10,12,14,16,18,20,22,24,26,28,-1,-1,-1,-1,-1,-1,-1,-1,-1,-1,-1,-1,-1,-1,-1],"split_conditions":[3E0,1E0,1.93E3,1.88E2,3E0,1.35E3,2.74E2,1.795E3,1.478E3,1E0,2.009E3,6.24E3,9E0,3.086E3,-9.651168E-3,-4.6285386E-3,4.0322883E-4,-1.592082E-3,2.2919506E-3,-3.4969345E-2,-1.1203869E-2,-4.5398483E-3,-1.276071E-2,-2.4130575E-3,9.902855E-4,2.5964845E-3,7.1711186E-3,6.2282523E-3,1.9934695E-2],"split_indices":[27,231,20,12,3,17,37,20,20,297,44,1,3,20,0,0,0,0,0,0,0,0,0,0,0,0,0,0,0],"split_type":[0,0,0,0,0,0,0,0,0,0,0,0,0,0,0,0,0,0,0,0,0,0,0,0,0,0,0,0,0],"sum_hessian":[1.605E3,8.83E2,7.22E2,7.8E2,1.03E2,5.25E2,1.97E2,2.84E2,4.96E2,1.2E1,9.1E1,3.31E2,1.94E2,1.93E2,4E0,2.41E2,4.3E1,3.46E2,1.5E2,4E0,8E0,6.3E1,2.8E1,8.5E1,2.46E2,1.63E2,3.1E1,1.85E2,8E0],"tree_param":{"num_deleted":"0","num_feature":"299","num_nodes":"29","size_leaf_vector":"1"}},{"base_weights":[-1.4271148E-3,-6.892024E-2,3.8091496E-2,-1.7699462E-1,-4.4246566E-2,2.0600865E-2,1.1187419E-1,-1.4463918E-1,-4.2017075E-1,-7.0306417E-3,-3.2451876E-2,-5.610827E-2,3.1292677E-2,1.1804014E-1,-4.9090874E-3,-9.752351E-3,-3.6294865E-3,-9.53046E-3,-3.71012E-2,-2.4859114E-3,7.2885526E-4,-1.6724285E-3,-8.168809E-3,1.223452E-3,7.9366835E-3,4.8062624E-3,1.0159913E-2],"categories":[],"categories_nodes":[],"categories_segments":[],"categories_sizes":[],"default_left":[0,0,0,0,0,0,0,0,0,0,0,0,0,0,0,0,0,0,0,0,0,0,0,0,0,0,0],"id":38,"left_children":[1,3,5,7,9,11,13,15,17,-1,19,21,23,25,-1,-1,-1,-1,-1,-1,-1,-1,-1,-1,-1,-1,-1],"loss_changes":[4.357701E0,1.5934668E0,1.3205076E0,8.124387E-1,5.7840705E-1,6.834688E-1,2.6716185E-1,3.7500525E-1,8.385284E-1,0E0,4.0503195E-1,2.325767E-1,5.650942E-1,2.9698896E-1,0E0,0E0,0E0,0E0,0E0,0E0,0E0,0E0,0E0,0E0,0E0,0E0,0E0],"parents":[2147483647,0,0,1,1,2,2,3,3,4,4,5,5,6,6,7,7,8,8,10,10,11,11,12,12,13,13],"right_children":[2,4,6,8,10,12,14,16,18,-1,20,22,24,26,-1,-1,-1,-1,-1,-1,-1,-1,-1,-1,-1,-1,-1],"split_conditions":[6E0,1E0,3E0,1E0,5.976E3,1.118E3,1E0,1.961E3,9.434E3,-7.0306417E-3,4E0,1.67E2,1E0,1.4828E4,-4.9090874E-3,-9.752351E-3,-3.6294865E-3,-9.53046E-3,-3.71012E-2,-2.4859114E-3,7.2885526E-4,-1.6724285E-3,-8.168809E-3,1.223452E-3,7.9366835E-3,4.8062624E-3,1.0159913E-2],"split_indices":[3,259,32,293,1,20,22,6,1,0,16,18,164,1,0,0,0,0,0,0,0,0,0,0,0,0,0],"split_type":[0,0,0,0,0,0,0,0,0,0,0,0,0,0,0,0,0,0,0,0,0,0,0,0,0,0,0],"sum_hessian":[1.632E3,6.03E2,1.029E3,1.11E2,4.92E2,8.33E2,1.96E2,9.9E1,1.2E1,5E1,4.42E2,1.01E2,7.32E2,1.91E2,5E0,5.3E1,4.6E1,8E0,4E0,3.16E2,1.26E2,8.6E1,1.5E1,7.02E2,3E1,1.61E2,3E1],"tree_param":{"num_deleted":"0","num_feature":"299","num_nodes":"27","size_leaf_vector":"1"}},{"base_weights":[-2.8703962E-3,-7.432735E-2,3.5587795E-2,-1.5582623E-1,-4.1530766E-2,1.3331346E-2,1.13656566E-1,-4.0204382E-1,-1.3870779E-1,-1.9786504E-1,-3.437883E-2,-1.4364551E-1,2.2805423E-2,9.091695E-2,1.9334872E-1,-5.699153E-3,-3.295376E-2,-8.03709E-3,-2.7146188E-3,-4.3366267E-3,-1.5023323E-2,-6.947061E-3,-1.2747975E-3,-8.804845E-3,-9.0185995E-4,4.9140543E-4,5.800682E-3,3.886933E-3,9.924768E-3,7.655991E-3,1.6228344E-2],"categories":[],"categories_nodes":[],"categories_segments":[],"categories_sizes":[],"default_left":[0,0,0,0,0,0,0,0,0,0,0,0,0,0,0,0,0,0,0,0,0,0,0,0,0,0,0,0,0,0,0],"id":39,"left_children":[1,3,5,7,9,11,13,15,17,19,21,23,25,27,29,-1,-1,-1,-1,-1,-1,-1,-1,-1,-1,-1,-1,-1,-1,-1,-1],"loss_changes":[4.2757964E0,1.4416125E0,1.7485131E0,5.944383E-1,4.1957122E-1,1.1670909E0,3.799975E-1,6.776401E-1,3.2155323E-1,1.6634941E-1,3.141018E-1,